-0.24067742,0.24265778,0.15887825,-0.13471171,-0.041274898,0.24966983,-0.07034616,-0.073584765,-0.20324856,0.17306429,0.13917293,0.23965812,0.10825009,0.1012631,0.23738065,-0.03151933,-0.13284306,0.18078111,0.09015092,0.13692161,0.025711855,0.11685341,-0.2078423,0.18497942,0.041777678,0.068312906,0.073136665,-0.08613457,0.2215293,-0.22330093,0.182338,0.24334608,0.17789476,-0.06416442,0.12079086,0.20783578,-0.14916337,-0.094927065,0.17938209,0.07316998,0.11940565,0.051564265,0.107726425,0.1029504,-0.096736185,-0.0997036,0.03414011,-0.167314,-0.04206472,-0.15821496,-0.058290467,0.06944966,-0.2469739,-0.033156425,-0.020166717,0.2437747,0.10827399,-0.21836418,-0.13751128,-0.009393793,-0.012434213,-0.05181895,0.07092826,0.16472548,-0.22963154,0.13421981,-0.12494131,0.08002289,-0.14624874,0.12853827,0.034777783,0.119827315,0.14529748,0.22985435,-0.16492513,0.16119644,-0.121048614,0.11024291,0.10241586,-0.12357279,0.201624,0.032413863,0.17046806,-0.11091884,-0.06594335,0.20407842,0.12576269,0.15959868,-0.02830483,-0.22213247,0.13126327,-0.19209556,-0.0011160178,0.10654092,-0.2145677,0.0659814,-0.111223675,-0.12783745,0.070971586,-0.0064705373,0.19799025,-0.041023288,0.12952559,0.018011352,0.05967866,0.12390229,0.21080475,-0.23491655,0.075038545,0.13608432,0.24939486,-0.19475117,-0.21633108,0.16963795,-0.18866242,0.068368986,-0.08356841,0.045345012,-0.14930525,-0.10800551,0.2372091,-0.07310967,-0.2489891,0.16388468,-0.20542407,-0.108434804,0.12669218,0.074551225
-0.08899948,-0.09527269,-0.15029868,0.017966716,-0.2257465,-0.17891419,-0.024885025,-0.05359299,-0.06937773,-0.06466121,0.0935617,0.01805888,0.121440604,0.13383995,-0.051191494,-0.2218404,0.08363131,-0.20531847,-0.031231454,0.15410289,0.23825584,0.2139238,0.04788495,-0.039589625,0.06342165,0.21496774,-0.21994632,0.20555156,-0.059374213,-0.21201153,-0.17985953,0.032960083,-0.077369235,-0.18824843,-0.06173194,-0.12607163,0.09980711,-0.080541156,0.13391125,0.011661794,-0.21233468,-0.012536808,-0.24174716,-0.08497233,0.24385226,0.15982288,-0.1611565,0.09004335,0.14628644,-0.14253207,0.18587482,0.23234795,-0.19100651,0.24237092,0.13559093,-0.01369496,0.1630476,-0.04870746,0.2315601,0.07678663,-0.18836808,-0.056061145,-0.1840006,0.20701827,-0.10238397,-0.052731328,-0.12426133,-0.09420465,0.13749477,-0.046587523,-0.03304471,-0.051409584,0.116000295,0.0030702483,0.002352955,0.096344404,0.22687504,-0.104080185,0.093729824,-0.19455948,0.21671303,-0.16028853,-0.0129448585,0.14577845,0.15722692,-0.10965971,0.22380285,-0.24292211,-0.053038333,-0.13074754,0.16754183,-0.06425,-0.23685841,-0.20229347,0.1316084,0.0033254963,-0.029478477,0.16395605,0.1018794,0.18374269,-0.24159242,0.12066324,0.20035852,0.046462372,-0.07561954,-0.08074143,0.078593336,0.00084038795,0.073663875,0.10570014,0.017165005,-0.1713038,0.018016538,0.04069563,0.04427292,-0.2009627,0.054313384,0.07427098,0.060685914,0.048302773,0.22535418,0.1539465,0.10814696,-0.0066525126,-0.17755091,0.1393605,-0.16028981,0.12630472
0.06365994,-0.04827548,-0.18055907,-0.14892879,-0.21364027,0.03817512,0.1740236,-0.1782903,0.022986934,0.052976772,0.13542478,0.10933059,-0.021886589,0.124567226,0.21834835,0.16571167,-0.020687465,0.043342836,0.12329647,0.12993543,-0.08207485,0.22532684,-0.018737137,-0.058451466,0.1582197,-0.013949105,-0.12425137,-0.23959048,-0.15446034,0.07458055,-0.11498446,-0.15519254,-0.040465947,0.047761913,-0.1428324,-0.029057762,-0.11152636,-0.16397703,-0.21553774,0.10521748,-0.09059962,0.13475823,-0.18962362,0.20633346,-0.035990108,-0.11224103,0.013179844,-0.2456449,-0.1257274,-0.20023197,-0.119207524,0.12174356,-0.21773203,-0.13555348,0.10409597,-0.1450142,0.05267021,-0.23079544,-0.1926931,0.066874206,-0.07388838,0.14234181,0.20408903,0.12075436,-0.1666487,0.15453465,0.124539666,-0.08683645,0.021663701,-0.1762579,0.13687482,-0.2330207,-0.027032852,0.1534535,-0.08881726,-0.14993083,-0.06385157,-0.23680355,0.11943711,0.098066,0.011194117,0.14532052,0.099051535,-0.07830146,0.2244098,-0.032428164,0.08976826,-0.052503046,-0.03614404,-0.040254235,0.069964655,0.025543436,0.08025823,0.21974444,-0.23700966,-0.11733238,0.19733931,-0.06318741,0.12717496,0.04239941,-0.24450277,-0.24937338,0.017927323,-0.16352639,-0.114582546,-0.22949968,0.13092904,0.15776764,-0.060376495,-0.026811216,-0.060047586,-0.050245058,-0.013539355,0.085045666,-0.032848284,0.124105334,-0.16297865,0.07384705,0.14693105,0.13030715,-0.10070275,-0.1954869,-0.2420362,0.23185661,-0.15018076,0.22439368,-0.13931498,-0.1595932
-0.24514617,0.22770444,0.01718473,-0.19314367,0.13566928,0.21254505,0.21550931,0.21226218,0.051682353,0.04405027,0.096625365,0.06474381,0.07801367,-0.22723395,-0.09912111,0.023041671,0.087542064,0.07830426,-0.16860442,0.026166063,0.01602935,0.040807877,-0.043249242,0.10832575,0.103026055,0.06872635,-0.09925327,0.09561957,0.2462659,0.07727162,0.093726754,0.10255618,-0.21237038,0.21209392,-0.07788006,0.086179204,-0.24578339,-0.03642727,-0.011087084,0.22319765,0.09396761,-0.23093121,-0.09284968,-0.07782151,-0.20180288,0.2202544,-0.008408617,-0.010014512,-0.032002144,0.21579394,-0.015023912,-0.19711816,0.17746405,-0.18115714,0.07712102,-0.13983595,0.073829256,-0.16189907,0.12087876,0.016767263,0.05770822,-0.044394672,0.08662817,0.052903827,-0.01899927,-0.24364826,0.13215739,0.15223186,-0.20362884,-0.05133181,0.08473356,0.1983812,-0.12409881,-0.12618096,0.092451945,-0.012714433,0.050717857,-0.019573951,0.10612893,0.20156859,0.07931256,-0.12146697,0.012520091,-0.01893419,0.06781972,-0.17451422,0.06094641,0.0763854,0.18552892,-0.15773429,-0.0021212474,-0.07426877,-0.017778661,-0.13625379,0.14112069,-0.16011165,0.20778418,0.15207607,-0.21329254,0.043040987,0.20031704,0.06516167,-0.0035672463,-0.16351458,-0.04355461,0.01593671,0.13405891,-0.12603498,-0.1755061,-0.23201239,-0.23311274,-0.0533895,-0.22575538,0.18634509,-0.2063686,-0.053727407,0.120827004,0.07309602,0.103937306,0.09894048,-0.2451004,0.030056287,-0.06323527,0.21132031,0.10306631,-0.23714158,-0.09649836,0.19431767
0.13698043,-0.087624274,-0.14729159,-0.08545297,-0.22061536,0.14806901,-0.21703443,0.13617997,-0.18508425,0.24131736,-0.15220164,-0.015871542,0.041353714,0.22183923,-0.008754898,0.17822857,-0.100595,-0.01699191,-0.033679552,-0.187386,0.10386373,-0.20974779,0.041340932,0.054136116,-0.12053293,-0.016830465,-0.24350812,-0.10044568,0.20860042,-0.21423432,-0.056815058,-0.07403406,0.24042769,-0.13992336,0.062436387,0.12350008,0.12925652,0.09162168,-0.15808482,-0.16673958,-0.06480415,-0.20743643,-0.18303247,0.15964895,0.22809649,0.09036404,0.19900446,-0.10494739,0.0656274,0.15576084,0.24990971,-0.13891792,0.09491488,-0.17334239,0.059567574,-0.2355985,-0.114915326,-0.13369964,0.15724203,0.14740011,0.018749444,-0.012526557,0.10973408,-0.2073878,-0.24543577,-0.0797039,0.029204339,-0.2313429,-0.03876753,-0.16511437,0.05646511,0.08157201,-0.09699081,0.059619598,-0.13508107,-0.15886693,-0.21052995,0.085863225,0.06605417,-0.22675575,-0.041120905,-0.12795268,-0.1995127,0.12549654,-0.00031558872,-0.021423442,0.2017754,-0.24632446,0.12322591,-0.053296205,-0.21808945,-0.04445805,0.17674905,-0.17369218,0.16113412,0.23284644,0.17934579,-0.015297248,0.16480152,-0.06693032,0.074804,0.20755765,-0.18026905,-0.12659211,0.20144576,0.23258212,-0.034882404,-0.22438155,0.12420799,0.14891613,0.12065248,0.13167332,-0.15777941,-0.08155458,-0.17724986,-0.17352141,0.008074375,-0.17451702,0.072553165,0.0753044,-0.24512725,0.0917008,-0.18455215,0.13318354,0.2229667,0.16967711,-0.20609285,0.040337905
0.073777944,0.16757987,-0.044660646,-0.063699394,-0.0988942,-0.181221,-0.15738527,-0.16738941,0.041965492,0.07825596,-0.20585771,-0.15534844,0.19442697,0.1807316,0.08192705,0.0828532,-0.19796173,-0.01415182,-0.22012708,0.08231401,0.12124498,0.09503207,0.11364111,-0.029225703,0.24422255,0.01634479,-0.12465996,-0.10893678,0.23125091,-0.067241944,-0.16064452,-0.2496465,-0.05852784,-0.0891819,0.16937046,-0.0927445,0.23345272,-0.071706995,0.1600376,0.21548866,-0.023380592,0.22021851,-0.17576054,-0.22141574,-0.100651674,0.20837238,0.0069104126,-0.2233487,-0.06770813,0.08080827,0.01571829,0.24815738,-0.1206815,-0.06397011,-0.12065028,-0.15354957,-0.078936934,-0.2362646,0.12745014,-0.20620874,-0.029697731,0.08312901,-0.20597047,-0.21705747,-0.13291402,-0.1277029,-0.0014202237,0.15010393,-0.16248609,0.12443326,-0.03345884,-0.23535466,-0.09998266,0.01615015,0.18047217,0.004772598,-0.10778638,-0.14851043,-0.16203569,0.10760911,-0.034257334,-0.19941953,-0.15804732,0.22823581,0.21630748,-0.09807744,0.098814376,0.037263695,0.11762159,-0.23652849,-0.05497731,-0.00695353,-0.060617946,-0.1873189,0.032127354,0.18466267,-0.17094217,0.21915087,-0.06107016,0.023473442,0.20137958,-0.12860513,-0.120734185,0.017499426,0.17824598,0.02908762,-0.14550732,-0.0044345115,-0.16649142,0.16470256,-0.17366208,0.16001007,0.13616425,0.19034243,0.21745655,-0.1268102,0.01847739,-0.22768864,-0.15069398,0.11514453,-0.24873191,-0.06687155,0.1250794,-0.18742496,0.18449908,-0.14068604,-0.21199028,-0.0071320487
-0.041787215,-0.13703112,-0.2447714,-0.048196815,-0.055266526,0.0049207825,-0.038177416,-0.14791867,0.09395655,0.17725255,-0.22389105,-0.041779198,-0.18868773,-0.19344677,0.18942407,-0.14581439,-0.0036698997,-0.16828904,-0.19775112,-0.08930535,-0.039493795,0.12354647,0.17957965,0.19798349,-0.23205847,-0.21579483,-0.05295025,0.19858547,-0.120156705,-0.08445147,0.18980223,0.0038648073,0.18271622,-0.08195029,-0.2372336,-0.027972853,0.13192813,-0.2473122,0.09319284,0.15496252,0.07823415,-0.24794266,-0.101148196,-0.010263859,-0.05145014,-0.017385688,-0.064189635,0.17314313,0.12397076,0.15081199,-0.17586707,-0.031941924,0.10533714,-0.051142685,0.007313339,-0.09832694,-0.10308929,-0.23607995,-0.047603242,0.22016862,-0.013993563,-0.20477939,-0.07726212,-0.11242727,-0.1649479,0.014032628,-0.11277048,0.21354093,0.11413632,-0.24804093,-0.24208754,0.24573682,-0.007790998,0.02425492,-0.14011407,-0.04818859,-0.15900317,0.018599026,0.12097632,0.17527081,0.24199282,0.12952872,0.22172844,-0.24416934,-0.046279233,0.16028492,0.013919575,-0.195312,0.18513171,-0.008718545,0.16627279,0.034967236,-0.1435697,0.0036457635,0.053569064,0.16782723,0.01456148,-0.16852584,-0.17688073,0.06642649,0.0808574,0.18836534,-0.17263287,-0.21219768,-0.0017212116,-0.22548166,0.23366855,-0.007820706,0.1932563,0.21197893,0.17926241,-0.17731199,-0.12582275,0.06023168,0.15574132,0.020568244,-0.20650621,-0.061046083,-0.18175752,0.12768313,-0.2367602,-0.049405117,0.14133717,-0.2093805,0.15305409,0.1995013,0.0026610943,0.06888621
0.046662435,-0.11618167,-0.1278655,0.21055521,0.23596945,-0.010090764,0.17832315,-0.12031881,-0.17934605,0.15022545,0.17016037,0.13808426,0.14553024,0.16328494,0.1739238,0.0742067,-0.031904884,-0.16981727,0.080351524,0.2293825,0.09555306,0.12610897,-0.06224726,0.2280888,-0.023194892,0.23292334,0.13004285,-0.018263383,-0.2171505,0.19427824,0.1377918,-0.14680597,-0.1258606,0.18748383,0.048975818,0.1777738,0.12688625,-0.08142615,0.19854169,-0.13037425,0.034068774,0.21696238,0.023250435,0.0019796183,0.15671597,0.24230593,-0.1758272,-0.2428934,-0.062497742,-0.18688817,-0.020726172,-0.17294286,-0.0034146516,-0.11367636,-0.20541921,0.05202321,0.19953094,-0.07837435,-0.0045719394,-0.010727722,0.006055156,0.16173568,0.20915738,-0.0032427777,-0.19766235,0.11230602,0.2036215,0.022586301,0.19568947,-0.2287287,-0.23856688,0.05433895,0.040265854,0.020068772,0.13754255,-0.13424872,-0.0760697,0.21418096,0.10852277,0.048414547,0.0047897613,0.15231049,0.04798513,0.17559725,0.18653809,0.20969686,-0.2384374,0.23905437,-0.24841312,-0.15939638,0.0035984146,-0.047704585,-0.18480858,0.04642718,0.24457793,0.05177839,0.11517135,-0.019285329,-0.07108062,0.24835467,0.10709814,0.059558425,0.17300019,-0.23019081,-0.24304852,-0.20434254,-0.2036078,-0.021626156,-0.17198192,0.19111393,0.011758518,0.116469644,-0.047421385,-0.17290004,0.22313109,0.107033566,-0.13348667,0.23043397,-0.05029309,-0.00885028,0.12913094,-0.14432053,0.017500112,0.01661601,-0.08505225,0.042674683,-0.030940002,0.23089726
0.062047586,-0.16245897,0.015742606,0.2119994,0.13149165,0.15523064,-0.2216353,0.2340691,-0.056625605,-0.21409702,0.19290471,0.1907483,0.19040623,-0.017386492,0.17548336,-0.20485426,0.021146918,-0.24653448,-0.06598894,0.15349671,-0.10027184,0.18127507,0.12533589,0.13168786,0.2283713,-0.17147672,0.13319421,0.2195013,0.075442955,-0.12964875,0.21472608,0.24120001,-0.09829854,0.13820453,-0.029162263,0.13852873,0.09538229,0.08145931,-0.08234425,0.017165452,-0.02233603,-0.074790716,0.18552707,-0.08467256,-0.2342801,-0.024077354,0.23639697,0.240702,-0.09628847,0.13461061,0.023966208,-0.14187518,-0.005294417,-0.038186565,0.030399559,-0.24456553,-0.2362446,-0.1395135,0.18724269,-0.18419226,0.03551367,0.09764671,-0.020414487,-0.009465695,-0.15092194,0.07152222,0.10583697,0.19415697,-0.2405589,-0.13733882,0.06995843,-0.0007123467,-0.17704661,0.10770357,-0.18045954,0.22560515,-0.02023889,-0.022228519,-0.057401747,-0.103878245,0.19627601,-0.2037982,0.0072004944,0.2307431,0.0051147663,-0.1939041,0.20870185,-0.118143715,-0.085390426,-0.064030334,-0.052340083,0.10051285,-0.12760407,-0.16918106,0.087236606,0.11787315,-0.011645912,0.18518372,0.10181707,-0.04327621,-0.079597905,-0.0715572,0.17995688,-0.1427984,-0.18013489,-0.05699313,0.0060814074,0.15734686,-0.11750491,0.107456155,-0.22672448,0.21884619,0.003988647,-0.23931143,-0.14155509,0.08732267,-0.03072066,-0.20073466,-0.055801008,0.024973316,0.22781514,0.13888946,-0.18554963,-0.22587094,0.24516593,0.12096297,-0.028199973,-0.20496887
0.12233648,0.10147937,-0.15412,0.12443779,-0.2217769,-0.08673874,0.23863529,0.024231588,-0.038744766,-0.04473687,-0.14415793,0.14020191,0.16749373,-0.016243806,-0.018347293,0.15533195,0.047466677,-0.21705526,-0.11959731,0.029037679,-0.061618794,0.010081586,0.043698445,-0.12116828,-0.12267656,0.23749903,-0.04664563,0.08971206,-0.11370175,0.21493547,-0.055028502,-0.15756227,-0.17295118,0.17872211,0.11941113,0.14361009,-0.22495213,0.026021395,-0.17977238,-0.23266177,-0.20967266,0.24921453,-0.24606201,0.19627514,-0.13856061,-0.21790521,0.02303774,0.05322922,-0.09074789,0.11453949,-0.039831612,-0.23353125,0.051202223,-0.08081902,0.19468912,-0.12515445,-0.04952854,0.13763447,-0.035104547,-0.15082188,-0.15607288,-0.0419826,-0.12559913,0.04013671,-0.052972004,-0.1269658,0.2247341,0.09945592,0.113220364,-0.13336113,-0.18306303,0.15309766,0.03126429,0.2072271,-0.18039532,0.14502108,0.24307624,0.14916885,0.23347162,-0.1720528,-0.008130425,0.19077432,-0.20201862,0.055876993,0.025469985,-0.16925299,-0.23861049,0.23431613,-0.0015691533,0.014821943,-0.032075863,-0.19514191,-0.18111241,0.2467641,-0.009005885,0.24436958,0.00020724385,-0.12286643,-0.04192634,0.22250447,-0.09741131,0.038770303,-0.22502021,0.067194864,-0.20701315,-0.11834041,-0.2286253,0.1074825,-0.06571531,0.027313845,-0.2164236,0.092704386,-0.11177857,-0.05424574,-0.17282602,-0.13077429,0.16752294,0.09281461,0.12987636,0.14284045,-0.10009416,0.14227805,0.18898398,0.040662166,-0.05146009,0.24906169,0.05760315,0.20371948
-0.10728694,-0.24752067,-0.1637947,0.1779317,-0.1301213,-0.24350077,0.24618307,-0.100991815,-0.22873048,-0.019041136,-0.0052526705,-0.039359048,0.11526098,-0.113689385,-0.10502126,-0.07203174,-0.22726929,-0.20221236,-0.09122442,-0.2224691,0.19802892,-0.14777547,-0.21524283,-0.08578915,0.08367508,-0.03187726,-0.08652477,0.12027184,-0.10270922,0.08002693,-0.0801503,0.13758986,0.048850667,-0.12595747,0.04458335,-0.10312597,-0.21766643,-0.23750356,-0.19521745,0.019552108,-0.13544492,0.16053183,0.023116017,0.020928053,0.008050179,-0.09910711,0.13362028,0.16854356,-0.04555187,0.17967595,-0.072056405,-0.20331673,0.1263523,-0.027718082,-0.19571939,0.10384672,-0.034367733,-0.057542276,-0.07193843,0.22372687,-0.12884822,0.04050954,-0.1542634,-0.024062576,0.11628674,-0.054598935,-0.10966382,0.096395835,-0.16314608,-0.12071026,0.18032318,0.22938074,0.21649574,0.18297197,0.08165997,-0.0009066881,-0.24290335,0.20060027,0.075423084,0.2036754,0.09083088,-0.08688371,0.13687956,0.0005717606,0.16907051,0.027105886,-0.12381528,0.15412995,-0.183407,-0.12820739,0.11173319,0.16568366,0.13139674,-0.1693319,0.180475,-0.097416885,0.013637062,0.07035093,0.16299346,-0.1955675,0.19785023,-0.002242733,-0.039150104,-0.054959785,0.08944966,0.026666397,-0.052934043,-0.09688237,-0.10569436,-0.085533544,-0.08130979,0.23262748,-0.22430605,-0.15172443,-0.07034306,-0.23291855,0.20051216,0.06404354,0.084706984,-0.17059852,0.06894989,-0.012337848,-0.13947698,-0.012510764,0.13723935,0.2399452,0.041333273,-0.1273851
-0.21502325,0.02641839,-0.16981204,-0.106435135,-0.10987574,-0.101886705,-0.23197517,-0.10534632,0.13633949,-0.11865534,0.13685735,-0.025620315,0.12521364,0.22199805,-0.027303744,-0.18972678,0.15907775,-0.19593185,-0.12995143,-0.16892742,0.18302695,0.06721992,0.23689976,-0.14389856,0.07259554,-0.020897629,-0.19775249,-0.0033562775,-0.17048228,-0.071975894,0.091036394,0.24668376,-0.14991376,-0.07827888,-0.0066785854,0.13769937,0.12941179,0.023028262,0.06073836,-0.19788906,-0.22644126,0.1420668,0.048250865,0.121739745,0.21221207,0.18502122,0.18097864,-0.20671642,-0.2075386,0.18075722,-0.020127684,-0.013224988,-0.1873353,0.04623424,-0.19147651,0.04693747,-0.11987333,-0.045386672,-0.05960655,0.2388513,-0.21064799,0.00483565,0.1433612,-0.2325355,-0.13943233,-0.058230307,-0.009069891,-0.21694125,-0.03311718,0.02884453,-0.06483249,-0.10265686,-0.13086365,0.055464353,-0.033634856,-0.12974058,-0.19637044,0.098471634,-0.1831841,0.12132594,-0.1644855,0.23391794,0.058564696,-0.23114137,-0.12716623,0.219152,0.07096461,-0.10078148,0.18509504,-0.22956721,-0.23521574,0.08718482,0.14855936,0.21218015,0.14393125,-0.13826948,-0.1607669,0.14060546,-0.20078336,-0.03765068,-0.06419863,0.14152904,0.033055797,-0.21206498,-0.14876276,-0.14599198,0.11075188,0.22222309,0.017495343,-0.04200456,-0.23027259,-0.14052717,-0.19495258,0.20512863,-0.097988255,0.053973924,-0.1312361,-0.031561404,0.04889411,-0.013260716,0.2324604,-0.13916193,0.18719411,0.22703856,0.039806433,-0.1587141,0.1607669,0.17758095
-0.08533712,0.00555196,0.042758413,0.08912263,-0.11276956,-0.10985727,0.0062748846,-0.15133733,-0.14145377,-0.037904408,-0.14879155,-0.14369173,0.24147445,0.13749954,0.10292835,-0.20875278,-0.0014689432,-0.008432277,0.0038985086,0.09166957,0.07968286,0.038158644,0.11974865,-0.07537562,-0.24288934,-0.17579815,-0.16251755,-0.15437396,-0.12084685,-0.044740386,0.11602786,-0.030862497,0.18385881,0.07718118,-0.12916185,0.118611835,-0.043418583,-0.13594306,0.045960844,-0.17421624,-0.048415173,0.03423132,-0.24210247,-0.24273865,0.19960889,0.061189976,-0.13327132,-0.09924653,0.07234309,-0.14438546,-0.16870394,0.14125979,0.2253334,-0.032718573,0.021568766,-0.24725063,0.025717188,0.0012344343,-0.14036028,-0.0028792443,0.2461724,0.20247383,0.18833525,0.14614853,0.1040525,0.2288068,0.05549898,-0.15059425,0.2403691,0.019007552,0.18816462,-0.110192016,-0.042006467,0.0365374,0.016405072,0.18351346,0.12118592,0.16104545,0.09501161,0.17978363,0.104861304,0.12654595,-0.1974459,0.18091026,0.22891404,0.17994177,-0.14498925,0.22217321,-0.07109081,0.16620107,-0.09083225,-0.08287373,0.05315282,-0.1798889,-0.09437292,0.08527716,-0.16941987,0.097606875,-0.06920708,0.084836185,-0.014023033,0.09224166,0.12807661,-0.0752608,-0.0043281037,0.11393,0.05368736,0.21954861,-0.11968211,0.20004252,0.026589878,0.20138213,0.15287846,-0.15986066,-0.16620602,-0.17739907,0.006637703,0.09314402,-0.030225122,0.14709233,-0.23979439,-0.2206987,0.23185524,0.07485001,-0.12043075,-0.1619826,0.010455698,0.08876282
-0.035038304,0.0030054976,-0.066140465,0.10272903,0.1836802,0.1422407,-0.0032777602,0.0869133,0.07358894,-0.18060564,-0.106820926,0.15297966,0.15541798,-0.15795021,-0.2307966,0.22617115,-0.19403799,0.04839908,-0.09993304,-0.15308821,-0.15919632,0.20314439,0.20257244,-0.23342499,0.18094978,-0.021448145,0.20209052,0.16549143,-0.23269643,0.071055226,0.1142239,0.049826577,-0.04773906,0.031856284,0.113807864,0.24226004,-0.08885823,0.18449336,-0.16952147,0.13913614,-0.15092933,0.1121205,0.13845634,0.24027917,-0.14237706,0.07946817,-0.16473392,-0.106308736,0.11316405,-0.038099345,0.043767575,0.18554534,0.14624925,0.09245879,-0.0574513,0.0996592,-0.20707886,-0.20354758,-0.18662757,0.13903922,-0.10052262,-0.20580879,0.1966335,-0.19826916,-0.0495255,0.15423614,0.009281782,0.13700344,0.16846281,-0.23873705,-0.15188861,-0.037158478,0.22630581,-0.0731358,-0.1268158,0.029401332,-0.11627253,-0.2203626,0.18071151,0.044869144,-0.18883702,-0.22325577,-0.20817852,-0.21988805,-0.12166826,-0.21435656,0.12484781,0.1935541,0.2454866,0.03639461,0.14294921,-0.1572088,0.20010217,-0.021518556,0.0833193,0.03196609,0.030623756,-0.12454643,-0.1202958,0.2291751,0.044992983,-0.008193209,-0.1707959,0.009773149,0.010078666,-0.016698044,-0.0066511715,0.08548402,-0.10062274,0.07239711,0.008603912,-0.19215104,0.1820702,0.12935127,-0.03645701,-0.1963618,0.13852143,-0.21837175,-0.16296417,0.09139263,-0.12820676,-0.20959596,-0.14227095,-0.01757267,0.2327885,0.015018251,-0.22120175,0.13719712
-0.11149924,-0.18119483,-0.23715737,0.022336299,-0.17041042,0.11088961,-0.13281593,0.12555434,-0.14120384,-0.23485257,-0.063539594,0.08937961,0.1930222,-0.24544948,-0.23144948,0.06857185,0.16195324,-0.18861032,-0.06503112,-0.10582815,0.24633627,0.10862623,-0.02375098,0.11794288,0.12276157,-0.072615445,-0.24388877,0.11089301,-0.10695767,-0.08165875,-0.030137189,0.12637125,-0.23914614,0.050539162,-0.17551358,-0.13762937,0.24225685,-0.1283613,0.01715556,0.13397586,0.15664089,-0.04963238,-0.10616984,0.03282811,0.098023124,0.23580506,-0.017601514,-0.025846303,0.15237318,0.098684005,0.21353613,-0.02325705,-0.07250194,0.132255,-0.0015884623,0.16825223,-0.11927794,-0.05656839,-0.17026058,0.060516186,-0.08635176,0.06235051,0.05268386,-0.10394014,0.17492576,0.075304575,0.24426037,-0.10323443,-0.22026883,-0.21396501,0.07891631,0.21553536,-0.027891178,-0.1887565,0.025902262,-0.23057483,-0.014757967,-0.043835245,-0.24763095,0.10296047,-0.021915076,0.17133604,-0.046947837,0.09885892,0.14795229,-0.17214476,0.11684062,-0.14038111,0.17189898,-0.066591516,0.036187816,-0.1423827,0.24381766,0.01848785,-0.2415932,0.016168656,0.2317994,-0.08862101,0.06738861,-0.0403009,-0.10317111,-0.13369729,-0.08071514,0.010282632,-0.23805787,0.010846288,-0.22470748,-0.048842978,-0.03979612,0.19844857,-0.16683276,0.20729487,-0.0027785574,-0.1868136,-0.12488654,-0.207608,0.13119581,0.21104744,0.088748135,-0.1327475,-0.12373065,-0.15101857,-0.013590489,0.23245278,-0.1647448,-0.21196099,-0.1015713,0.14449035
-0.09906887,0.18934664,0.15051359,-0.23415396,-0.14060773,0.12281017,-0.0755586,0.17585795,-0.14334448,0.01620027,-0.13448079,0.23194815,0.20166588,0.038160343,0.043675918,0.12052062,-0.035819426,-0.056113172,0.029796718,-0.123758875,-0.09783837,0.19485359,-0.21797809,-0.042646524,-0.023929855,-0.12743735,0.11603873,-0.014631207,0.06885034,-0.011479432,-0.12945986,0.24064669,0.048669256,-0.21758476,-0.16308941,0.028091628,0.03107877,0.003640072,0.1328788,-0.115561254,0.06377929,-0.1939173,0.22855307,0.086170025,0.025297724,-0.24441934,-0.03395265,-0.20390882,0.013105439,0.15119274,0.20901413,-0.06639306,-0.02063222,0.05501953,0.17448731,-0.20327024,0.0778935,0.17086494,0.20311089,0.15092763,-0.11895791,0.16283204,-0.055733725,-0.102535225,-0.14635658,0.07814881,0.20429935,0.12698443,-0.15127811,0.05438639,-0.16863008,0.009193701,-0.03005876,-0.20982088,-0.22448415,0.16305985,0.17517388,-0.15847054,-0.0919162,-0.13659908,0.19620259,-0.23515886,-0.053421088,-0.060649056,-0.17594153,-0.13617545,-0.11563423,0.15472813,-0.24567135,-0.17764468,-0.08401693,-0.23490725,-0.07884369,0.20772946,0.0072049345,0.19508478,-0.24269003,-0.17300043,-0.14170225,0.16123083,-0.22437032,0.012970515,-0.20706682,0.2338671,0.22408879,-0.22981149,-0.09347195,-0.0066661006,-0.23975633,0.00827259,0.09697671,-0.058240287,0.09151483,-0.011480773,-0.19865352,-0.24032867,0.08636398,-0.16153723,-0.21512769,0.22253907,0.0712226,-0.23214762,-0.073829465,0.020349946,0.0426762,0.020638954,-0.23437631,0.24963044
-0.17567177,0.20314191,-0.12930556,0.10649968,-0.054890864,0.1727107,0.022601767,-0.015676217,-0.14016046,0.09906929,0.14570452,-0.12540542,0.0905279,0.22957505,-0.16378808,0.14782675,0.17585672,0.12257817,-0.12208844,0.013418614,-0.17065561,0.20541179,0.17363703,0.18743297,0.09279036,-0.11598012,0.22775997,0.13518262,-0.06735824,0.150496,-0.10159963,0.016840506,0.03664235,0.039771747,0.24078555,0.009201805,0.040780105,0.11107591,-0.040652245,0.10518321,0.023263248,0.06090934,0.11523029,-0.010418391,-0.16392964,0.16240731,-0.15498386,-0.14503735,0.16568518,-0.15748316,-0.18281792,-0.19993483,0.082397796,-0.23450096,-0.17895326,0.12877356,0.17343965,0.109777406,0.07543884,0.22632468,0.18444178,0.09945372,-0.13809484,-0.20616105,0.16328172,0.02507567,0.15212047,-0.16210656,0.18884301,-0.120582275,0.06534069,0.17239645,-0.16498394,0.045136042,-0.1211558,0.050907552,-0.14451273,-0.15798348,-0.17829688,0.00449816,-0.09442849,0.18690644,0.11828469,-0.15199219,-0.024700278,0.14735392,0.06824425,-0.19557877,0.09833692,-0.10085978,-0.22805163,-0.091104425,0.20623507,0.00044255724,-0.2482023,-0.056269906,-0.01822688,-0.037562866,-0.18307155,0.13032095,-0.05587422,0.0052446253,-0.08082909,-0.20797616,0.23449002,-0.14723249,0.2415106,0.11079027,-0.17691857,0.20391859,0.08670224,-0.2495476,-0.18094325,-0.002361239,0.060832728,0.20282394,-0.047148526,-0.177465,-0.06306607,-0.023462357,0.03999109,-0.0934356,0.024985176,-0.1699322,0.12087662,0.17338732,-0.24346516,-0.059045844
-0.13952255,-0.0064008106,0.05053058,0.2068616,-0.2043324,0.11229592,-0.0022649027,0.052903797,0.11654932,-0.21501145,-0.082294725,0.19734769,0.054760467,0.117055826,-0.22008224,-0.23479751,0.22710952,0.06930735,-0.16319296,-0.1661027,0.20957445,0.010220593,0.11776647,-0.08910326,-0.04625754,-0.02017548,0.23793486,0.014337787,0.14294998,0.20705248,0.17824207,0.17252733,0.13252582,0.080661185,0.22803631,0.02067495,0.11203909,0.17628084,0.1710355,0.086685225,0.11018027,-0.1765809,0.24591954,0.05575354,-0.18667316,-0.20950055,-0.0921278,0.20762382,0.24665752,0.12655272,-0.23535448,-0.23897107,0.18991347,-0.09663404,0.115910605,-0.1627058,-0.15300499,-0.033999283,-0.08369406,-0.22646406,0.048507396,-0.10901348,0.22080362,0.049720526,0.080665916,-0.052953172,0.12645724,0.082932584,-0.017464861,-0.21674542,0.18924765,0.010978322,0.0439042,-0.07908223,0.142456,-0.081467986,0.10937564,-0.13213168,0.11388796,0.06732177,0.17876321,0.09910684,-0.13255975,-0.089285865,0.06963545,-0.043802917,-0.06810575,-0.16748083,0.22257772,-0.19485892,0.23751056,0.07243144,0.07331846,-0.023522995,0.024594465,0.024495268,-0.06341304,-0.24847852,-0.067586824,-0.123865016,-0.096066654,0.23894557,0.1777031,-0.21799767,-0.0018800935,0.081805475,0.12532939,-0.109871835,0.06810018,-0.068703614,-0.1589734,-0.092492975,-0.09617208,0.038124822,-0.053213604,0.06079724,-0.059493676,0.021199005,-0.20127156,0.11352734,0.036934458,0.1677502,0.1971846,0.20033292,-0.046516456,0.09307829,0.22431174,0.13851318
0.100692615,-0.10683589,-0.18427184,-0.189587,0.21291214,0.13688707,-0.08727115,0.09527007,-0.009787035,0.02348122,-0.24171454,-0.07478556,-0.1967798,0.13259512,0.21509007,-0.02241544,0.05287832,-0.106412515,-0.1612999,-0.017624905,0.20679337,-0.13524456,0.14457792,0.18648686,-0.013109939,-0.10954859,0.12554778,-0.035534527,0.18549186,0.037625797,-0.15525824,0.24277179,-0.044151194,0.148572,-0.24070388,-0.17108512,-0.012876294,-0.13152139,0.07435114,-0.13909972,-0.04537481,-0.13694581,0.17327203,-0.01915404,-0.11715505,0.053748503,0.023361372,-0.24479243,0.15312448,0.15930222,0.027406069,0.21129334,0.11197816,-0.073914595,-0.007885874,0.13941069,-0.17107955,0.21449706,-0.10449279,-0.025409972,0.16322167,0.13154474,-0.24979645,-0.16278905,0.1493513,-0.15364733,-0.20503147,-0.13515505,0.13982244,-0.22119129,0.13655886,0.029941298,0.22543098,-0.2081906,0.07756414,0.20961647,0.1470869,0.24426794,-0.23466797,-0.20830992,0.21846046,-0.14305866,0.09930428,0.049730178,-0.19783232,-0.032467674,-0.07845879,0.21516405,-0.09800602,0.1649037,-0.08285585,-0.11847572,-0.06124772,-0.013816415,-0.15978321,-0.15827708,-0.16925785,-0.23819916,-0.1544466,0.21613957,-0.14700091,-0.027715608,0.050737973,-0.15981981,-0.10259664,0.021203026,0.09980777,-0.0794007,-0.03885746,-0.12502848,0.059223495,-0.17347519,-0.18493243,0.047003977,0.035086457,0.021111876,-0.025966894,0.091478,0.04228698,-0.17238605,0.18035927,-0.05046422,-0.14896142,0.09222819,-0.02095505,-0.15191394,-0.196627,0.20264277
-0.13791803,-0.18646061,-0.043899104,-0.22391888,0.1444613,-0.169312,-0.19905934,-0.037418406,-0.08303654,-0.07539391,0.020836484,-0.044889107,0.029858548,0.23021385,0.12999436,-0.0978522,0.15186504,-0.17328475,0.1895258,-0.093770735,0.123912245,-0.20868433,0.2354547,-0.03140458,0.06898681,0.23550837,0.14137517,0.034581386,0.050742857,0.1864244,-0.005957806,-0.16269366,-0.07457036,0.06089465,-0.06637655,-0.019734353,-0.19335192,-0.017794574,0.24216835,0.0013839598,-0.20030273,-0.09677459,-0.18198328,-0.2082311,0.08335753,-0.19517918,0.24847616,-0.18754269,-0.18125542,-0.19580986,0.16334721,-0.13883363,-0.12121101,-0.21579999,-0.060203042,0.061785396,-0.18189219,0.03169067,0.15954344,0.028767472,-0.1250774,-0.18583864,-0.19699992,-0.19604458,0.11940598,0.2136361,-0.15289554,-0.19425626,-0.22074363,0.08372389,0.24218412,0.1530224,-0.2308284,-0.13607816,0.09066324,0.22210363,0.20605297,-0.064505816,-0.033527642,0.10814985,-0.22407553,0.10421749,0.2296631,0.13243406,0.22024749,0.084384896,-0.052838866,0.040812675,0.16909468,0.05996692,-0.16289492,0.15912373,-0.18483162,0.15877911,-0.13483821,0.24404457,0.039284166,-0.20975035,0.13106252,0.1878548,0.017258212,0.10342126,0.14323333,-0.20922716,-0.11198078,0.027005974,-0.08411645,0.12044661,0.053062588,0.14528148,-0.21173102,0.1256555,0.056926653,-0.04056133,-0.21509998,0.20539013,0.21049386,0.12716033,-0.11673219,0.21079285,-0.2025949,0.02610757,0.17916915,0.02033305,-0.04632855,0.16442217,0.049246024,0.17861365
0.13533801,-0.07567574,-0.14668469,0.154679,0.11119057,0.0757747,-0.09389591,0.22256193,0.20627193,0.13405858,0.015236878,-0.02488884,0.009097125,-0.18834142,-0.13669577,0.06116119,-0.12568709,-0.1736233,0.19904184,-0.14146426,0.05667671,0.23725884,0.12156763,0.0661393,0.10496253,-0.23597318,0.0037475827,0.04173018,-0.18151882,0.15767696,-0.22767276,0.14552085,0.056992266,-0.082511894,-0.06449133,-0.14407472,0.016702631,0.12794565,-0.0091411965,0.23622544,0.10652357,-0.064265735,-0.22955061,0.06089921,0.0201902,0.1286158,-0.24743783,0.20423439,-0.03274265,-0.08719346,-0.010188173,0.052460853,0.05216034,-0.16171537,-0.11013239,-0.23012386,0.15394272,0.23401737,-0.079713136,0.15853144,0.026547892,-0.0009405086,0.06867859,-0.04399866,0.21337377,-0.011071082,0.076939166,0.18982819,-0.037065182,-0.011425856,0.14650337,-0.23238072,0.038924538,-0.13364567,0.004893309,-0.0012159597,-0.1641357,0.051779374,0.15489808,-0.13162458,-0.034805108,0.11856735,-0.14811064,-0.18288958,-0.0038343836,0.15078266,0.021097483,-0.22473657,-0.15451041,-0.24837735,0.13572606,-0.12028948,-0.08551292,0.07910514,0.019854497,0.16352865,-0.10076503,0.24828894,0.16460599,-0.2292186,0.070397146,-0.033054367,0.12638868,-0.009303118,0.18698472,0.019642724,-0.12366853,-0.19630188,-0.15583664,-0.12450826,0.02222101,-0.13698252,0.12815283,-0.00023561137,-0.019239768,0.035759203,-0.15086906,-0.12775655,0.24382308,-0.080600664,0.21162252,0.056725666,0.17419651,0.17712125,0.0979067,-0.11051252,-0.04685892,-0.1185883
0.037565608,0.15555207,0.15317644,0.20193027,0.22423007,-0.19170655,-0.16437799,-0.17398989,0.095281094,0.24235891,0.13317537,0.23420867,-0.14007005,0.1619699,-0.030801382,-0.122775964,-0.09573781,-0.17372696,0.14324507,0.13694295,-0.2264789,-0.19729835,-0.21575154,0.09211975,0.16821124,-0.0058636153,-0.15438049,0.05677507,0.14055796,0.07801317,-0.06655683,0.23907116,0.15148678,0.24072337,0.123509526,-0.21573214,-0.07431034,0.24549879,0.08660826,0.08484462,0.02501107,-0.084221005,0.09960193,0.1966169,-0.18688248,0.1445987,0.09305666,0.027550142,-0.1951709,0.10741104,0.048146784,-0.15245296,0.18520519,0.078493096,-0.0030119936,0.06295648,0.026870305,-0.026603583,-0.037383422,0.02463359,-0.22649339,0.13896026,0.08684384,0.06294173,0.12982398,0.035036128,0.22619851,-0.15383717,0.12918651,0.2351833,0.16826019,-0.060875367,-0.18114337,0.20366181,0.11875644,0.12326107,-0.1764941,0.0745377,0.15066604,-0.09611779,0.08089647,-0.2258681,-0.11535398,-0.09273097,-0.21384552,-0.027951697,-0.24690644,0.1692417,0.035406217,-0.090215914,-0.13442157,0.09252578,0.085503384,-0.10341736,-0.11417932,0.024351733,-0.15045492,-0.14168215,0.03491938,0.20946498,-0.1859626,-0.18652005,-0.18144904,-0.06454908,0.21785152,0.08138572,0.14111508,-0.039438907,0.07637789,0.04905386,0.031491827,-0.06082075,0.12922964,0.023404878,0.2484513,-0.030443242,0.058299437,0.08388733,0.17676428,-0.24573822,-0.023838824,0.027685424,0.15411782,-0.22830063,-0.08581203,0.0043921093,-0.14829986,0.11309796
-0.14290465,-0.047073375,-0.0014279712,0.082326375,-0.16507326,-0.0966492,0.19541733,-0.118295684,0.091091074,0.09263934,-0.09394535,-0.09958518,0.14241046,0.13481747,-0.08209985,0.07984624,0.09991185,-0.19451746,-0.13083228,-0.033078115,-0.038733948,0.0748133,-0.19716151,-0.1187414,0.13403796,0.19771397,0.20921783,0.24203214,-0.0834595,-0.15789221,0.19509819,0.18643385,-0.16201031,0.06513827,0.22717656,-0.24557406,0.13356164,0.016373456,0.24308276,-0.030300988,0.2232668,-0.13411975,0.00842742,-0.1953513,0.21935835,0.10061124,-0.18940878,-0.19213519,0.06782595,-0.11375223,0.044463653,0.04394076,-0.07102677,0.19927424,-0.040780164,-0.021633666,-0.06859384,-0.011429401,0.12193358,0.15471435,0.18591763,0.1882174,-0.2344669,0.20306395,-0.0041987216,-0.19460072,0.12109987,0.22843903,0.13222548,0.19085906,-0.0077519626,-0.07832825,-0.15035248,-0.21731226,0.17339906,-0.18713106,0.17088175,-0.11170351,0.16133633,0.1623122,0.22595076,0.1666775,-0.11882513,0.07412187,0.184421,0.14702702,-0.056234032,0.14952904,0.22960615,0.23066813,-0.044429265,-0.04875424,-0.1853726,0.14055146,0.19778796,-0.17299893,0.0695092,-0.23153667,0.19684452,0.08072328,-0.0068102325,-0.2360212,0.24803956,-0.16991748,0.08311366,0.1924197,-0.1069347,-0.0884026,-0.17243153,0.21193554,0.19515374,-0.002247143,0.0032187905,0.035422847,0.055383302,-0.1175249,-0.1365031,-0.13852328,0.22788969,-0.15542579,0.24674775,0.1224596,0.08993582,-0.23338872,-0.05955038,-0.012903827,-0.14244667,0.035650797
-0.24411224,-0.06481166,0.24496655,-0.1540885,0.020587254,0.10043138,-0.04592911,-0.12752979,0.2477555,0.119248584,-0.1134019,0.13312015,-0.17028937,-0.09151495,0.13028814,-0.07137401,0.21413524,0.1577773,-0.008732967,-0.1308816,0.1817529,0.20740668,0.18097942,0.20784302,0.15392107,0.039890222,-0.1820303,0.22940853,0.11037849,0.21343729,0.13713124,-0.097268194,-0.16625173,0.057406753,0.08429914,0.14575055,-0.1287181,-0.2298631,-0.06241216,-0.0485335,0.2134566,0.1348118,-0.09220718,-0.17645617,-0.2086262,-0.06697683,-0.06520386,0.1589756,0.076968126,-0.05288985,-0.07479777,0.09630271,0.07136489,0.018810112,-0.24137543,0.106414154,-0.24659777,0.16664116,-0.18110698,0.100423515,-0.030357037,0.13903122,-0.064135134,-0.0994108,0.048461866,0.07332689,-0.13896926,0.24758294,-0.18873642,0.20214675,0.08356716,-0.24571194,0.14821516,0.17900033,-0.09718682,-0.24033654,0.1763323,0.18848471,0.16627464,-0.16472271,0.20284933,0.18806823,-0.11227724,0.14012122,-0.009564088,-0.15671365,0.0076354234,-0.16010235,0.007965226,0.043163516,-0.22769415,0.014134149,-0.24715707,0.22421367,0.100458406,0.03571275,-0.2300613,-0.13289453,0.111772165,0.0967442,0.17151545,-0.17640704,-0.11465826,0.23543985,-0.026528882,-0.21496837,-0.17710517,0.075312234,-0.16016904,0.011956197,0.029773893,-0.08760205,0.19224285,0.11833409,-0.038382277,-0.065868296,-0.16855551,0.21436177,-0.13208364,0.042810798,-0.20382836,-0.21525672,-0.24758884,-0.21822736,0.2357482,-0.1314937,0.2181087,-0.20953497
0.11382967,-0.045133777,-0.22092137,0.12828326,-0.09396549,0.18207896,-0.07318944,-0.21882063,0.016484631,0.19902015,0.18633528,0.09163709,0.14823674,-0.17728953,0.15120722,-0.24759877,0.019995946,-0.09731,0.09494882,0.13341033,-0.19374171,0.2409111,0.19799726,-0.1733046,0.063725024,-0.15092364,-0.13069113,-0.23566093,-0.23415884,0.20306493,-0.21346846,-0.033058893,-0.17690979,-0.03702266,-0.029221114,-0.004390113,0.18155086,0.118090376,-0.1997165,-0.14948581,0.026382692,0.12388247,-0.20398307,0.083113186,-0.06844661,0.1514663,0.14511643,0.21225879,-0.042174943,-0.2203181,-0.031848926,-0.21138008,-0.19457431,-0.11868198,0.19563814,-0.20946683,0.068083376,-0.16330384,-0.04602178,-0.114442796,-0.17450999,-0.22179747,0.11570276,-0.0819199,0.10289611,-0.025754644,0.0081422245,-0.21152818,-0.07955729,0.10788629,-0.24832208,0.075543374,-0.19535229,-0.084713265,0.23111685,0.09787601,0.077211104,-0.15523973,-0.02863362,0.075339615,-0.20285228,-0.011796541,-0.1993422,-0.20661466,0.15862194,0.0070964107,0.1013659,0.07044691,-0.024995903,0.23741423,-0.20473222,0.1870784,0.13973089,0.11196326,0.15916604,-0.21222271,-0.016425006,0.21782267,0.12431076,-0.11507749,0.2432597,0.20178893,0.1310754,-0.16767251,-0.07666032,0.018230487,0.088854894,0.09072579,0.09114584,-0.03619753,-0.15263818,0.16438624,0.15449357,-0.24714167,0.21949475,-0.053957745,0.18842596,0.16640948,0.07010137,-0.16754323,0.101643495,-0.073598444,-0.017675532,-0.095792785,0.13268425,0.06290919,-0.16660337,0.22573346
0.096137665,0.11353274,0.06574231,0.12813397,-0.0216522,0.090920664,-0.21031049,0.0789914,-0.11194228,0.05392059,-0.0069263247,-0.16214284,-0.05582437,-0.09326059,-0.18233687,0.009479789,-0.00024115377,0.1115263,-0.17970726,0.18094671,-0.16241479,-0.027254995,0.08875198,-0.008284837,-0.20287113,-0.24287173,-0.14855546,-0.14701575,-0.17771086,-0.13804115,0.03213388,-0.14557016,0.12122257,-0.0154708205,0.09315386,-0.14412303,0.10643546,0.024090912,0.12353211,-0.16225885,-0.20254578,0.20874822,-0.060631502,0.2469972,-0.04857578,-0.15516774,-0.14008978,0.17492317,0.05003379,0.12447217,-0.24625453,-0.10361158,0.072631024,-0.013611436,0.13598575,0.03716745,0.14343435,-0.23813471,-0.11939638,0.0075319954,-0.11361769,-0.03911277,0.14412595,0.17580223,0.13677292,-0.14341104,0.03752484,-0.061510958,-0.22858833,-0.18128428,0.16095212,0.15593411,0.18715127,-0.08872522,0.057288636,-0.10320261,0.18985207,-0.19021586,0.09698729,0.21822718,0.08529057,0.018249586,0.19226022,0.1534628,-0.06254718,0.17892593,0.08742246,0.10389377,-0.22593561,0.15296514,-0.15708947,-0.044375006,0.13101178,-0.0029683993,-0.21328449,0.14684619,-0.16200122,-0.0058269044,0.18042515,0.17601368,-0.01159177,0.1895988,-0.1433181,0.050865386,-0.23380128,-0.0894662,-0.16375759,0.03867948,-0.094580606,-0.034979634,-0.2355,0.00062134414,-0.12000658,-0.13729244,0.031517364,-0.16880558,-0.103551894,-0.15947445,0.019956734,0.23019552,0.0082906475,-0.108654685,0.12567085,0.23259073,0.10575256,0.14709447,0.20577332,-0.078388356
-0.0055912035,0.12328762,-0.2070402,-0.09463341,0.15557335,0.243331,-0.13678287,0.037614983,-0.02778176,0.11877638,-0.24564588,0.17660823,-0.14830561,-0.07466118,0.18575893,-0.082689546,0.08168557,0.010579001,-0.189758,0.17488416,0.20141351,0.093983635,-0.0057216883,-0.09989094,-0.023668172,0.16131751,0.14027482,0.10200134,-0.16568524,-0.16947544,-0.15341385,0.0031937007,0.14745946,-0.03787604,-0.10275633,0.21900609,-0.16881992,0.018251434,0.17709969,-0.12184726,0.13336986,-0.057026863,-0.040513862,0.06551552,0.011353804,-0.106728524,-0.19175905,0.2071946,-0.07929975,-0.10976409,-0.03597163,0.04575956,-0.1483905,0.033793382,-0.19670859,0.18395509,-0.1141514,-0.14324093,-0.20243815,-0.1385304,0.18939692,-0.1088695,-0.04607244,-0.22231555,-0.2342595,-0.034018893,0.080024816,-0.20302945,-0.15716515,-0.22525954,0.20831138,0.14394517,-0.19649875,0.18017514,-0.2161266,-0.103303865,0.17053346,-0.22594094,0.059321977,0.18363973,-0.023546088,0.008358944,0.09351662,0.064193204,0.036263056,0.20520416,-0.10909203,-0.13866219,0.09906953,-0.20301479,0.054768246,0.14143223,-0.16542734,-0.07367475,-0.22054356,0.14315541,0.036249377,-0.09781564,0.12321226,0.121502705,-0.16314095,-0.2034999,0.1701221,-0.10592544,0.16843258,-0.0031232587,-0.14013813,0.23255312,0.16076452,0.17294143,-0.04487191,-0.23069222,0.08604311,0.21033525,-0.01914656,0.050746374,0.105973564,0.16950229,-0.05878523,0.09563539,0.22101562,0.042776976,0.15212661,0.10663597,0.018730195,0.1778781,0.14804818,-0.23958178
-0.087836705,0.19678138,-0.09047641,-0.06360404,0.06976201,-0.00316286,-0.17962538,0.11645063,0.0202121,0.0950917,0.10660728,-0.09358155,-0.19337025,-0.04482373,-0.1924351,0.23754743,-0.0529695,0.20570613,-0.1514872,0.12193647,0.10366733,-0.0509914,-0.1629732,0.21321818,-0.1072499,-0.034933265,-0.100286715,0.016435495,0.22283705,0.10874691,0.2236063,0.0481708,0.1774209,-0.09160956,0.057182286,-0.23231189,-0.057023793,-0.007456398,0.12500094,-0.17234327,0.05508008,0.12247283,-0.20041561,-0.022482784,0.1418351,0.17975369,0.148878,0.18642393,-0.07717054,0.2262874,0.11096932,-0.103264436,0.16503178,-0.08259461,-0.18395586,-0.10690016,0.13376066,-0.07681798,-0.011997109,-0.12018254,0.016767293,0.17014791,-0.23969924,-0.096210636,0.089307375,0.23116605,-0.16039947,-0.19199201,-0.10823153,-0.18142314,0.0474454,-0.020926086,0.2367194,0.045939032,0.18860817,0.029064199,0.0513513,-0.025299184,0.20442349,0.22547853,0.075025134,-0.13453299,-0.11019628,0.1558725,0.1691431,0.07373137,-0.1925807,0.16480331,-0.10795405,-0.08700001,-0.19502299,0.12574731,0.10468443,0.21740124,-0.12965295,0.004362699,0.058183227,-0.22856759,0.11485549,0.1379281,0.14993885,0.07654789,-0.19043578,0.05646392,-0.1107251,-0.18185288,-0.21531679,-0.06100359,-0.04812792,0.07365357,-0.14488958,-0.18386784,-0.13729468,-0.20939074,-0.10498475,-0.2440103,0.08196004,0.16548055,0.19296375,-0.11552374,-0.2102121,0.17074315,0.05505657,0.230232,-0.018031735,-0.0015532115,0.083275735,0.16584356
0.2067622,0.14480576,0.17067552,-0.2108096,0.20972064,0.027269594,-0.173219,-0.19651851,0.055822313,-0.20752248,-0.061830867,0.09644727,-0.00063442544,0.11176787,0.025235983,-0.029520672,0.1166973,0.24165908,-0.1665166,0.24942817,-0.13649133,0.1221997,-0.057234462,0.0358789,0.057293016,-0.13540308,0.061270516,0.05976984,-0.04310362,-0.06920112,0.046793517,0.03834476,-0.020563357,0.15286815,0.14033647,0.10847441,0.21628346,-0.057493348,0.13396564,0.058269996,-0.1289473,-0.14980908,0.15571316,0.084703915,0.09315293,0.14541474,0.07655904,0.040476646,0.03337794,-3.5221026e-05,-0.24857438,0.1782996,0.021237683,-0.22302283,-0.0022571553,0.026420267,0.12778015,-0.0782899,0.1252244,0.15456532,0.15699425,-0.23811832,0.0251142,-0.122909665,-0.21535163,-0.045730956,-0.15025179,-0.18868126,0.13286994,-0.2413524,0.07102591,0.2083041,0.088082805,-0.11499578,-0.22373396,-0.18755229,-0.20826934,0.18739182,0.23589794,0.21094278,0.09811928,0.21458279,0.20195316,0.09391743,0.078487106,-0.04664405,-0.17995551,-0.055534646,0.040350065,-0.117957026,0.17686237,-0.2239551,0.19875224,-0.055110294,-0.18470249,0.07400828,0.053424336,-0.19023944,-0.091186665,0.013595763,-0.008968339,0.021661913,0.0059465426,-0.20923446,0.018819977,0.114976324,-0.2439857,0.18601748,0.047551006,-0.12762049,0.015453388,-0.16786149,-0.19046004,0.00088064483,-0.06264959,0.18997815,-0.2334543,0.044233494,0.24600777,-0.18936291,0.0655092,0.047814477,-0.08520338,0.24411859,0.21481645,-0.08285174,0.17679518,0.16401522
0.051420253,0.21723276,-0.064516604,-0.0560618,0.094242014,0.002496521,-0.22858943,0.07045784,-0.12876971,0.08134278,0.091844216,0.07017002,0.12274771,0.12902004,0.11451261,0.020499589,-0.062425304,0.09268344,-0.06990381,0.103490755,-0.16493705,-0.13498986,-0.1373525,0.078479744,-0.020088052,0.16402055,-0.24653666,0.17791632,-0.104913004,0.04065013,0.19713214,-0.07795354,0.24740422,0.06771364,0.013934951,-0.05381439,0.15961677,-0.12277564,0.2422961,-0.24042104,-0.21312098,-0.1135505,0.11598161,-0.22243728,0.21368107,0.022089245,-0.15347812,-0.15046729,-0.15683457,-0.092336774,-0.13098413,-0.23135234,-0.15002297,-0.14950836,0.20858802,0.23819564,0.24006295,-0.22559263,-0.033754047,-0.065067895,-0.08931673,0.14956182,0.23315519,0.18812539,0.10574019,-0.06181531,0.020118505,-0.14725469,-0.047738522,-0.07988188,0.07440727,-0.16701226,0.19958405,0.10426386,-0.13065545,-0.054734368,-0.20120433,0.042061053,-0.025064943,-0.03140026,-0.02663675,0.05043934,0.1825745,0.20631208,0.01813695,0.19213837,-0.025702914,-0.053757533,-0.2345531,0.22099671,-0.24296673,0.18264878,-0.20777568,-0.17888932,0.15332961,-0.2031148,-0.010117731,0.12950955,-0.11156823,-0.13895665,-0.056752305,0.12299572,0.17752829,0.07386874,0.13452658,0.13993563,0.13546543,-0.09952603,-0.04035659,-0.17231728,-0.06704951,-0.06835036,0.116018206,-0.21790437,0.161971,-0.2393538,0.11475942,0.040818784,0.23213215,-0.05743846,0.1417088,-0.019740699,-0.14672087,0.051198438,0.11636577,-0.18726817,0.021878425,0.22300826
-0.070505075,-0.2121696,0.031949252,0.18212673,0.085986115,0.18416552,0.10328664,0.21386036,0.12312791,-0.07595423,-0.048027948,0.061996542,-0.217756,-0.09321852,0.04214267,0.02164752,0.24503988,0.15161414,0.16424198,-0.086338885,-0.10011481,0.18310389,0.23758197,0.120452926,-0.21313871,0.0068808533,0.15359269,-0.062852964,-0.20426096,0.17951629,0.010561242,-0.18720448,-0.036817294,0.15393834,0.04355792,0.06609398,0.14094557,-0.06551677,0.20218587,-0.20304999,-0.20883738,-0.23647378,-0.1865157,-0.08042402,0.20225051,0.00095472217,-0.23833662,-0.08206236,0.20469026,0.23756137,0.01540601,-0.11862516,0.19503482,-0.07859559,-0.119435534,0.124892384,0.22998427,0.021232229,-0.08984642,-0.006595986,-0.017335657,-0.15101956,0.050413802,-0.23043558,0.23665653,-0.22532758,-0.06104197,-0.2269492,0.008584663,0.16430366,0.17739904,-0.13086252,-0.16098815,-0.20969164,-0.23077986,-0.17458525,-0.0011647969,0.14269443,0.19367187,-0.24065909,-0.06302489,-0.05409407,0.10346018,-0.005962991,0.1406461,0.22275448,-0.07070061,-0.13709396,-0.18220784,-0.21082862,-0.12153968,0.18821087,-0.15634988,0.035651065,0.081054695,0.19890139,0.16691461,-0.028427301,-0.074705966,-0.10720532,0.21409217,-0.2236793,0.027277939,0.13144694,-0.17048675,-0.22059497,-0.10591177,-0.09222971,0.008726739,-0.18873881,-0.011804824,0.23078004,0.01729263,0.08444694,0.06880585,0.05031547,-0.1866275,0.1225675,0.12481401,0.012855942,0.12584442,-0.0743461,-0.24068022,-0.11160151,0.19227616,0.20740421,0.08924882,0.21213938
0.112121634,0.08027294,0.078573905,0.18235894,-0.17103377,-0.118570596,0.026620986,0.14114676,0.06697862,0.032439698,0.15822786,0.22359996,0.11775146,0.16799943,0.14016487,0.16116291,0.12055284,-0.17546849,0.08484045,0.20528053,-0.019659441,0.06265302,-0.22454756,-0.084023595,0.05702254,-0.040391453,-0.027340068,-0.063661255,0.059641503,0.11909477,0.03713738,-0.1980124,0.24336024,-0.19323932,-0.15213856,-0.019675173,0.2247333,-0.103738226,0.21606138,0.029305292,-0.19815497,-0.09679152,-0.14158256,0.24464089,0.06502308,0.1567265,0.036075447,-0.059091702,-0.18456434,-0.164496,-0.18932821,0.12932102,0.06585754,-0.08453353,0.19903076,0.015997319,-0.036709365,-0.12775959,0.10507752,0.005623862,0.10136915,0.06361444,0.04759317,0.20206985,0.05529671,-0.019190215,0.079411164,-0.15568435,-0.15588614,-0.0004830823,-0.10126268,0.061593346,0.07735127,0.2349119,0.039144088,0.09674494,0.17376801,0.025901726,-0.21174769,-0.24861199,0.22027998,-0.08250504,0.1621997,0.0063148136,0.0049347873,0.17685689,0.17760815,0.015602437,-0.20481488,-0.22195446,0.20161656,0.12196269,-0.24754299,0.012465054,-0.18017988,-0.14641497,-0.09957794,-0.08619663,-0.06538947,-0.020809874,-0.1268445,-0.008516575,-0.18205991,0.047501393,0.010250182,-0.19881396,-0.021035802,0.1326773,0.115963615,-0.16651654,0.12616564,-0.06906277,-0.017427674,-0.16467436,-0.16335312,-0.22100538,0.19179368,0.23517752,0.24025244,-0.011248291,-0.17740852,0.026209358,-0.21917346,0.13683425,0.15887167,0.1780252,0.10469953,0.044193238
0.24921072,0.15690367,-0.07407032,0.115283065,-0.21383378,0.22786042,0.22929688,0.14555994,0.21552746,0.13094659,-0.0957735,0.1692614,-0.069382824,-0.21465349,0.17584713,0.1075831,-0.22036281,0.20590933,-0.014391096,-0.02163313,0.08148369,-0.081481665,-0.16256014,0.033506367,-0.17372982,-0.028584722,-0.003702409,0.10300726,-0.21009299,0.16726148,-0.020164782,-0.11772699,-0.18427226,-0.16856073,0.013599457,0.06374782,0.20604576,0.12506387,0.20005637,0.09508991,0.03127648,-0.09429762,-0.09543849,-0.19574955,0.1504402,-0.08674178,-0.08300913,0.11813486,-0.18538998,-0.015270191,0.10253934,-0.18196778,-0.022642232,-0.20752168,0.18098913,0.18609767,-0.13974054,-0.07528223,0.13997523,0.16497424,0.13875823,0.07910222,-0.021249989,0.19001609,0.1657511,-0.15421604,0.17693487,-0.15567318,-0.004111384,0.10500204,-0.21259303,-0.2351658,-0.039562,0.1738831,-0.17169438,-0.048074882,0.08960589,-0.10405202,-0.12393262,-0.117786884,-0.08293958,-0.051597312,0.20133664,-0.095612265,0.0068888688,-0.0854935,-0.0762051,-0.07440814,-0.031075343,0.050998762,0.11683374,0.1319972,0.20240241,-0.15928207,-0.14342871,0.017425707,0.12859586,0.07005337,-0.06563992,-0.20397055,0.08488088,-0.094659664,-0.24794877,-0.22097516,-0.17872441,0.03097412,0.21913104,0.059739776,-0.040970784,0.0654682,0.12789197,-0.11164245,0.19228561,0.10811278,0.12094164,-0.22731254,-0.11045745,-0.18654783,-0.17865025,0.06563667,0.19380207,-0.12134954,-0.16700195,-0.09422366,-0.010758891,0.235376,0.11062238,0.1446175
0.05971805,-0.23794991,0.21171504,-0.0999696,0.22746027,-0.05442128,0.05228302,-0.19834812,-0.22874705,0.21720102,0.105752885,-0.15112516,0.11475236,0.09380521,-0.06550488,0.06163143,0.098658144,-0.14573316,-0.23572183,-0.10301762,0.174014,0.1427992,-0.1314204,-0.2473173,0.2140513,-0.084065646,0.036210373,-0.107410684,0.003979648,-0.24743772,0.15024795,-0.07201141,0.16457376,-0.027845707,0.02688714,0.056091834,-0.10009464,-0.18983197,0.04998939,0.17493327,0.11928455,0.057639655,-0.099109225,0.22731814,0.18827103,-0.21604383,0.08417905,-0.13254422,0.10829696,-0.03979308,-0.15992476,0.11851988,0.082098685,0.045396026,0.19980541,0.018167822,0.21909125,-0.17616323,0.12498616,0.08003233,-0.2254645,-0.16046913,-0.10561567,-0.13907418,0.20561552,0.207998,-0.1536941,0.19240455,-0.07136128,0.12506014,0.12642437,0.07543071,0.24150464,-0.20455596,0.11604353,-0.10257873,-0.24706022,0.09907024,0.17084762,0.13150321,-0.13597387,-0.07977223,-0.13758107,0.21752886,-0.1701995,0.14642945,-0.17885666,-0.092616126,0.04024291,-0.11681181,0.075509556,0.057580773,-0.16329335,-0.10504641,0.1853969,-0.24065965,0.08154311,0.079412416,0.18022467,-0.05417828,-0.23965573,0.13524614,-0.0358244,-0.109120935,0.16616587,0.22510675,-0.2169956,-0.02908163,-0.20373885,-0.23614416,-0.17217694,-0.21149218,0.10556668,0.02079453,0.2146455,-0.120182745,-0.2356293,0.15257792,0.09412485,-0.046015047,0.05018075,-0.014517975,-0.22495532,-0.24983944,0.09621603,-0.041918114,0.08452563,0.16928
0.022611003,0.16698708,0.08977863,0.06669462,-0.00800888,0.08769314,-0.10237387,0.022634484,-0.09785789,0.17214353,-0.1179879,0.22630313,0.23786472,0.20503287,0.21431367,-0.11384013,-0.12474554,-0.13307022,-0.24218164,-0.09915365,-0.20853436,0.120623544,-0.16665117,0.19024585,-0.07553465,0.14016314,-0.08766522,0.19650221,-0.054761034,0.0070560346,-0.08683091,0.23261344,-0.19340514,0.08376457,-0.079243876,0.1215142,0.166023,-0.24186844,0.07807086,-0.035655387,0.0504911,-0.027828334,0.119944185,0.0057151327,0.19947854,0.22656406,-0.23908892,-0.15922633,-0.22845045,-0.23995729,0.016183168,-0.17085934,-0.23559079,0.08139135,-0.20050456,0.12179499,0.22500016,0.06584016,-0.035712868,0.18049821,0.017865045,-0.14844562,0.018575516,0.18895608,-0.0042588236,0.008293717,0.05180333,-0.13117367,0.22769895,-0.017865164,-0.12667006,-0.05602166,-0.1705875,-0.08639389,-0.08164192,0.0015502614,-0.16620634,0.17562908,-0.07531095,0.22774522,0.086308554,0.037927233,0.079081155,-0.11557812,0.021225912,0.17821877,0.23971063,-0.07273031,-0.11042557,-0.11768921,0.08832825,0.19308488,-0.028652452,0.19177195,-0.18320356,-0.13201419,0.12138524,-0.24918243,-0.112787165,0.18019216,-0.16784185,0.1858752,-0.175299,-0.1660084,-0.012306113,0.13001326,0.16234899,0.091043636,0.15198444,-0.066474974,0.16560785,-0.033835724,0.18989627,-0.24243936,0.014677304,0.20876428,-0.1474425,-0.108969264,-0.22354674,0.18119143,0.16071106,-0.09053895,0.21246588,-0.15369052,-0.15464059,-0.18488765,-0.06677772,-0.07833114
0.002783772,-0.1877052,-0.22046642,-0.1439946,0.17061582,-0.21444473,-0.008456949,-0.14288297,-0.048308138,0.12990461,0.0035104514,-0.14432122,0.19232833,0.13378024,0.17173283,-0.20232673,-0.009456994,-0.14360693,-0.01000739,-0.053712778,-0.07604416,0.21619865,-0.08521864,0.20628159,0.2108962,-0.05634008,0.17438972,-0.15342622,0.002731179,-0.007135982,0.19162105,-0.18939993,0.01815915,0.1443273,-0.09833361,-0.0320733,-0.104286,0.210407,-0.10726429,0.008783593,-0.056482933,0.23688938,-0.1645042,-0.17035623,0.17634764,-0.057583574,0.02584371,-0.18611519,-0.2064522,0.11077453,0.008708205,-0.116263084,0.18674101,0.11304474,-0.14207765,0.045740608,-0.24761817,0.09047727,-0.043337535,-0.2470525,0.09761853,-0.17920323,6.126432e-05,0.19816943,-0.12772451,0.11265454,-0.1705419,-0.112809844,-0.2318661,-0.16089223,0.09311578,-0.09643797,0.23278269,-0.24537225,-0.07065635,0.058671433,0.24442339,0.046466842,0.08921736,0.24630634,0.23246922,-0.1998286,0.087614,0.21280758,0.16891429,-0.18994045,-0.07911524,0.21707578,-0.21226442,-0.20537978,-0.1556417,0.1203298,0.13925609,-0.05782753,-0.008556176,-0.191489,0.08076696,0.14299983,0.057625826,-0.15334581,-0.0028527242,-0.15642005,0.15897554,0.1765911,-0.20195378,0.17141175,0.027441408,0.041390993,0.22574656,0.0015916507,-0.05881637,-0.21195535,-0.039113007,0.09469691,0.107854016,0.01723658,-0.1992974,0.09510487,-0.11328488,-0.18057464,0.1545071,-0.13176113,0.12521012,-0.07370193,-0.16979308,-0.041136727,-0.21277748,-0.1748629
-0.16098732,-0.24022473,-0.16949162,-0.09165479,-0.017688194,-0.18418054,0.01839789,-0.18391094,0.013611704,0.18215464,0.0744388,-0.1149681,0.23969358,-0.012859756,-0.14590554,-0.1790692,0.21640176,0.12361537,-0.13846272,-0.08798176,-0.20280448,0.16140944,0.053545613,-0.14612876,-0.13332239,-0.20130245,0.045609977,-0.19834404,0.18624428,0.17640129,-0.027500976,0.031402346,0.24590321,-0.00063132646,-0.10525419,-0.21558447,0.08472149,-0.21649314,-0.16379772,0.023876071,0.008468809,-0.09877408,0.07004678,-0.03054831,-0.033487566,0.23936181,0.01733664,0.15630178,0.07084146,-0.03215152,-0.16647574,0.09481968,-0.15343274,0.01505231,0.20675477,-0.013421803,0.08276574,-0.18077694,-0.061439473,0.23266159,0.062608145,0.24915728,-0.23343834,0.21740913,-0.17035748,0.11612047,-0.22998153,-0.03516578,-0.07168674,-0.18339993,-0.05772079,-0.12187923,0.103381306,0.19485308,0.06358843,0.026774028,0.16058746,0.16362257,0.050106406,0.21604896,-0.04529516,0.19488084,-0.13163784,0.15516005,-0.11332859,-0.0055007674,0.07942088,-0.11017884,-0.22688508,-0.026783414,-0.15056327,0.2163663,-0.114315346,-0.1023202,-0.21419887,-0.22290656,-0.19573438,-0.09928825,-0.001994994,0.19291374,-0.07214055,0.02298458,-0.17040111,-0.11657724,0.17969811,0.17331137,0.20038776,0.24653651,0.07888309,-0.1721717,0.20641233,-0.06822423,0.23757783,0.14945368,0.22428438,-0.17046875,0.09745392,-0.0013057704,-0.06552588,-0.245169,-0.0031526692,0.028758861,-0.23410852,-0.059532024,-0.095317475,-0.017002458,-0.2084317,-0.13408731
0.10342082,0.19793515,0.1863816,-0.053517394,-0.016625129,-0.048265915,0.05020304,0.021036666,0.23502623,-0.14546563,-0.14178915,0.025968444,-0.1419266,0.031296354,-0.044248424,-0.10031934,-0.24051324,-0.12199955,-0.15226799,-0.09222968,-0.21822596,0.22258437,-0.11527451,-0.165419,-0.10290767,-0.14742091,0.11317558,-0.10574871,-0.05582288,0.021018429,-0.071214885,-0.19258416,-0.19589233,0.021978665,-0.059064735,0.12742159,0.016857373,-0.16429687,-0.1071367,-0.08775116,-0.15097305,-0.22056553,0.029807089,0.1045616,-0.09619956,0.16250949,-0.028459601,0.24464667,-0.065748416,0.08347151,-0.18229872,-0.23048474,-0.114034265,-0.0034129233,-0.021738315,0.010463624,-0.1788599,0.08586749,-0.1829024,0.13715848,0.012748104,-0.08299286,0.013690072,0.083108,0.033291347,-0.15687531,-0.10153208,0.1996913,0.13753772,0.18481022,-0.19868127,0.23154877,0.19368081,-0.17716777,0.13749436,0.1122969,-0.19302408,0.18886669,0.16883576,-0.19582693,0.18544939,-0.047770824,-0.21346137,-0.030969143,-0.24896792,0.052923016,-0.065915495,0.1863152,-0.08784901,-0.052713506,0.19395912,-0.1458713,-0.16216621,0.1832123,0.08115556,-0.16919522,-0.16697927,-0.14196609,-0.077689655,0.05483699,0.20161068,0.2221007,0.18361364,-0.17250855,0.10374493,0.16947797,-0.15264793,0.12304149,0.02532943,-0.2121696,-0.24992868,0.21794389,-0.20281193,-0.051382408,-0.03681914,0.17044842,0.119181305,-0.21963365,-0.030186743,0.08082313,0.18117411,-0.03676491,0.20097946,-0.010637167,-0.076091744,0.18699443,-0.075246856,0.21793418
0.103916384,0.10806195,-0.18857247,-0.16936575,0.0670951,-0.19235283,-0.15170696,-0.24699575,0.0888568,-0.111902826,-0.03822992,-0.14567421,-0.1363784,-0.10649455,-0.16683735,-0.21642905,-0.14409684,-0.21544087,0.13811183,0.10529972,0.1452012,-0.091081955,0.08903133,-0.22085012,-0.23733476,-0.042422444,0.059456427,-0.025029276,0.00406481,-0.008805674,0.017368285,0.20035271,0.24786548,-0.2419135,0.025893949,-0.0068559125,0.0471291,0.23331921,-0.023072006,0.24318247,0.20269834,0.01268392,0.14274986,-0.14224315,-0.07723375,-0.058161326,-0.02391168,0.20781867,0.07556465,0.017490784,-0.20378897,-0.11683457,0.1632304,0.04193555,-0.09296053,-0.23013689,-0.24810989,-0.24897659,-0.14643517,-0.014377449,-0.021312177,0.00642149,-0.086215705,0.1391252,-0.0006192285,0.20407213,0.071059816,-0.035662152,0.18330991,0.005122007,0.12589338,-0.062078428,-0.09709536,-0.16915788,0.08626195,-0.17602259,-0.19735803,0.15018138,-0.0031872345,-0.1580666,0.19740222,0.05131724,0.049567573,-0.013580416,-0.049635064,-0.04618075,0.23882748,-0.23105833,-0.10023388,0.10280168,0.22790977,0.19304247,-0.12765902,-0.051778927,0.0043219356,0.00067518884,-0.13462542,0.24947186,-0.027844664,-0.023807505,0.12717198,0.13237533,-0.12952681,-0.07202402,0.062438443,0.16429012,-0.15244831,-0.21709363,0.07665296,-0.118552655,-0.022173572,0.15012386,-0.0676946,-0.19823965,-0.1342627,-0.0729996,0.097624965,-0.17037018,0.1453614,0.16926792,-0.24136822,-0.21630986,0.14849748,-0.22504984,0.2430715,0.14530627,0.09943113,0.1472123
0.08914138,0.18475927,-0.040087275,0.039740164,-0.2344266,0.11131301,-0.10280156,-0.17410786,0.11609237,-0.19272014,0.1563281,0.06526325,-0.022115823,0.09236898,-0.11501971,0.09367696,0.20326708,-0.05184839,-0.21483079,-0.0016349468,-0.12521492,0.14244294,-0.20279902,0.23328193,-0.11333458,0.24632178,0.10349174,0.09979189,-0.008311983,0.041310776,0.018859427,0.016135192,0.20352219,0.20088868,-0.06768373,0.20305118,0.24290767,0.14901467,-0.15492909,-0.15652357,0.012081049,0.11024151,-0.2457598,0.14358103,0.083716206,-0.17719635,0.16172259,-0.020615056,0.057330053,0.15721035,0.13224275,0.11152067,0.03009133,0.11613283,0.24634255,-0.14554986,-0.048836395,0.17035918,-0.058425095,-0.22881943,0.07720845,0.07330538,-0.19319168,0.030488057,0.037600826,-0.19565536,-0.19015458,0.22491115,-0.04537627,0.15105389,-0.062391154,0.046860173,-0.19347276,-0.21917051,-0.070989825,0.112855315,0.033213366,-0.21548581,0.24614663,-0.20973,-0.22276023,0.061867993,0.17531602,-0.07279202,0.13928986,0.061084997,0.05328628,0.03238141,0.16783617,0.228007,-0.06507287,0.055135533,-0.11870859,0.19962949,0.07465191,-0.041631788,0.20484813,0.09628287,-0.24021168,-0.10266434,0.17505972,0.0848745,-0.041767575,0.2011268,0.22398143,-0.0073046377,-0.11234467,-0.17637235,0.07809908,0.11374302,-0.015754346,-0.18956846,-0.015253773,-0.03216648,-0.03708014,-0.003919278,-0.0207914,0.061679076,0.0051372335,-0.21946533,-0.23531191,-0.06891947,0.16854401,-0.009884146,0.12377311,-0.025631579,-0.074289426,-0.11842614
-0.073554166,-0.23119882,0.22361086,0.13793409,-0.14723541,0.15595116,0.24132589,-0.09400113,0.119008504,0.082137756,0.23139477,0.23086691,0.2448053,0.24005622,-0.22748408,0.06056556,-0.2039566,0.11340321,-0.16295028,-0.1245074,-0.11940434,-0.014167076,-0.064327896,-0.18782541,-0.13666852,-0.006823314,0.006654926,-0.06692549,0.059123944,0.18995398,-0.07776832,-0.17539266,0.18556099,0.20189081,-0.11625814,0.20486356,-0.15927471,-0.122763805,0.03354469,-0.07307865,0.12865323,-0.109478146,-0.099195786,-0.1820735,-0.119391076,-0.110432066,-0.24296077,-0.20666133,-0.22356808,0.08329477,0.1542939,0.1719873,-0.1159671,0.05045093,-0.055683307,-0.020569377,0.09395867,-0.08931614,-0.15359567,0.2108214,0.037560035,-0.24873576,-0.0025312356,0.17824231,0.09315082,-0.093198255,-0.1335121,-0.087166406,0.024338353,-0.14767893,0.115076445,-0.024571462,-0.23365386,-0.17641258,-0.09759364,-0.11475644,-0.21033704,-0.19577776,0.17137809,0.18817294,-0.05500076,-0.10950291,0.11619839,0.20587288,0.24567331,-0.10422026,-0.2304213,-0.054669794,0.18914364,-0.11190491,-0.08422041,-0.06784579,0.14596987,-0.10794931,-0.01259542,-0.015515695,-0.12024064,-0.04499197,-0.16795655,-0.018680433,0.120846614,0.23438323,0.20512684,-0.015515934,0.04351638,-0.018445358,-0.20017426,-0.03944975,0.051355593,-0.057531815,-0.011457471,0.041106123,0.21198045,-0.23337647,0.067860246,0.0016186475,0.07972205,0.13933027,-0.23760922,-0.046854243,0.12424303,0.15803817,0.16195777,-0.018739402,-0.19250631,0.19445132,0.01872957,0.15537874
0.16707894,0.0122225005,-0.1812816,0.17414059,-0.19239232,0.24317883,-0.084649205,0.19005214,0.19255817,-0.1327664,0.10623859,0.02513923,-0.12756659,-0.058435343,-0.11284545,-0.0015080379,0.14792311,0.005683368,0.010408379,-0.17202586,-0.09780926,-0.21479839,0.17887364,-0.052377835,0.17246604,-0.04277096,-0.18212324,-0.14139493,0.17853013,0.013678391,0.2137101,0.15623245,0.20420277,-0.109465756,-0.06273234,-0.22124557,-0.17787363,-0.21077292,0.19108175,-0.00046708086,-0.042743545,-0.14723752,-0.1674333,-0.21208131,0.06620853,0.14583927,-0.03327475,0.022466216,-0.02117323,-0.13472003,0.13836558,0.08385819,0.21417378,0.084033966,0.10009798,0.2221779,0.12972875,-0.083947584,-0.059979737,0.006476467,0.23253994,0.05433624,-0.1993487,0.24746834,0.16638727,0.03886208,0.06738512,0.24852763,0.10572225,-0.15477668,0.20035769,-0.110664904,0.22722028,-0.22602378,-0.08939427,0.14921974,-0.17217652,-0.13341747,0.17347147,0.21341583,0.0074492465,0.029331246,0.064220205,0.123529635,-0.04967118,0.2023596,-0.100739755,-0.14948918,0.106165014,0.13872457,0.009897227,-0.015785396,0.15243904,0.11084271,-0.15096036,-0.24437894,-0.23835292,0.18978208,0.22712079,-0.074529536,0.24326482,-0.14343184,0.010821943,0.05400888,-0.19434404,-0.18770312,-0.23362312,0.10774469,0.1910094,0.10208221,0.18000384,-0.24843314,0.21901825,0.15673389,0.034398902,-0.18344012,-0.11303386,-0.06776996,-0.062361713,0.19519718,-0.058438085,-0.06460829,0.11396838,-0.2419541,0.00025202997,-0.04864494,0.037288845,-0.102122284
0.12748569,-0.18242778,0.16990134,-0.103540905,0.20379049,0.13108875,-0.21610723,0.09468037,-0.22513327,-0.06752517,-0.023257587,0.102527805,0.21425039,0.2089164,0.08033063,-0.1468607,0.13485406,0.21147266,0.2043085,0.013026594,0.24605912,0.20586444,-0.11488863,0.048889138,0.072137244,0.24180503,0.24058838,0.1830515,-0.005552824,-0.18546852,-0.04277489,-0.068784185,0.10610566,0.19521846,-0.16073628,0.22003196,0.10834991,0.16766974,0.22047575,-0.16208957,0.016162308,0.20337334,0.2442162,-0.10083458,-0.053964153,-0.22849333,0.2452793,-0.15649003,0.06540103,0.14589216,0.23626934,-0.075743705,0.17890945,0.02487826,-0.11051061,0.13003546,0.16248123,0.19515663,-0.05952207,0.2056704,0.09320836,0.08344105,-0.0672667,-0.15324432,0.08742451,-0.16144754,0.032290112,0.11081303,0.05957359,0.054337014,-0.095327936,-0.17117213,0.10267739,-0.22487828,0.029091971,0.15861946,-0.102460526,0.11408501,-0.1388308,-0.18858972,-0.02364192,0.18291107,0.12204657,0.026428523,0.15629393,-0.13820748,0.044691905,-0.06967076,-0.2449256,0.08090177,0.117469475,0.20662294,0.060078993,-0.024120681,-0.108486325,-0.0665481,-0.19729736,-0.059584677,0.17420134,-0.002451437,-0.10886953,0.24761999,0.24025041,-0.08993278,-0.1518743,0.015743768,0.23627694,-0.1924706,0.0073296083,-0.013962633,0.2416411,0.093633786,0.23228572,0.107301325,0.20962279,0.23170777,0.13075984,-0.22972979,-0.1559817,0.16820405,0.12782869,-0.055208478,-0.08749847,-0.019449277,-0.18804824,-0.030037723,0.13519941,-0.03818302
-0.1882321,-0.15802091,-0.040956836,-0.16543512,-0.041436434,0.22658207,0.08780241,-0.1378295,0.1712887,0.24178816,0.17314844,0.13324256,0.02816052,0.16007699,-0.19481133,0.004423874,0.1217637,-0.14280108,-0.048822567,-0.06962231,0.003805897,-0.09585768,-0.20668598,-0.2018241,0.09649181,0.24475618,-0.19536807,0.07025868,0.17418438,0.16183136,0.12401475,0.092871316,0.18733333,0.1431933,0.22475809,-0.031261906,0.08325696,0.2002404,-0.036487967,0.1981423,-0.0003038782,0.02003227,0.058897004,0.0992041,0.17328508,-0.11291655,-0.009524307,0.034703676,0.13739555,0.094221964,-0.12351745,-0.02717439,0.22155401,-0.012364576,-0.24918315,-0.124579415,0.03625668,0.23131002,0.010880942,-0.0815839,0.10128101,-0.06688586,0.013674816,0.019378953,-0.1201345,0.09072701,0.09202148,0.07567163,-0.17312236,-0.1428332,-0.10154594,0.14843197,-0.17676702,-0.19476065,0.15234569,0.1420286,0.22502245,-0.1273406,0.23709512,-0.091812685,0.072053514,-0.062259596,0.0059056003,0.01775676,-0.032193657,-0.1986919,-0.19407384,0.11236708,0.09099152,-0.21585312,-0.0014605998,0.09189243,0.18246481,0.24893686,-0.039050404,0.2364053,0.2494535,0.1780261,0.17336944,0.20404674,0.09653645,-0.02033147,0.010503404,-0.11071923,0.20360306,-0.14236309,0.08245468,0.022765327,0.15257414,0.16690445,-0.08953459,0.05306244,0.24777874,0.10099256,-0.19442277,0.18351996,-0.1851937,0.23486392,0.23468147,-0.115172096,0.103679106,-0.22616975,-0.2065967,-0.024932314,0.13043785,0.017135177,0.20666979,-0.06482594
0.036286477,-0.08477966,-0.034817472,0.042295564,-0.11464706,-0.023582919,0.23881043,0.02786433,0.051284313,-0.072866075,-0.2046658,0.098814584,0.00833296,-0.20185608,0.15316959,-0.008323187,-0.14994746,-0.2191675,0.07315601,0.12824592,0.017983492,0.112762496,-0.21567479,0.11814711,0.054438177,0.09960914,-0.20120463,-0.10548172,0.091945946,0.14727549,-0.007335002,-0.06793698,-0.07603507,0.13895,0.23304923,-0.20676833,-0.12698089,-0.2150082,-0.15600406,0.05586874,-0.14328657,0.13107143,-0.08577622,0.18289557,0.22258845,-0.043453626,-0.08883505,0.13672864,0.051738195,-0.20296285,0.07727886,0.012675755,0.24335288,0.06707099,-0.039463937,0.100230634,-0.19553113,-0.03369818,0.003437417,-0.016421877,0.061767604,-0.18257715,0.10846204,-0.042430397,0.07525043,0.23825924,-0.011391856,-0.090730935,0.24630354,0.22810063,-0.08866061,0.048440233,-0.22792612,-0.08435278,0.059627913,-0.039024986,-0.030565264,0.06255287,-0.019833906,-0.14054112,0.11117695,0.184604,-0.10625194,0.17480507,0.15582052,0.22753175,-0.09365196,-0.15151152,0.0015635215,-0.18218268,-0.1318183,0.24371116,-0.22918637,-0.028292553,-0.09644086,-0.042019337,0.14473118,0.12728763,-0.06046544,-0.1376531,0.22674127,-0.12241264,0.023920737,-0.19433534,0.13727021,0.24388316,0.11005805,0.083536044,-0.03078979,0.028732669,-0.08659387,-0.22708315,-0.044573996,0.020192046,-0.05936614,0.123820886,-0.14100508,0.1936497,0.08491163,0.033727974,0.08335413,0.18477784,-0.033674043,0.2017185,0.12823406,-0.13191389,0.06357806,-0.08627584
-0.16523148,0.0131719485,-0.22137448,0.008061681,-0.03567842,0.18636085,0.20716015,0.032739162,0.23455086,0.1500821,-0.12454509,-0.08589657,0.17994171,0.21579012,-0.023669481,-0.0817359,0.09373777,0.1200486,0.13046275,-0.17722695,-0.1126102,0.21943577,-0.093049236,0.21006897,0.17752865,0.10559999,-0.13414648,-0.09131343,0.18910192,-0.11039306,-0.23205674,0.17332707,-0.16931203,0.07864274,-0.007347934,-0.07159838,-0.00986734,0.14280695,0.1391246,-0.013814299,-0.09761969,0.11502206,-0.16650853,-0.20895725,0.07670907,0.11447864,0.24623889,-0.111509375,-0.049019232,0.04845665,0.0045617484,0.22131485,-0.15273777,0.036276404,0.22343422,-0.13903321,0.07744412,0.0140558705,-0.068594344,-0.1097601,-0.094942234,0.19700716,0.044167493,-0.09767473,-0.24787425,0.18546802,-0.09337141,-0.23596203,0.06708601,-0.024800042,0.049209375,-0.20629235,0.20968688,-0.09332493,-0.1494764,0.16258305,0.12891991,-0.16994478,-0.020877277,0.09023007,-0.18376862,-0.14410247,-0.03385372,0.2489027,-0.03636806,0.2474704,-0.09967508,0.18149012,0.018852605,-0.24678814,-0.19609985,-0.17532529,0.15979046,0.1839158,-0.08911414,-0.19835521,0.15833913,-0.12087584,0.00018340559,0.004681297,-0.21407637,-0.0033658724,-0.1891608,0.029795289,0.21917936,-0.11921444,-0.19257411,0.16293287,0.024647268,0.058578853,-0.10468273,0.21846546,-0.08020581,0.1822245,-0.19311285,-0.070013314,-0.16300288,-0.09412897,-0.07867161,-0.048628256,-0.21003716,-0.13158068,0.14778152,0.0473277,0.004026371,0.11776811,-0.013677349,-0.030487908
-0.2449307,-0.24007067,-0.11260507,-0.17672363,-0.15643016,0.12210196,0.12001281,0.22921187,-0.12056002,-0.23408164,-0.13367991,-0.07787866,0.124669105,-0.052131884,0.040198214,-0.07903988,0.14963366,0.22753741,-0.14589198,-0.015057793,0.14899373,0.039064407,-0.20345722,-0.19395965,0.2409889,0.0075715967,0.100315645,0.08956319,-0.114209235,0.17843013,0.24214385,-0.08936387,0.20947796,-0.14259672,0.11215846,0.16130419,0.13639943,0.07444652,-0.24164617,0.058060817,0.14099531,0.050699323,-0.18555503,0.18338032,0.17480317,-0.06804478,0.049077846,0.24052408,-0.21688585,-0.19785428,0.16422106,-0.011050433,0.14027986,0.10715642,0.09691011,0.088476226,0.13908759,0.18465722,-0.24764222,0.01753718,-0.18021835,0.115761615,0.0456283,-0.22487795,-0.036365468,-0.001189082,0.012703259,-0.031651456,-0.20588703,-0.23408149,0.07072233,-0.24073195,-0.017791266,-0.10248764,0.031339917,0.18936732,0.013036219,0.11718473,-0.09435179,-0.025871035,0.23872975,0.21824592,0.18881035,-0.16349743,0.2067126,0.13775072,-0.066032656,-0.17995879,-0.17084715,0.24588718,0.1593254,0.060931418,-0.10234133,-0.23051609,-0.12048892,-0.1081635,-0.09538998,-0.19007154,-0.16853733,-0.24362943,-0.010202565,-0.14516151,-0.025132287,-0.1686475,-0.096149705,-0.23582919,-0.17007622,0.079648174,0.20808564,-0.08060019,0.1129128,0.19349954,0.15162303,0.13258964,0.17578375,-0.05726873,-0.119514234,0.22102703,0.097088605,0.1902138,0.14036255,0.10690653,-0.16952504,-0.062845364,0.06622032,-0.043138336,0.21809621,0.14361256
-0.021237563,-0.24305522,-0.10552728,0.09780461,0.16973232,0.1310509,-0.13659547,-0.03305398,-0.024747508,0.23232739,-0.016294997,0.12044571,0.21200381,-0.23148315,-0.04063645,-0.052225597,0.02986442,0.03953998,0.17342997,0.13352495,-0.20063195,-0.21301241,0.116241835,0.11571883,0.08611433,0.18974411,-0.05338497,-0.12890159,0.21518447,0.0166293,0.23979832,0.23215403,-0.006769469,0.124685675,0.23639712,-0.065978095,0.20016183,0.14344826,0.17295088,0.23674211,-0.21838537,-0.06791248,0.0825838,0.24764046,0.087206304,-0.21262284,-0.22427446,-0.124666035,0.18635468,-0.027301926,-0.23022866,-0.115817755,-0.020258078,0.09731885,0.024548845,-0.17155491,-0.058028217,0.22329277,-0.07790619,-0.16339338,0.18520029,0.16056517,-0.050977904,0.12304924,0.13316792,-0.15213516,-0.2093406,-0.14886244,-0.15819219,-0.19066466,0.21626917,-0.13220412,-0.11156969,-0.15360247,-0.06844887,-0.06686929,-0.2480839,0.0067433957,-0.2358578,0.19314101,0.21855548,-0.017344,0.041320696,0.10502886,-0.18468225,0.056171425,-0.110266626,0.007830242,-0.22399406,-0.0667169,0.03775351,0.19171569,0.053473562,-0.03468252,0.051119026,-0.08286947,-0.11223307,0.16452616,-0.111794,0.05294125,0.15577011,0.21910004,0.14546414,-0.16423453,-0.22370315,-0.096455574,0.22556277,-0.00082247943,-0.06262337,0.09626046,0.17619112,0.23567648,0.19463404,-0.05410885,-0.13970518,0.068419166,0.20432468,0.19147812,-0.1332813,-0.037915792,-0.1066408,0.23367177,0.070968695,0.052371547,0.18322231,0.08520011,0.18041037,0.0029737332
0.094697654,-0.08609672,-0.24670212,-0.14592181,0.22080448,-0.064057834,-0.14860445,-0.1344574,0.10202252,-0.17393757,0.14567278,-0.07527669,-0.08371817,0.04221964,0.1252142,-0.17224595,0.15560494,0.0501531,0.24593638,0.031040987,0.13120818,-0.16752046,0.02422119,0.18285754,0.2327716,-0.07702725,0.14282462,0.12541975,0.23065308,-0.17005554,-0.066000715,-0.06995724,0.23421693,0.064487375,0.18190017,-0.08845224,0.0013029991,0.24942519,-0.21822026,-0.009943712,-0.23140007,-0.19372648,0.029455176,0.14627762,-0.16704817,0.048662584,-0.1829308,-0.1341615,0.2159053,0.12728727,0.12702936,0.16145019,0.04150908,-0.18247956,-0.14256789,-0.23638442,0.1645566,-0.044059206,-0.064844616,0.12618624,0.17958634,0.24778041,0.040873494,-0.24821147,0.13511714,0.0057887034,0.23808372,-0.13545744,-0.24719357,-0.123092145,0.12909223,-0.055817876,0.23426028,-0.092233524,-0.22809955,0.14186236,-0.01306256,-0.02418132,0.052072465,-0.20139834,-0.17501304,0.1444126,0.2162045,0.17693514,-0.2319659,-0.103846274,-0.020324588,-0.2284528,0.16586308,-0.2183966,0.09897608,0.085272275,0.116147526,-0.15961194,0.1263391,0.06631121,0.011811111,-0.20666344,0.049968384,0.19289917,-0.056055333,-0.19192621,0.07249366,0.24438103,-0.029662836,0.02109802,-0.19474432,-0.20182028,-0.013944337,0.12192184,0.2277856,0.027855868,0.04131143,0.033249214,0.17794573,-0.11941316,-0.031460688,-0.086677365,-0.020156497,-0.080395624,0.08258881,0.2380505,0.24833225,-0.113691084,-0.10747654,0.21100847,-0.12979475,0.18595974
0.1924076,0.002514787,0.07588933,0.0575825,-0.18980911,-0.24849196,-0.18400852,0.0067984327,-0.15571944,-0.11924277,-0.13229655,-0.15604395,-0.22362237,0.072868966,-0.17385483,0.14571328,-0.1124189,-0.07400444,-0.054721225,-0.22843933,0.24696693,0.14462939,0.062037393,0.11165053,-0.049200613,0.07060841,-0.036693394,0.015997587,0.06975205,-0.17811587,0.14765514,-0.14534684,0.023121918,-0.027415218,0.17567854,-0.10607902,-0.015202669,0.053716116,-0.24262857,0.11596019,0.02957985,-0.22173181,-0.13628715,-0.10182026,-0.058114123,0.09327311,0.18387288,0.0014868815,-0.12457232,-0.15418692,0.2300824,0.24718046,0.03540026,-0.017098377,-0.16871455,0.06076649,-0.06002327,-0.10616049,-0.04772279,-0.18928443,-0.10956242,-0.09147961,0.14782272,-0.18323311,0.0753589,0.24087125,0.091286756,0.056870602,0.18710117,-0.047578093,-0.068348095,-0.008167642,0.042955197,0.19641422,0.024370268,-0.07943586,-0.15854497,-0.07103038,0.0021247633,-0.0099101,0.15003191,0.24550824,-0.03017682,-0.020638388,0.22724557,-0.23480237,0.16560812,-0.18825254,-0.14334144,-0.105517484,-0.16852272,0.09701518,-0.16139665,-0.044791132,-0.2037647,0.09331551,-0.13656014,-0.04816064,-0.10088919,-0.017502496,-0.10621204,0.16744469,0.19896789,-0.16435856,0.03558265,0.11644744,0.04457194,0.22112703,0.08441502,-0.24174179,-0.24844547,-0.12346751,0.1131625,0.21105117,0.08087,-0.19821163,0.07302025,-0.24392061,0.014239365,0.15157594,-0.034151938,-0.18568173,0.19922903,-0.19511539,-0.19165789,0.15649346,0.13018456,0.0055166194
0.12425778,0.027129605,-0.096854,0.022469137,-0.17825408,0.07253561,0.20170642,0.03629768,-0.24425623,0.19578551,0.19119352,-0.019408274,0.058614906,0.1881228,0.071915135,-0.070380874,-0.19641109,0.1296246,0.21436273,0.15993597,-0.050428074,-0.050328102,0.23030998,-0.2286183,0.09321876,-0.17765789,-0.0018426377,0.07184406,-0.20761488,0.0645961,0.056589905,0.2261287,0.23831165,-0.1326537,-0.011669989,0.05682823,0.12537585,0.011524039,-0.044853855,0.20578825,-0.19545572,-0.050425094,-0.12986135,0.160138,-0.014349052,-0.078885384,-0.14060606,-0.1888612,0.11179597,-0.0009500439,0.13487898,-0.039651603,0.111945674,-0.18649466,-0.16699608,0.1685984,-0.16193876,-0.21365944,-0.22874899,-0.058984816,0.11436213,0.12990318,0.20511009,0.14431565,0.15762472,-0.13362433,0.09533622,-0.12101914,-0.16146518,-0.17860122,0.12058582,0.17514628,-0.03692966,-0.08618466,0.12582266,-0.14233913,0.00059702917,0.15385774,0.03431547,0.1798308,-0.18471323,0.018171664,-0.2259761,-0.10845829,-0.22106166,-0.23267977,0.1486396,0.10520779,0.2138099,0.11882021,0.14599526,0.16899346,-0.07132225,-0.23563577,-0.100885235,-0.23330428,-0.17994812,-0.06087239,-0.24022876,-0.09873833,0.24832861,0.12129278,0.19458495,0.023987932,-0.09228689,0.04685189,-0.085376,0.2252864,0.058613714,-0.2428723,-0.23096158,-0.030742144,-0.067890376,0.24464273,-0.123642035,-0.13670745,-0.2293307,-0.07443302,-0.07705791,-0.07910937,0.24451645,-0.22588179,-0.052121095,0.04817107,0.18438701,-0.20964976,-0.17021614,-0.09999473
-0.17423815,-0.10890272,0.21073192,0.09526432,-0.2466085,0.18129334,-0.007865611,-0.0037630477,0.21229887,0.07526292,-0.051222365,0.12214791,0.011964242,-0.076179735,-0.02748113,0.1159109,-0.21088174,0.02609726,0.041839626,-0.048200745,-0.0989487,-0.04196117,0.026975371,-0.1497711,-0.22054484,-0.09969156,-0.06028373,0.018295921,-0.18874313,0.21510832,0.22643362,-0.18480311,0.2245054,-0.21538776,-0.0744621,-0.1486456,-0.10804436,-0.17818695,-0.0059546474,-0.07029884,0.09393212,0.24527007,0.029145367,0.14381447,-0.14118047,0.17220479,-0.22715212,-0.07110752,-0.07303717,0.14515321,0.06567347,-0.16446318,0.0102212485,-0.06301738,0.07440784,-0.22860637,0.11885275,-0.22665825,-0.043329906,-0.123172455,0.18191609,0.13744773,0.24834666,0.100798815,-0.23977853,0.22304647,0.080162875,-0.1720097,0.24033284,0.050880615,0.10484369,0.17343578,0.21135627,-0.050887764,0.16992669,-0.076212786,0.17185381,-0.22943401,-0.061041046,-0.12955956,0.0729327,-0.069081865,0.12391323,-0.09420757,-0.24358456,-0.24514778,-0.1235699,0.018829392,0.17274152,0.03999663,0.21366191,-0.122987345,-0.24264324,0.16852921,-0.06778,0.24530827,-0.0144981,-0.164161,-0.15275995,-0.21929748,0.14765824,-0.012464697,-0.040041715,-0.23370196,0.112367794,-0.2273265,0.18106589,0.10807983,-0.11363962,-0.13132252,-0.00041898715,0.08663752,-0.19796728,0.06941111,-0.11625194,-0.000995873,0.19826126,-0.010597029,-0.16264312,0.20087686,-0.15780362,0.18816635,-0.0451476,0.23821764,-0.0012665266,-0.0032305308,-0.17520815,-0.021366915
-0.18461065,0.18055469,-0.0012774325,-0.18025608,-0.08833016,0.07235608,0.16989279,-0.10028731,-0.07882212,-0.12375911,-0.014017401,-0.20443493,-0.08485216,-0.12661067,-0.1465257,-0.053261608,0.101885155,-0.018803349,0.2322126,-0.24756452,0.055185713,0.12852053,0.21358006,0.02572148,0.04249497,0.07997914,-0.2330041,0.12235611,-0.09115833,0.1492561,-0.063835785,0.051957298,0.14140226,0.09976757,0.086139604,0.039002158,0.21276169,-0.1937299,0.033421624,0.07025808,-0.11172404,0.10694471,-0.18856344,0.1589521,-0.12903532,0.08645078,-0.0053664683,-0.1578717,-0.19408028,-0.23614559,0.23911658,0.19592717,0.18625933,0.19623147,-0.1652606,0.16420929,0.04386564,0.13193406,-0.20975906,0.23031403,0.10784722,-0.087083116,0.07223608,-0.2129245,-0.097535655,-0.106800996,-0.121462084,0.10842921,0.10419809,0.12316432,-0.2443776,-0.16074309,0.013415098,0.04237137,0.110305905,0.029876547,0.13823016,0.028536778,-0.1949079,-0.1927653,-0.03407643,0.19123803,-0.07912746,0.21176516,-0.182418,0.006442408,-0.032333408,-0.24329638,0.120448515,0.104232304,0.2289102,-0.023892011,-0.088538624,0.073180646,-0.14426811,-0.0046250094,-0.028310671,0.23366229,0.14701906,-0.03774892,-0.24515937,-0.027908044,0.09733098,-0.0627293,0.09804216,-0.11897054,0.041916385,-0.102363534,-0.1742938,-0.076884784,0.072405964,0.06390053,0.20502704,0.14993611,0.10305437,-0.12865281,-0.099958666,-0.021800324,0.1293415,-0.18004243,-0.24862766,0.22912337,-0.10223242,-0.1922986,-0.17033769,0.228813,0.15364191,-0.046081584
-0.23510583,-0.11142332,0.23795253,0.1671435,0.107258625,-0.05149433,-0.121399276,-0.086973555,-0.054158255,0.18273628,0.20992437,0.019821271,0.24301523,0.19940539,0.20097403,0.16526489,0.024953827,-0.03844318,0.094990745,0.20604582,-0.07729525,-0.1627085,0.23195474,0.043305293,-0.05794666,-0.186997,-0.21839654,0.236752,-0.09869268,-0.23504768,0.04673252,0.05884736,0.027076118,-0.16921349,-0.05018427,-0.09253359,-0.19920449,0.08918488,0.19684179,-0.21228698,-0.06402783,0.05066711,-0.24187556,0.064826,-0.13822593,0.1782809,-0.15151897,-0.078007475,0.117118694,0.12818564,0.08927505,-0.19286181,0.20551248,-0.07114075,-0.057363965,-0.014152713,0.17148873,-0.11274721,0.12328133,0.04327025,0.119466886,-0.0021384705,0.14278527,0.070276104,-0.24502692,0.11864732,-0.0756216,0.042544972,-0.11092045,0.052342497,-0.08522856,0.17039956,0.0490743,-0.018175002,0.17733094,-0.24316333,0.18588853,0.20091103,0.043844752,0.00076920097,-0.101664506,0.044193566,0.15325564,-0.03326873,0.1838556,-0.032438178,-0.07213245,0.036754362,0.20803608,0.101046495,0.2352898,0.05143795,0.050044578,0.084056854,0.23610048,0.17907219,0.15543562,0.058897063,0.089098915,0.18492503,0.07367082,-0.12773933,0.19755445,-0.041632414,-0.056751203,-0.040806953,0.2001461,-0.19488332,0.19888806,-0.026297381,-0.093308955,0.064296156,0.0009983164,-0.019394657,-0.03859241,-0.047597997,0.19935973,-0.02611338,0.19677262,-0.05701515,0.19148217,0.033503506,-0.18044345,0.24931462,-0.09719432,-0.0628661,-0.1956007,0.20967266
-0.016688062,0.17904414,-0.11432932,-0.19480337,0.07017017,-0.119923,-0.21466053,0.22018775,-0.19360618,-0.040748313,0.16148613,0.21280812,-0.05369901,-0.21153155,0.18682292,0.09556733,-0.06851032,-0.09420739,0.07010385,-0.23677438,0.05750476,0.019014467,-0.16119695,-0.22632897,0.22081389,-0.1942363,-0.13907778,-0.20565774,0.15467933,-0.20181781,0.10243785,-0.23701139,0.21028218,0.024963481,-0.24011856,0.10854479,0.23950192,-0.18149579,-0.15182908,-0.03852754,-0.055602375,0.07895445,0.1422376,0.10574028,0.15518083,0.06947597,0.21362084,0.17577296,-0.027909832,0.22807065,-0.16514003,-0.17342219,-0.17471845,-0.10484944,0.12984258,0.07474798,0.15102915,0.17025402,0.1773768,-0.1811336,0.03322004,-0.009085564,-0.017258808,0.19061098,-0.22060552,0.009728393,0.0904571,-0.05608093,-0.08195762,-0.015068639,0.18161078,0.024844648,0.04982446,0.19258726,0.01694465,0.040112097,0.108727455,0.24577767,0.18515913,-0.1527017,0.15884346,-0.013489116,-0.034330755,-0.13233176,-0.0041748537,-0.09063183,-0.179746,0.14359057,0.07099304,0.189605,-0.22673358,-0.08087069,-0.19210821,0.11854122,-0.15808485,-0.23858692,0.21329793,0.050937407,-0.2030003,0.1661822,-0.036925223,0.13793537,-0.137885,-0.13807172,-0.19721954,-0.039961413,0.13463174,-0.019519271,-0.09540032,-0.19740953,-0.049465515,0.12432977,0.23349567,0.08794052,0.12486842,-0.1320104,-0.091455,-0.18180476,0.034401704,-0.099884056,0.010734635,-0.1453345,0.14822192,0.24639446,-0.017913973,0.15156694,-0.055341408,0.15712966
0.11793954,-0.039832566,0.0226703,0.014569734,-0.06740186,0.028629538,-0.0723059,-0.20275797,0.21672083,0.011253416,0.1260031,0.012437402,0.037536047,0.012229353,-0.1297176,-0.15450183,-0.1743902,0.0542961,0.12658657,0.10274548,-0.16347052,-0.0016438266,-0.041990373,-0.06234181,-0.023779495,-0.14636362,-0.107595995,0.24345872,-0.18379228,0.11428892,-0.12596722,-0.23927271,-0.03743992,-0.22955541,-0.042637464,0.00678109,-0.01784529,-0.17333423,0.20984374,0.08881497,-0.103779614,0.19706452,0.1532445,0.09568629,0.15319641,-0.17572819,0.23285083,-0.13343371,0.16106384,-0.09540631,-0.18762958,0.17300117,-0.13138837,-0.1609838,-0.24190262,0.11324647,0.21641207,0.19535676,0.2301909,0.043764535,0.23428164,0.15456422,0.1569465,-0.10511697,0.085504815,0.11768754,-0.21995813,0.07031475,0.14582005,-0.023169117,0.19177812,-0.124357246,-0.2330082,-0.20627357,-0.22874014,0.18522882,-0.22193876,-0.11174847,0.18567899,0.11750652,0.05753396,0.21238743,0.10442235,0.24506113,-0.03268222,-0.18766809,-0.011740848,0.0056625097,0.21115007,-0.12042312,-0.078709126,-0.015049568,-0.18672912,0.068713866,0.19801112,-0.21241544,-0.12530607,0.11307671,-0.07399973,-0.081580445,0.09451097,-0.040061504,0.13764699,-0.19857533,-0.09951337,-0.15365022,0.20131515,0.18527514,0.19378649,-0.20953509,0.14506058,-0.069815844,0.1346143,-0.07936611,0.16911685,-0.1907694,0.21371363,-0.2452459,-0.20265049,0.20466919,-0.051291525,0.09806341,0.22816516,0.084038466,-0.24059968,0.107831225,0.09825814,-0.116623275
0.025138663,0.16084488,-0.0742939,-0.24392436,-0.16308592,-0.15256278,0.15275542,0.24995342,-0.17037667,0.22535573,-0.0029245669,-0.0065717604,0.106379025,0.23068331,0.048830464,-0.2021346,-0.02078255,0.042693246,0.021672193,-0.10226702,-0.18988563,-0.10962836,-0.20051979,-0.113089286,0.21102928,0.18003343,-0.096222736,-0.2335653,0.042174228,0.006157452,0.20484678,-0.09380598,-0.1594931,0.1593358,0.18233347,-0.12731017,-0.0064284033,-0.038969293,0.19136623,0.10056249,0.07751852,0.09986829,-0.2105666,-0.05684414,0.042393837,-0.20706813,0.24634318,0.09400748,-0.094158135,-0.080615446,-0.09547979,0.23676845,0.22854169,-0.14521956,0.24434327,0.04634488,-0.11159689,-0.12979728,0.10868406,-0.16640235,0.027058985,-0.090996526,0.1613038,0.013956554,0.13936321,0.16374037,-0.07261866,0.106407486,-0.15018263,0.17326674,0.1317298,0.024236117,-0.1419876,0.09157383,-0.036225777,0.16535795,0.19620211,-0.11822947,-0.15714853,0.10353536,0.102582216,0.20044431,0.11858094,0.21156602,0.13824664,0.14701414,-0.09156075,-0.1795833,-0.15190256,-0.22501959,0.13236126,-0.074985236,0.19841592,0.07723634,-0.19229276,-0.05060126,-0.2095971,-0.13362987,-0.10846133,-0.16816016,-0.13035439,0.14943857,-0.056536924,0.009717666,0.00061079575,0.060023956,0.17930067,-0.15691607,-0.18371895,-0.19912659,0.04516453,0.036613416,0.055561345,-0.063712716,0.123950236,-0.18471767,-0.19287218,0.17686664,0.070500396,-0.15113723,-0.15458779,-0.18858284,-0.22106312,0.16909617,0.18835585,-0.12240286,0.08569407,-0.11917633
0.22581758,0.1471659,0.1566574,0.028094072,-0.082966164,-0.037073467,-0.06298592,-0.0012868189,-0.12406487,0.11075665,-0.13967627,-0.1246602,-0.05117901,-0.11009127,0.14130548,-0.10949442,0.10162166,-0.050434094,0.08498768,0.0796988,-0.22255999,0.057173736,-0.1219272,-0.040279593,-0.12991135,0.16415438,-0.09580798,-0.21712898,-0.22980067,-0.1805792,0.20505027,-0.17607664,0.20492359,0.022460584,0.1404973,-0.17227983,-0.06289668,0.22976075,0.10135076,0.20432164,0.11721685,0.21322557,0.224793,-0.06656109,0.17321226,-0.12407872,-0.040740415,0.08084256,-0.058805015,-0.01835641,0.21486554,0.13836692,-0.22308722,0.14626573,-0.19342138,0.16243415,-0.009426064,-0.035197426,0.042762227,-0.11160255,-0.11900934,0.21941748,-0.13035896,-0.1173794,-0.16299656,0.13974543,0.097227044,-0.109450914,0.061838552,-0.20963793,-0.23125932,0.15106787,-0.0687473,0.21922076,0.025815848,-0.16653156,0.16462676,-0.012848612,0.06443833,-0.073885694,-0.09770956,-0.015461225,-0.123102576,-0.074169934,0.044361178,0.15604371,-0.06555688,-0.23643588,0.22287281,0.05698544,0.10984377,-0.06375869,0.024941908,-0.05719847,0.18996942,0.061673623,0.1568664,-0.09810843,-0.09199967,-0.09924734,0.12645867,-0.19396526,0.012324945,-0.21785735,-0.2040368,0.091185234,-0.16832227,-0.20385654,-0.14675498,-0.015189707,-0.035873894,-0.2211774,0.15492372,0.06276529,-0.15126903,-0.24574609,0.17125565,-0.2426074,0.1269659,-0.21641102,-0.16304223,0.10586859,0.044824623,0.15496083,-0.13068329,0.22800322,-0.0012690296,-0.036515113
-0.110219516,0.23134525,0.18313317,0.23174258,-0.029634291,-0.15452869,0.019643767,0.10601469,-0.057029095,0.053403355,0.10435557,-0.17672703,-0.17872995,-0.0033979348,0.057569332,0.12711199,-0.0015200167,0.01287394,-0.1465908,-0.18562198,-0.22514164,-0.06617372,0.23187788,0.12811856,0.101622164,-0.0760663,0.048559573,-0.010836186,-0.0012053219,0.101316825,0.1922267,-0.011801904,-0.06281738,0.22954164,0.08084748,-0.027063185,-0.059329934,0.23756644,0.115894124,-0.16946912,-0.23745416,-0.041809235,0.22699966,0.23226823,0.22994398,0.21154504,0.11734585,0.11932976,-0.06021326,0.0049043936,-0.17390539,-0.09341501,-0.047720913,0.10112016,-0.1255605,0.03886506,0.032838866,0.028896585,-0.014089304,-0.23267959,-0.21759382,0.028419314,-0.22937004,0.058044516,0.1044028,-0.1977092,0.19114631,0.22265632,-0.10190894,-0.107629016,0.12545392,0.1796089,0.0030060043,0.22585416,-0.20350958,0.14281324,-0.057361938,-0.13021562,-0.18415894,-0.10779847,0.14064515,-0.14450522,0.07770372,0.13347472,0.13725956,0.23787613,-0.11700937,0.17895257,0.20022175,-0.02081798,0.18137561,0.21958393,0.036535554,-0.06580986,0.19870964,-0.037960697,0.04787628,0.09275376,0.10915562,-0.17026904,0.16694891,0.14704467,-0.24065754,0.21905877,0.13644095,-0.123149596,-0.05583617,0.16382776,-0.17006364,-0.19782059,0.077729344,-0.09235685,0.047221262,0.09986641,-0.13239434,-0.13928184,-0.084775634,0.014482754,-0.21174558,-0.18279295,0.2361939,-0.07712963,0.17995015,-0.23585148,-0.005380265,-0.21374874,0.10815432,-0.14059125
-0.20048112,-0.13467894,-0.047624666,-0.22666624,-0.2486508,-0.11682647,0.11696575,-0.15862161,-0.08209136,-0.06679873,-0.088129856,-0.23305659,0.086686894,0.06349326,-0.21035096,0.24491356,0.22862446,0.10224035,-0.21671571,0.21084376,-0.0115871215,0.16414678,0.041943055,-0.10231934,-0.0957446,0.14308612,-0.07501768,0.24161465,0.11411016,-0.23042783,-0.08907966,0.11284748,0.019171173,0.22056684,-0.15330583,-0.05612372,0.118248776,-0.046202116,-0.0851881,-0.013520702,0.14544705,0.17511834,-0.17782782,-0.08574028,-0.089340456,-0.23089133,-0.18886541,0.20061061,0.07888741,-0.18352333,-0.024955347,0.03508169,0.12200908,0.21439107,0.12376603,-0.08426115,0.050866965,-0.023392124,-0.1340551,-0.052136235,-0.17889997,-0.19083168,0.09683777,0.08141459,0.0369004,0.023690997,0.24569528,0.055062767,0.19582088,0.13873559,-0.006973435,-0.13296011,0.02336474,0.124737136,-0.20188336,-0.09690731,0.23743708,-0.1785917,0.012072319,-0.13815011,0.13134073,0.080205336,0.2010493,0.18332082,-0.017447578,-0.066002026,0.20805128,-0.11971057,-0.23997737,0.15094808,0.014880167,0.21425277,0.0027751902,-0.09952925,-0.10462924,0.17655274,0.05476321,-0.20687087,0.18228221,-0.21896496,0.12269467,-0.10838963,-0.20539245,0.026397293,0.0011031452,-0.07038141,0.013112114,0.1230726,0.0742944,-0.14223719,0.024152325,0.058545835,0.12477432,0.052457515,0.066640295,-0.0002473219,0.11424804,0.13488089,0.12527359,0.0076705255,-0.15986012,0.073654525,0.19175518,0.13152023,-0.0136048505,0.18040825,-0.1778131,-0.09070537
0.029796747,-0.13204743,0.18817568,-0.10023561,0.09252232,0.15769427,0.18253425,-0.0013768977,-0.17460886,-0.039646,-0.2459294,-0.06661437,-0.18446511,0.12912743,-0.05911584,-0.24837497,-0.12748018,-0.051315363,-0.1414738,0.19557475,0.09373042,-0.012926354,0.17214672,-0.07282069,-0.109045066,0.07636401,0.1923739,-0.039577644,0.01844664,0.080222584,0.04536912,-0.17510895,-0.17874482,-0.19008411,-0.0021490487,0.22701441,0.20981242,0.16328536,0.0036746077,-0.13849157,0.23399058,-0.14409806,0.23098946,-0.045732982,-0.1729481,0.11221016,-0.035564266,0.0397831,-0.20080993,-0.06048904,-0.05656398,-0.1682214,-0.24475594,0.065133,0.20928448,-0.08293657,-0.19278309,-0.10933577,0.24671979,-0.05669092,-0.22404285,-0.084239304,-0.024690714,0.033291377,0.06468389,-0.010833028,0.14512725,0.1640049,0.03519096,-0.21445382,0.19284664,-0.12761173,0.03280803,-0.10497686,0.2172541,0.009322517,0.2098474,0.15118937,0.16408987,0.10981754,0.19994442,9.2611626e-05,-0.025456635,0.198262,-0.047631998,0.15927197,-0.24940994,-0.11396072,0.19213113,-0.09657504,-0.023898836,-0.15593396,0.2030613,0.16294825,0.24676898,-0.22518031,-0.051568557,-0.22481425,-0.15345171,-0.1375365,-0.016476288,0.06046261,-0.034158643,-0.19031839,0.2286771,-0.014979573,-0.2278462,-0.21942616,0.13710406,0.04334531,0.14250295,-0.08876583,-0.114227444,0.019439979,-0.077843174,0.13422923,0.08197446,-0.22136697,0.040155962,0.1599878,-0.16773483,0.10585816,0.03835993,-0.11909,0.034958206,0.15312418,-0.10232926,0.18591772
-0.12855785,0.045564234,0.2163537,0.03556042,0.073273286,-0.043507233,0.13032927,0.21525002,0.037674934,-0.21120746,-0.13142297,0.1985832,0.17347433,0.02887823,-0.1223615,0.19499974,0.11867909,0.1143239,0.17528169,0.04177291,0.15808116,0.22218016,-0.12507018,0.131472,-0.002734695,-0.024195831,0.025508454,-0.20575455,0.07558813,0.046504594,-0.20949283,-0.23099199,0.019738851,-0.16113898,0.0721885,-0.21579644,0.039872523,-0.120165735,0.20914784,-0.08028796,-0.104479894,0.05957353,-0.032413088,0.20288433,0.15108323,0.035366647,-0.19207852,0.118306436,0.15094993,-0.22265114,0.053475827,0.12024324,-0.097330116,0.14269386,0.06849136,0.2019694,-0.057496358,-0.21417372,0.16479768,0.1139171,0.015031928,0.09915398,-0.0009601454,-0.16222538,0.03775241,0.1490042,0.00021677915,-0.07195867,-0.055266585,-0.122619525,-0.1865332,0.080019906,-0.018204711,-0.11647324,0.05956516,0.088376015,-0.17497441,0.2167702,0.15078689,0.16276172,0.21295904,-0.09289444,0.14671148,-0.2120228,-0.013812363,-0.1931813,0.013157705,-0.21762669,0.24042611,-0.06663836,0.19951509,0.16801782,0.13222343,-0.23974925,-0.08753366,0.049881134,-0.24331753,0.004979186,0.16831782,0.20697248,-0.055184193,0.1807116,0.15395896,0.07563527,-0.23677272,-0.14315487,-0.24905749,0.03394401,0.12564415,-0.07524796,-0.038229235,0.14932618,0.019073615,0.16434518,-0.058829688,-0.117832296,0.058616634,-0.08066363,-0.1340452,-0.045778424,0.14453311,-0.16313353,-0.164481,-0.15289417,-0.116961785,0.14438939,0.16841815,0.1906342
0.115000546,-0.014938691,0.18936977,0.08301256,-0.10076211,0.08730255,-0.14906378,-0.21438704,-0.02442122,0.053357884,-0.13604085,0.091218285,0.023223052,-0.058345772,0.19589671,0.0642194,-0.11536837,0.20796275,0.24118619,0.111439206,0.032581475,0.017328745,0.0063393675,0.08198963,0.12732913,0.10734463,0.07076327,0.11957756,0.05910934,-0.23917143,-0.09213394,-0.00789824,0.17222643,-0.14680657,0.037176266,-0.19836412,-0.22180183,0.0593794,0.2385995,0.119874194,0.07735255,-0.0865351,-0.21897036,-0.02795122,-0.16253448,0.031003382,-0.07811326,-0.06756936,0.07256571,-0.12579955,0.011250644,-0.08047053,-0.22758596,0.1301363,0.15583333,-0.061464712,-0.18507153,0.14851916,-0.08149147,-0.21859941,0.24826272,0.17980827,0.16109581,0.22008859,0.24133416,-0.12638141,-0.120091535,0.006606952,-0.069280826,-0.18388271,0.041502792,-0.121738374,0.24362436,0.12591273,0.1001441,0.2014342,0.011939391,-0.12792219,0.04821636,-0.16147558,0.079158716,0.01964475,-0.0055345283,-0.018244639,0.07173832,0.14345941,0.1069768,-0.23057418,-0.20727073,-0.07885025,-0.18410629,-0.15641525,0.21731491,0.18503073,-0.1262776,0.06414344,0.07107269,-0.21257187,-0.20784514,0.13154441,0.14889805,0.09146087,0.20732373,0.13025111,-0.0075077396,-0.15107022,0.05605566,-0.24812905,-0.18968852,0.14927779,-0.13455233,0.15964964,0.10474688,0.17424038,-0.016698282,0.036951415,-0.0927599,0.21722397,-0.051782742,0.07438257,-0.013960995,0.19116893,-0.086566485,-0.1697011,-0.21680376,-0.23256794,0.2006574,-0.18431321
-0.05998757,0.029375646,0.18234737,0.08891315,0.154177,0.07361153,0.081540905,0.16253528,0.023976518,0.23726852,0.10602687,-0.2045756,-0.064027116,-0.1563874,-0.1733931,-0.11011394,0.19525723,-0.04446687,-0.16005735,0.2085101,0.057288337,-0.11105606,-0.18752395,-0.1916719,-0.17084771,-0.03227387,0.13385735,0.08080463,-0.16017807,-0.18611546,-0.1418441,0.19971295,0.13531947,0.22547045,-0.19770595,0.22047614,0.042723134,-0.059550468,-0.07983149,0.23426296,-0.2494594,-0.049269177,-0.08471091,0.15043427,-0.013577199,-0.16626483,-0.21363181,0.020450214,0.05476935,0.20757994,0.22025739,-0.021076506,0.07989457,-0.1898963,0.0131630385,0.1634043,-0.055243015,-0.19902617,0.17250063,-0.1288726,0.16252169,-0.11322582,0.2205705,-0.2153468,0.15097111,-0.20583777,0.053747166,-0.13947573,-0.0054670656,0.17217512,-0.059883192,0.18198846,0.16720189,0.19621255,0.034793425,-0.11938431,-0.21651636,-0.047326658,-0.106398694,0.156139,-0.20041078,0.078517556,0.24651791,0.06376501,-0.120579086,-0.083814956,0.1259502,0.15773036,-0.20386831,0.05547782,-0.14109457,-0.11500025,0.10945637,-0.21637538,0.011122752,0.23669247,-0.07168599,0.10272602,-0.036261894,-0.057712957,0.03475764,0.063057676,-0.109470725,-0.23128267,0.18559603,0.2053347,-0.098728105,0.17392455,0.06252208,-0.1731527,0.17063946,-0.23010503,0.030177625,0.005374633,0.13619496,0.12985575,-0.08037497,-0.00829032,-0.20361322,-0.12716265,-0.08352586,-0.22311172,0.01571996,-0.16883236,0.0377657,-0.14958942,-0.19216272,0.18759501
