-0.00010681912,-0.07183584,-0.030795047,-0.048253596,0.014451625,-0.018823301,-0.048614502,0.08037051,-0.0053090123,0.0618576,-0.010590333,0.045422316,-0.04188392,-0.05194239,0.045552086,0.08513256,0.05613848,-0.0127025265,0.003112148,0.013405832,-0.080028236,0.017347055,0.04955793,-0.07349048,-0.07137828,0.037724916,-0.039850537,-0.05027394,0.0020197902,-0.039338354,-0.0027692055,0.039753534,-0.08767615,-0.07509873,-0.038801394,-0.0342321,-0.04870109,0.08392427,-0.0058221733,-0.039082132,-0.05379037,0.08840022,-0.025892312,0.0629737,-0.04562938,0.03719852,-0.03638421,-0.068322174,-0.070041776,-0.024038,-0.06561031,0.025772434,0.053778816,-0.004731139,-0.06004627,-0.026099714,0.08112462,-0.048757374,0.025416529,0.075091876,-0.018991394,-0.02263179,0.013493788,0.04449653,0.0594369,0.079255916,-0.074147664,0.021077523,-0.017602962,-0.024602933,0.006517333,0.06176272,-0.030457495,-0.08370483,-0.06378527,0.08324669,-0.05541963,-0.010737318,-0.083738685,0.05608261,-0.041755255,-0.050161686,0.035219926,-0.013715638,0.02303964,-0.07974478,0.052729964,0.0088611925,-0.02782291,0.044440746,0.08352904,0.08984757,0.044212226,-0.04936307,-0.03165908,0.08360746,0.08392168,0.04454714,0.026997013,-0.05908348,0.0118584735,0.024133626,0.037066124,0.07291995,0.006854299,0.044150997,-0.033213068,0.027644468,0.043118067,0.088223286,0.005388508,0.07228662,0.051740967,0.08939598,-0.07606202,0.012794399,-0.026136506,0.020138962,-0.08407627,0.02481848,0.03840106,-0.03474472,0.01501275,-0.007886534,0.08678862,-0.052059676,-0.0036276197,0.0789146,0.03814497,-0.020551661,0.020287054,-0.05544203,0.028440049,-0.009942226,0.0026568545,0.031251807,0.06524775,-0.059109904,0.06510784,-0.0064305477,0.028901426,0.05005107,0.02299763,0.00033052318,0.057186093,-0.08276971,0.0579619,0.063518144,-0.04693584,-0.014141993,0.028528254,0.07395297,-0.011337069,0.006167524,-0.05769032,-0.05790962,0.07631254,-0.0041779205,-0.054169323,-0.013886562,-0.037449006,-0.04043586,-0.015576946,0.057916723,0.07586636,0.00088035746,-0.08301399,0.0410194,-0.050750114,-0.06918644,0.07116616,0.077555604,0.018912993,-0.03865555,-0.069774956,-0.0851518,-0.023710547,-0.017714955,0.060897116,-0.016631383,0.0070445733,-0.000779081,0.052216936,0.03230606,0.0597858,0.0021218152,0.010739433,0.020073675,0.039059266,-0.025018517,-0.08462677,0.08459837,-0.06519636,0.032289647,0.05862568,0.02684722,-0.037483532,0.07582354,0.058058858,0.089107335,-0.06497008,-5.403867e-05,-0.036865253,0.062102474,0.07204803,0.0024057622,-0.033100933,0.02650456,0.019187862,0.027779901,-0.09037367,0.027706675,-0.052727275,0.010220544,-0.031873718,0.078022026,0.020834956,0.03394312,-0.052985646,0.017479373,-0.044510033,-0.05083522,-0.003540889,-0.008666785,-0.07729179,-0.05870626,-0.06653458,-0.042848296,-0.07946497,0.041562095,-0.046355203,0.06826016,0.08054971,0.07029683,0.014422208,0.079017304,-0.06856506,0.08991097,0.040290017,0.059462953,0.01016989,-0.007605569,0.052420877,-0.051279,-0.048488874,0.011996314,-0.062228147,-0.056478232,-0.07352141,0.00028435927,0.005968876,-0.0012026588,0.07747906,0.011354141,-0.056036834,-0.0797823,-0.039056066,-0.04951767,-0.012521299,0.011673926,-0.0133905485,-0.0024420447,0.0448006,0.0035119823,-0.08979409,-0.08973181,0.0630156,-0.042856235,-0.041139796,-0.07422882,-0.052681003,0.050597575,-0.07322316,-0.050331805,0.011774487,-0.047161628,-0.060478885,0.053295765,-0.07103895,0.028681628,-0.08009491,0.040860754,0.0033985574,0.058515638,0.035231262,-0.0030962902,0.08014355,0.041241463,0.03601465,-0.07393571,0.045924857,0.016481167,-0.031175293,0.053280354,-0.035277013,-0.0074800286,0.08306849,0.01693658,0.06526291,0.07270196,-0.040002525,0.017682513,0.085065514,-0.021063954,0.030255854,-0.025204897,-0.04010905,-0.0043650274,0.05328904,-0.058852628,-0.087042235,-0.071692325,0.060527023,-0.07039911,0.0032130666,0.061289098,-0.08377809,0.038653616,-0.04283019,0.018036075,-0.054389566,-0.03540558,0.06979825,0.066489145,-0.072896935,0.05919124,0.069169894,0.015076291,-0.025337348,0.078930825,0.011549503,0.07555399,-0.07312783,-0.044147696,0.0244338,-0.04149221,0.06306905,0.005540374,-0.02981478,-0.009958822,0.016454397,0.017853577,-0.025418231,-0.07311476,-0.020352362,-0.012031707,0.051083162,-0.03483015,-0.065802574,-0.03687598,0.07226928,-0.03398115,0.06745561,0.03327558,-0.005264616,-0.06581348,-0.041731186,0.020010786,0.0180898,-0.08021938,0.034244996,-0.0734651,0.05481564,0.06995577,-0.06679937,0.07218026,0.045780897,-0.08509097,-0.00995316,0.07893537,-0.03529864,0.08792663,0.033863883,0.05695684,-0.016292855,0.06651703,0.07961057,0.03212894,-0.05778706,0.04821701,-0.042299557,-0.062016264,-0.039277002,-0.046441965,-0.062100936,0.07470541,0.004573611,0.055990033,0.01550309,0.030949777,-0.061005484,0.023418171,0.04549886,0.019452827,1.560852e-05,0.0011277075,-0.07211488,-0.0822784,-0.064465515,0.03512449,0.007999621,0.023893412,0.045356214,0.035439227,0.07541069,-0.07440788,-0.021435652,-0.08948634,-0.06372583,-0.05553746,-0.007145687,0.04724066,0.01969393,0.078485735,-0.053839233,0.010190802,-0.04735279,0.06171798,0.072738655,-0.0526269,0.07523765,0.004639744,-0.04803717,0.05932879,0.06984401,-0.051505797,-0.07737549,0.05612771,0.07219122,0.046971627,0.04185704,0.08897482,0.06736723,-0.05665139,-0.08652738,0.0015441589,0.014773004,-0.0048013935,0.06587701,-0.069755696,-0.08137997,-0.083686784,-0.05625054,-0.07028186,-0.019595278,0.055185363,0.05602666,-0.034242373,-0.066899605,0.024285719,0.047055796,-0.07147234,0.016110444,0.051576506,0.008495494,0.03272238,0.08131912,0.07080682,0.00060148665,-0.057665598,-0.036301773,0.011784032,0.014770531,0.048959244,0.0046559814,0.03306731,-0.005592634,-0.071693525,0.01211461,-0.08822641,0.060808867,0.021836082,0.02175242,0.06163397,-0.07827323,0.07051485,-0.07263523,-0.09000239,0.08075691,0.0033480658,0.06460014,-0.00707066,0.07190074,-0.01989249,0.051656295,0.007360627,-0.04925727,-0.055556744,-0.018867068,0.018283164,0.08287657,0.008151249,0.07894663,0.018703617,0.045644857,-0.041540783,-0.041558832,-0.0025586803,-0.0891976,0.055430707,-0.045093603,-0.06125657,-0.05398918,-0.087407194,0.015434386,0.019858247,0.019373102,0.00094515615,0.021509485,0.07329083,0.0105066495,0.024214283,-0.030756855,0.025521504,-0.067654036,-0.06595717,-0.026116202,-0.021611987,-0.018020846,0.034726474,0.035350025,-0.030988641,-0.04791432,0.07516559,0.061257653,0.01827325,0.037244253,0.01921386,0.004697362,-0.02246051,-0.0033902705,-0.07806712,-0.030180935,0.090346135,-0.062454596,0.047071632,-0.009179719,-0.034682903,0.085721485,-0.036322884,0.019913055,-0.042598862,0.06837467,-0.017472964,-0.032680437,0.04048666,-0.07629732,0.062331613,-0.05232216,-0.034053672,0.051688783,-0.068541266,-0.06293491,0.016541464,-0.080004476,0.066423826,0.021170665,-0.07916764,0.067974575,-0.03632465,0.02573524,-0.080074914,0.068176195,0.08414386,-0.013001887,0.088482365,-0.03232916,-0.029204996,-0.041552193,0.04977182,0.03251908,0.0604919,0.08593452,0.049601104,0.0354905,0.08206099,-0.030576007,0.049922686,0.026882559,-0.026529409,-0.039696448,0.06461023,-0.011252854,-0.024948457,-0.064998195,0.066381216,-0.017656827,0.008164373,0.056156877,0.006497874,0.022460293,0.07300308,0.08502063,0.033255834,-0.08203401,0.0738864,0.026167288,0.06602988,-0.0115124285,-0.021944214,-0.021926695,0.018458242,0.0863688,0.051589392,-0.05641284,-0.004558599,-0.012812622,-0.07284109,0.06948484,-0.044305626,0.021338658,0.0623075,0.06500481,-0.051117126,-0.043108467,0.019627362,0.07217769,-0.048141807,0.04302011,-0.049455475,-0.043130204,-0.058762275,0.075358294,-0.008405063,0.037287228,-0.061708964,-0.0332668,0.003632067,-0.01172483,0.018777972,0.02132331,0.014799394,-0.07647402,-0.06358999,-0.047535345,-0.010975317,0.073231906,-0.077678084,0.0047295555,0.04328628,-0.033029735,-0.08996175,-0.07837005,-0.036287826,-0.08388815,-0.005525395,-0.06454746,-0.017883623,0.028274342,-0.025243621,-0.046490483,0.048043918,0.046368424,-0.045969058,-0.06415499,-0.03990681,0.017994944,0.00019600138,0.079286575,-0.017609622,0.028765386,0.047372904,-0.04491927,-0.0842882,0.015793491,-0.06760319,0.07620338,0.034830462,-0.0028194478,-0.07611948,-0.04035113,-0.001449282,0.028273256,0.019401338,-0.06686386,-0.04374668,-0.08018273,-0.05394229,0.0015725123,0.06897299,0.06522948,-0.033359554,-0.0442261,-0.06513904,-0.0091144545,0.050237462,-0.052471813,-0.033541843,0.08929564,0.024725176,-0.037969835,-0.043609902,0.04952689,-0.057565734,-0.029095346,-0.07535712,-0.08258291,0.07781065,-0.061635587,-0.053798255,0.0073439013,0.046160124,0.059909288,0.08660456,0.036004845,0.056300618,-0.05274756,-0.022505004,-0.06112568,-0.08183942,0.08622201,-0.057131905,0.055755403,0.05226952,0.0883953,0.05377052,0.040923525,0.02580723,-0.077955514,-0.045061115,0.09003782,0.08529048,0.02707369,-0.0040661767,0.015829317,-0.019386314,-0.065060526,0.018192496,0.008815843,-0.072713524,0.0031934774,-0.045452457,0.036393255,-0.04900172,0.025317693,0.07145747,0.07446821,0.022753047,-0.054890763,0.042384446,0.053980783,-0.035152383,-0.07038409,-0.037352774,0.052236166,0.06038056,-0.06866029,0.017767454,-0.054580037,-0.020775972,-0.016096583,-0.038145933,0.052403107,-0.03468964,0.06555593,0.014965805,0.042348552,-0.05817712,0.046609256,-0.066900484,-0.08513539,0.041441914,-0.008499669,0.07934203,0.032995254,-0.06077727,0.05662975,0.07686437,0.04119144,-0.028416554,0.013008699,-0.07387156,-0.04198154,0.08185704,0.02631422,-0.045976445,-0.07751327,-0.018294781,-0.012647674,0.026290411,0.034330286,0.041393016,-0.022363551,-0.012282278,0.025158409,0.035976492,0.047674302,-0.08443825,-0.00069378194,0.034215268,0.031053407,0.022452233,-0.08176807,0.02789977,0.065467484,-0.07512544,0.07603461,0.035640568,-0.08779319,-0.0533277,0.05094848,-0.020345658,-0.03023968,0.017540332,0.034516003,0.0094546415,-0.07531172,0.05473893,0.002578302,-0.06371791,-0.035567123,-0.037152067,0.004727549,0.039229788,0.08825422,0.09016263,0.030403597,-0.021866366,-0.0025820115,0.07551256,-0.05045888,0.05446953,-0.027917938,0.034961827,0.05640851,0.008988219,-0.06399868,0.020928098,-0.07271517,0.038022637,-0.07105585,-0.034175936,-0.026594544,0.025678469,0.021690626,-0.02094325,-0.03744008,-0.034308504,0.081733674,0.08451895,0.049927212,-0.03101693,0.037918378,-0.00015786408,0.015822181,-0.050324854,-0.08092992,-0.02794908,0.027779836,0.027174868,-0.077785775,-0.016792426,-0.023408659,-0.008730717,0.065613374,-0.032517333,-0.043639895,-0.047284253,0.037928976,0.052282624,-0.08549209,0.04766057,0.038898528,0.018916529,-0.014476974,-0.0402068,0.057546295,0.014604434,-0.071767405,-0.021457486,0.07142849,0.06878958,0.075124,0.012573081,0.08918537,0.0789161,-0.0020078588,0.05653722,0.08555191,0.0009023547,0.043724824,0.08456584,0.03523583,0.067603186,-0.027127532,0.06840911,0.04322176,0.06562853,0.07761588,0.010675252,0.09003205,0.004743873,0.041619636,0.00091040303,-0.026070666,-0.0535612,0.03733776,-0.02886535,-0.04475797,-0.027462602,-0.06345904,0.02244526,-0.025698751,-0.0010313446,0.051743474,-0.0587817,0.03739394,-0.06016628,-0.071689025,0.004767899,0.06299352,0.0031434845,0.07066714,-0.024541346,0.089443676,-0.028108072,0.06485881,-0.021192856,-0.058897946,-0.07211713,-0.08924413,-0.07274753,0.027761733,-0.006585939,-0.088651076,0.019993594,-0.074750386,0.008641914,-0.07248443,0.07906622,0.020820422,0.056978412,0.069568925,-0.056901574,0.07240011,-0.007853169,0.03125647,-0.07434455,0.068426214,0.042305697,-0.076007076,-0.08361138,-0.07379185,-0.029334702,0.045013152,0.020495864,0.0041483846,-0.004780622,-0.010464304,0.08184582,-0.0294178,-0.004934473,-0.07657901,0.008380485,0.015077397,0.052663226,-0.023524774,0.014487289,-0.017805373,0.026892994,0.06344481,-0.07256408,-0.03969404,-0.086683095,-0.07242282,0.01341771,-0.07510394,0.01273664,1.6465418e-05,-0.024832483,-0.04015235,0.039751105,-0.07174443,0.034401387,0.07033079,0.049305182,0.05356186,0.011391931,0.057878997,0.02073805,0.06331633,0.06391748,0.019113008,-0.0762433,0.016712029,0.007035321,-0.089459494,0.08801401,0.048401568,0.06638269,0.01452803,0.057863206,0.036431536,-0.039609935,0.028207678,-0.07013358,0.04115803,-0.016096495,0.011971789,0.059787013,0.06977221,0.07678687,-0.050522678,-0.03582625,-0.08592962,-0.05275975,0.026573045,-0.07030954,-0.046236157,0.045099642,-0.03281975,0.020145513,-0.054253463,-0.010087986,-0.058428682,0.069431275,-0.07744317,0.05897756,-0.03252232,0.023509914,0.027145093,-0.03934664,-0.02053885,-0.05041049,0.08240353,-0.08214271,0.013506881,-0.059658054,-0.03691018,0.053149488,-0.079489954,-0.06501628,-0.020508176,0.036944643,0.047918484,-0.0808524,-0.0840344,-0.019435352,0.04924278,0.002621971,0.08577472,0.005729889,0.034763593,0.022716092,-0.019315073,-0.024375206,0.018010866,-0.05399671,0.057260156,-0.032519836,-0.06382337,0.0025341555,0.017494245,0.055247646,-0.0073772115,0.07042352,0.056450486,0.034695875,-0.03843536,-0.065321766,-0.06661379,-0.009859758,-0.08395618,0.046610545,-0.012517437,-0.02041498,0.08610799,-0.057467125,-0.08776,0.017761271,0.06856356,0.03469825,-0.034483723,0.01663737,-0.06108508,-0.020548677,0.06053313,-0.012166479,0.0886163,0.03596275,-0.058030125,-0.072915435,0.042313874,0.010791171,0.07529897,0.034481607,-0.06619153,-0.05236366,0.057716675,0.031645913,0.06328964,-0.0010576589,0.025227925,0.0029805875,0.06112441,0.04878011,-0.09001589,0.008781491,0.08902515,0.043498725,0.07763442,-0.043048907,-0.047720898,0.043755587,-0.06322093,-0.061048277,0.04309608,-0.07072278,0.04553553,-0.042053554,0.013868361,0.056918755,-0.013515537,0.08870828,-0.07094036,0.030707069,-0.019279094,0.01451754,-0.01862117,0.07780248,-0.08396613,-0.013181379,0.035910737,0.048227597,-0.061768927,-0.016826766,-0.027463479,0.08292317,-0.0064975377,-0.06804008,-0.018007796,-0.079631396,0.08395459,-0.03207547,0.051574696,-0.07797401,-0.054180905,0.040359233,0.04992837,0.06936015,0.083470434,-0.07502246,-0.0019516617,-0.062112898,-0.034734827,-0.038946927,0.029350994,-0.07832235,-0.03749745,0.05342671,-0.040667072,-0.055976786,0.07864218,-0.021040438,-0.037931513,-0.035354774,0.023394201,-0.07404825,0.00029506505,0.061041463,0.05108622,-0.07390766,0.071344994,-0.0058174767,0.08382498,-0.026013363,-0.08553963,-0.056255225,0.009105104,0.002701055,-0.021278687,-0.06575243,0.021319091,-0.002544753,-0.07296804,-0.0038497078,0.0810051,-0.063986495,0.06661946,-0.048132166,-0.021153158,-0.08194828,0.008223207,-0.073955245,0.02443741,0.037647385,-0.0029221885,-0.08886177,0.003935061,-0.011885004,0.0074745724,-0.028762111,-0.0402001,-0.019522464,0.02452704,0.0064415354,0.08728914,0.059894167,0.06348215,0.026013015,0.06581038,-0.06777659,-0.023257563,-0.088228196,-0.05023307,-0.05119237,-0.07506591,0.009724477,0.07315664,0.008720651,-0.03515102,0.05004785,-0.028898314,-0.04230126,-0.03561524,0.00270432,-0.021689335,0.010725809,-0.074468926,0.090469874,-0.045701414,-0.025441574,0.00228097,0.08434042,-0.031241838,-0.0052664387,0.04323751,-0.006398181,-0.012425381,0.0039379136,0.06849517,-0.029281693,0.0765478,0.026533607,0.074349426,0.08821148,0.06441527,0.005254225,-0.02733949,0.015021525,0.039088573,0.048755433,-0.0615798,0.06429514,-0.0621921,-0.01820637,-0.0817014,0.0048753363,0.019372322,-0.034632877,-0.006508124,0.0021712873,-0.040843323,-0.008787337,-0.05541513,-0.082193546,0.023664795,-0.03040735,0.0025566302,-0.025072718,0.08731903,0.032124765,0.048847675,-0.06374907,-0.089256875,0.022860615,-0.032826986,-0.06200455,-0.06688445,-0.017012138,0.08251035,-0.025046067,0.03434635,0.021872982,-0.08712283,0.047499396,0.085585475,0.015192308,0.047035903,0.07549871,0.01145058,-0.06619566,-0.062488046,-0.09021431,0.060435846,0.0830717,-0.058277313,0.07703215,0.035947748,-0.058544047,0.0209271,0.08937771,-0.005047247,0.086461715,0.07423204,0.08199005,0.059022162,-0.08103288,0.000981341,-0.072172575,-0.045455582,-0.01859017,0.0006225728,-0.011339227,0.051661514,0.05618834,0.031173231,-0.003275696,-0.0569812,0.041760962,-0.054738324,0.03659582,0.066188976,0.0100202365,-0.044015583,0.037816387,0.044687584,-0.054125145,0.084327035,-0.03525098,-0.06996915,-0.01682579,0.036246393,-0.06696861,0.0060347486,0.05468913,0.060782954,-0.015734062,0.04631381,0.0049611777,0.001108628,-0.060666904,-0.007556715,-0.062144995,0.08745423,-0.04241833,-0.0070299734,0.010266382,-0.087489195,-0.041752674,0.048380602,-0.058046993,-0.017345514,0.04813362,0.048918515,0.06761309,-0.031216802,-0.00011315364,0.08471405,-0.0878772,-0.007376832,0.032621723,0.030551331,0.0015056636,-0.028514024,0.037779726,-0.06276973,0.08082167,-0.00979855,0.041613966,0.08403081,0.062031537,0.039181564,-0.07004139,-0.06507148,-0.037041947,0.08326728,0.032397192,0.083855145,0.08981838,0.038815755,-0.015089676,-0.0810123,-0.039980896,-0.05921341,-0.023836575,-0.027051182,0.002949956,0.08935943,-0.033472642,-0.079372756,0.05051142,0.029699577,-0.0141291935,0.0025576171,0.07165333,0.08613224,0.057818778,-0.019763306,0.0252212,0.083258726,0.07272516,-0.06876075,-0.013424337,-0.02842817,-0.06723943,0.03189019,0.01649927,-0.0034014536,0.088141695,0.05975138,-0.06142081,0.08987853,-0.08605164,0.072003596,0.035214536,0.004374974,-0.0018231923,-0.07962826,-0.07353521,-0.036412314,-0.03769625,0.00081946363,0.024391703,-0.009196759,-0.032684557,-0.06546327,0.06858146,0.0019511085,-0.0046740416,-0.03422647,0.0039440966,0.05567108,-0.055343106,0.011657385,0.044701666,-0.060281537,-0.07091136,-0.090045676,0.014676782,0.04855661,0.08381227,0.041146643
-0.062009517,-0.08614619,-0.036601733,-0.029714914,-0.026999747,-0.018877665,0.0584566,-0.08495206,0.051059388,0.028499598,-0.0814412,0.08228961,-0.0029262234,-0.061989833,0.06724626,0.056349136,-0.08483472,0.06696638,-0.053908825,0.076263405,-0.024393136,-0.015830738,-0.005742688,0.087931626,-0.03610341,0.044245612,0.055230193,0.045843396,-0.01655935,-0.013541905,-0.05198594,0.09065263,-0.08894013,0.075694636,0.024991954,0.08679946,0.0775711,-0.004152311,-0.07804731,0.07973047,-0.05591073,-0.067047894,-0.039820928,-0.028342936,-0.058972385,-0.0625283,-0.03272378,0.004858708,-0.019601395,0.00521125,-0.011753194,-0.043414727,-0.025886172,-0.022292774,-0.081126764,-0.045542356,0.07007692,0.04517814,-0.07885727,0.0646996,0.07488989,0.040043328,0.026549356,-0.07717255,0.03032971,0.07998336,0.08331231,-0.045273907,0.057536468,-0.02118277,-0.03404506,-0.07747608,-0.058325604,0.07256751,-0.021593353,0.010518678,-0.004880586,-0.01942059,0.07510805,-0.012869242,-0.059429266,0.017370895,0.06452054,-0.013670396,0.0036667334,0.033479918,0.014232964,0.04547981,0.0889565,0.04069917,-0.04991859,0.026085494,0.0070470683,-0.0070066964,0.007389859,0.007960845,-0.04309443,-0.07968746,-0.040771376,-0.035184458,0.02218715,-0.053652722,0.015731676,0.06614392,-0.08954963,-0.0052027786,-0.0764784,0.01435063,-0.029979153,-0.009980494,-0.031654894,0.057390884,-0.047064073,0.016462835,0.032950044,0.034056902,0.034590565,0.08035481,0.03207997,0.030209929,-0.03910016,-0.025889233,0.028749334,-0.086197495,0.05861655,-0.035490837,-0.075213365,0.022454642,0.02798149,0.040809132,-0.015299355,-0.077748895,-0.024751328,0.00088728854,0.042714175,-0.026571743,0.0891956,0.01795751,-0.010442881,0.067756966,-0.024286132,0.045337416,0.060537905,-0.0042856075,-0.086392164,0.047136247,-0.042450655,0.071781844,-0.045265783,0.034967143,0.020801896,-0.012774636,0.06420748,0.080768816,0.066430785,-0.011369153,-0.07242129,-0.08917706,-0.050636265,0.009292851,0.06527527,0.06151048,-0.055085495,-0.029050115,0.028491864,-0.033399653,-0.019734865,-0.069745734,0.08024986,-0.07508069,-0.023151027,0.04975608,-0.01936948,-0.026853044,0.055790376,-0.079125755,-0.07342197,0.008240203,-0.012328486,0.07306339,-0.001530557,-0.08073392,-0.08796558,0.009686785,0.08532531,0.0297137,0.03976306,-0.072957136,-0.063655704,-0.0701011,-0.011110002,-0.034670983,-0.010939849,-0.09072385,0.0650651,-0.07520974,0.049768187,-0.05259452,0.090226404,0.039764468,0.076160915,-0.06434856,-0.019686565,-0.021934234,-0.015667614,-0.062335994,0.05081422,0.06076187,0.09088661,0.039209288,0.058481157,0.039813105,0.060527153,0.08120775,0.057991914,-0.036758382,0.07207483,-0.010141222,-0.05170512,0.07000786,0.08751744,-0.08937961,0.07225177,0.08022007,0.025902323,-0.03698932,-0.070049524,-0.06146618,0.090541385,-0.060728513,0.025948184,0.03706386,-0.0053227767,-0.06884284,-0.034609016,-0.08063385,-0.051413827,0.0025726724,0.021858947,-0.08570515,-0.048992056,0.009045577,0.049070064,0.030160684,-0.070053786,0.030721484,0.07605905,0.013777139,-0.08873085,0.08816001,0.009306041,0.049192384,-0.056615196,0.061566558,-0.02266599,-0.074684605,-0.037537623,-0.038054053,0.048540104,0.057328373,0.027637083,-0.048658397,-0.0047054645,-0.077314265,-0.08749218,0.08919403,-0.044547107,0.0039905533,0.082795076,0.013841754,0.051497564,0.028248971,-0.06619169,0.08639566,-0.047203723,-0.084121674,0.02102303,0.032233894,-0.013939917,-0.04364444,0.021804355,-0.07520704,-0.00038496318,-0.07243956,0.06958204,-0.007270284,-0.033136368,0.08140804,0.058908965,-0.022808453,0.002354739,-0.0703833,-0.03928529,0.0463239,0.007110533,-0.05991469,0.033632133,0.0032617687,-0.02658346,-0.038043812,-0.059939593,0.028072223,-0.054217655,-0.041774943,-0.03830896,-0.06972541,0.065107964,-0.01386874,-0.07843794,0.012034734,0.010502398,0.06532071,-0.017375559,-0.04816078,0.090976045,-0.031453956,-0.013590368,0.028863994,-0.009254519,0.03211339,0.06628042,-0.020334812,-0.04073609,0.07020166,0.087151475,-0.0465318,-0.025621956,0.027171506,0.025132366,0.080744796,-0.038189832,-0.01412083,-0.06956614,0.08470227,-0.06357562,0.06816361,-0.06951238,0.07228801,0.06275376,-0.018289823,-0.07412468,-0.07105087,0.017349115,0.058244254,0.0003050983,-0.07632291,0.029472098,-0.0057785804,-0.032886557,-0.08250545,0.08163865,0.0026948724,0.04855148,-0.0124345785,0.0007906437,-0.0681053,-0.04316931,-0.059826277,-0.06329154,-0.06318232,0.01847756,0.0048797615,-0.08046458,-0.054278865,0.060252525,0.02485523,-0.07157835,0.017386602,-0.08828022,-0.006436318,-0.047756303,-0.018341856,0.04239862,0.000100267665,-0.0533354,0.0282934,-0.077249944,-0.058802918,-0.0056092297,-0.033772565,-0.06030526,-0.030669756,-0.08677114,-0.029224433,0.037567105,-0.07739439,0.088840455,-0.041850816,-0.07089627,-0.07191092,-0.08887583,-0.038348824,-0.014341736,-0.005949135,0.036462795,-0.058373645,-0.006518667,0.050112907,0.030054744,0.02975651,0.00420968,0.044636477,0.0146165285,-0.08194926,0.06796456,-0.044172462,0.07222285,0.06436775,0.033291142,0.008112623,0.03193194,-0.07587786,-0.0018812335,-0.05549893,-0.026484612,0.0028678244,0.084462285,-0.004005001,-0.0357035,0.02701387,-0.047978207,0.010600778,-0.010316082,-0.083465375,-0.04716895,-0.04548631,0.058059856,0.061672498,-0.012342966,-0.017886247,-0.08632794,-0.05318641,0.02840804,0.07560764,-0.049833365,0.038203973,0.037721902,0.0081642,0.06913128,0.032725632,0.017098196,-0.060086794,0.0235711,0.007540391,-0.033302724,0.04123387,-0.0065608067,-0.00094195636,0.028847812,0.02211734,-0.07118472,0.015427987,0.07965566,-0.07558618,-0.07320007,0.031675935,0.055576563,-0.08406875,-0.03583059,0.058388397,-0.070645854,0.033724472,0.028329542,0.052386872,0.062105883,0.032550145,-0.08901961,-0.004613647,-0.042456858,0.050927684,0.055086233,0.0013737776,0.038376678,-0.0687946,-0.058107767,-0.050923597,0.06375111,-0.015996229,-0.07453767,0.009580237,0.016307846,-0.061919924,0.020835487,-0.032411814,0.07537866,-0.030327085,-0.08339557,0.034440827,0.080858156,0.0618439,-0.0018540081,-0.012018778,0.07842759,-0.028176514,0.028851878,0.036524232,-0.06897272,0.0537636,-0.054749288,0.015247474,-0.02496656,0.055030707,0.04651657,-0.033305135,0.002392974,-0.007356982,-0.042067956,0.07003137,0.009458341,0.07452349,0.08419756,-0.03871285,-0.08317847,-0.059225563,0.00793107,0.05113639,0.08412337,0.03655851,-0.02234651,0.08314563,0.029315937,0.06193386,-0.039991666,0.087252736,-0.073255375,-0.00020406053,0.08550159,-0.016683698,-0.044558357,0.08510924,-0.058025613,0.08598268,-0.057541598,-0.07703278,0.020743681,0.07983897,-0.052688304,0.077587985,0.061052486,-0.026944775,-0.015472524,-0.057890918,0.02652111,0.06698993,0.0843526,-0.060924668,-0.06965932,0.06737401,-0.0870307,0.0002301362,-0.02794062,-0.0744259,0.08387927,-0.035146113,-0.07591195,-0.07016751,0.0098818205,-0.082625344,0.03963585,-0.07598654,-0.049104188,0.068867885,0.044407662,0.07592632,0.07576077,0.047244325,0.056305293,0.08923799,0.090212435,0.07427228,0.051657043,-0.080335535,0.010671141,0.08476018,-0.026188733,0.059170492,0.07417289,-0.07796555,-0.0019666736,0.080284946,0.053307317,-0.03417305,-0.0056702425,0.04471541,0.04852265,-0.033564392,-0.03617196,0.08376381,0.08602794,-0.055740003,-0.075005636,-0.0051191286,0.058790106,0.013600553,-0.013280921,0.043027192,0.081663325,-0.011403581,-0.06574976,-0.06391727,-0.0712814,-0.07983023,0.03354167,-0.02080786,-0.084705666,0.04272971,-0.03939304,-0.045188047,-0.083527595,-0.08514168,0.08461337,-0.069079384,-0.013598796,0.00444153,-0.08370714,0.053141948,0.06374571,-0.006930791,0.0069415723,0.06426119,-0.060528,-0.051357023,-0.04715231,-0.042704806,-0.0008135955,0.024458801,0.064779714,0.07784149,-0.0249308,-0.08513839,0.0168847,0.066540174,-0.030892788,-0.064772986,0.031117283,0.056095235,-0.0018611018,0.03152484,0.0151434215,0.004586942,-0.08340403,0.015467437,-0.052352574,0.07156416,0.012955604,-0.06244327,-0.023982216,-0.014523821,0.029095704,-0.019100187,0.08215413,-0.06484908,-0.06466147,-0.08014904,-0.012991767,0.084097356,-0.0042910744,-0.059870068,0.02441946,0.027586624,-0.030001996,-0.031284608,0.012331632,-0.05470932,0.0081566945,0.050005242,-0.060172625,-0.04361268,-0.002503546,-0.06049109,-0.055220768,-0.06018254,-0.06500663,0.08458612,-0.004748841,0.07276199,0.057812974,-0.035952117,-0.03454322,-0.013908038,-0.055068336,0.08734511,-0.03745084,0.0260806,-0.019497363,0.05244861,0.07057838,0.0050657187,-0.08575897,-0.061385024,0.05518828,-0.08844382,0.027493494,-0.049433824,0.029010426,0.06668947,-0.045114428,0.03180155,-0.022191878,0.05730352,-0.03895622,-0.018001353,-0.042271238,-0.005537033,-0.062018447,-0.08395735,0.017339505,-0.0039256895,0.041028023,-0.008424935,0.0901925,-0.009967912,0.08672312,0.04042778,-0.052299596,0.00058829697,0.013876788,-0.009193896,0.06972759,0.082396,0.032739464,-0.045598228,-0.030917259,0.04478386,0.063374564,-0.012411919,-0.011091129,0.090211034,-0.05649395,0.05811706,-0.032139387,0.0065790294,0.022710713,0.06824239,-0.0565193,-0.028035745,-0.0071245357,-0.048401047,0.040846977,0.016782945,-0.07289463,-0.04269002,0.010525393,-0.01401605,-0.0023482959,-0.01501659,0.0681439,0.034490317,0.06499148,0.04669297,0.017384443,-0.016423559,0.07531186,0.0025172238,0.06145555,0.0006533994,0.030248782,0.02507748,0.030162463,-0.00056381576,-0.009339839,-0.03829869,-0.047213748,-0.024207417,-0.086053334,0.026699737,0.05433313,0.0773885,-0.004066817,0.06530235,-0.053429995,0.058522157,-0.046118557,-0.0677507,0.07394882,0.06083901,0.019168023,0.012564068,0.046286598,-0.068075135,0.0006342982,-0.03872079,0.079849154,-0.07276382,0.00062720437,0.0145007605,0.016403167,-0.019363666,0.011070639,-0.026040142,-0.075970165,0.035146777,-0.027457058,-0.06807503,-0.021338116,0.0257916,0.032159258,0.026754046,-0.05926166,-0.07943008,-0.0067737508,0.07837129,-0.035824038,-0.07994095,0.07544775,-0.012957589,0.026570063,0.04581972,0.071345136,-0.022644103,0.004910111,-0.058315594,0.07515565,0.07382979,0.08596709,-0.08348874,0.08373759,0.08021291,0.07501137,-0.047371134,0.05866166,-0.028723627,0.007100662,-0.06125964,0.059222806,0.06100926,0.00744521,-0.077145696,0.04668051,0.05763793,0.042370323,0.007821453,0.03672133,-0.0125602605,-0.050936352,-0.082313046,-0.021663249,-0.001357182,-0.029525595,0.07033148,0.04327872,0.019644912,-0.083481245,-0.032440785,-0.059970465,-0.017379453,0.06516041,-0.0123514375,-0.076016374,-0.050685063,-0.023279235,0.07386437,0.09007315,0.040377997,0.017018223,-0.06266987,0.023722338,-0.052960157,-0.016663024,-0.06353701,0.002847324,-0.06145349,0.05509837,-0.04570677,-0.08427518,0.0144712785,-0.08926115,0.042148214,0.075895526,-0.0015783588,-0.028011752,0.063224435,0.03531527,0.04585698,0.05692101,-0.033964988,-0.08087651,0.02280485,-0.068648726,-0.08786207,-0.024483336,-0.04088147,0.04894499,-0.06060677,-0.017197162,-0.038561475,0.03262003,0.031003762,-0.06150317,-0.028875947,0.08279429,0.06448049,0.04265411,-0.081174426,-0.023872392,0.040640097,-0.047780786,-0.0366094,-0.08192555,-0.004263621,0.02639736,0.042495374,-0.08088233,0.018297536,0.075491466,-0.084697336,0.07400173,0.0029965974,-0.019075738,0.075810336,-0.03763823,-0.06878739,-0.024554806,-0.067006975,0.059665658,0.04421857,-0.0036270341,-0.0010272771,-0.058655564,-0.07870203,0.02590777,0.0019799175,0.053646628,-0.035125125,-0.033223633,-0.05503816,0.06858467,0.054436445,0.024293236,-0.05237355,0.030983575,0.06317559,-0.030996103,-0.0066235554,0.06356232,0.06261501,0.0848465,-0.06983223,-0.038084704,0.013157777,0.067081444,-0.047750153,-0.033204455,-0.045422,0.057260677,-0.026663106,-0.030432668,-0.02526413,0.0022206944,-0.056678977,-0.054696627,-0.04660199,-0.031880975,0.06477227,0.014085231,-0.03949435,0.02139939,0.028316135,-0.015956866,-0.040387485,0.05128578,-0.07611965,-0.043191597,-0.0004040535,0.0074516204,0.059806515,0.030855041,-0.016624691,0.055980843,0.0007682885,-0.047863685,-0.08431827,0.046915535,0.03899607,0.00038894394,-0.013758331,0.0060449988,0.07031029,0.08737185,-0.007240141,-0.030194277,-0.046710424,0.08113508,-0.081054896,0.024399903,-0.017641641,-0.06510611,0.08699957,-0.06834959,0.021230951,0.018820947,-0.021735847,-0.00014655088,0.025842959,0.0014825058,-0.02714619,-0.048679646,-0.033032227,-0.089402914,-0.051788844,0.0649175,0.032163966,-0.042846885,-0.03640522,-0.0184235,-0.0123261325,-0.036430493,0.08863024,0.085077055,0.089301966,0.03233901,0.028339693,0.024224501,-0.06811456,0.085783616,0.067953534,-0.043719098,-0.069813594,-0.004539726,0.087317504,-0.019732803,0.016646406,-0.015407161,-0.0010872164,0.008192564,-0.026481694,-0.07582892,0.033548884,0.050492123,0.014730181,0.0019653179,-0.03475921,-0.06711648,0.086400464,-0.044234917,0.003565446,-0.07295902,0.08073218,-0.07616368,-0.08806565,-0.025806027,-0.00026638614,-0.016828924,-0.053656477,-0.03709438,0.014747048,0.0012704621,0.038550995,-0.07244123,-0.09059241,-0.016329788,-0.025244543,0.012913659,0.061455313,-0.07841446,-0.0025510548,-0.06565747,0.011044574,-0.0045444984,-0.09081503,-0.077381514,-0.0010473328,0.036001895,-0.011743866,0.014141233,-0.052496478,0.016631491,-0.022662552,0.050188184,-0.08255699,0.05538068,0.06667642,-0.07440523,0.063819066,0.06325651,-0.08277577,0.05030406,0.028321601,-0.043086622,0.07032382,0.05193621,-0.07345224,0.0800337,-0.0020347154,-0.027429366,0.08800106,0.08385909,0.044776205,-0.03331022,-0.011575275,0.048263934,0.0076420577,0.0771399,-0.08300849,0.054338098,0.08277466,0.08479414,0.022998737,-0.088744365,-0.083578154,-0.083743475,-0.037088525,-0.022861363,-0.036595743,-0.025663868,-0.026359994,0.061450183,0.01803603,0.07897835,-0.034966893,0.01974159,-0.06210013,0.084478155,0.026868187,0.05043011,0.06199035,-0.05978417,-0.06538932,-0.07529142,0.015999123,0.015090446,-0.040576905,0.034769647,-0.029103829,0.03721002,-0.044777278,-0.05764319,-0.04899634,-0.049580656,-0.045553733,-0.059345223,-0.012563004,-0.03177579,0.036126167,-0.0154280625,0.07696637,-0.056713946,0.0436534,-0.07051842,-0.053565376,0.073097505,-0.008902172,0.028283898,-0.066689245,0.015346832,-0.06959444,-0.08135512,0.0007661191,0.002715557,-0.055569556,0.072434545,-0.013410399,-0.08700576,-0.03971289,0.008524259,-0.02345695,0.062639214,-0.0041722693,0.03857411,0.011117736,-0.010731352,0.08666151,-0.016496211,0.0006530089,0.033812482,-0.068396464,-0.0011633501,-0.014304521,0.04689766,-0.044292815,-0.008505028,0.022753611,0.0030471976,0.030816427,-0.023766322,-0.0001969125,-0.018645024,0.009456301,0.04127794,0.0577777,-0.08189829,0.042971723,0.066501185,0.044952475,-0.015501051,0.07881903,0.011052851,0.047209527,0.05142935,0.0085504,-0.007083752,0.029671744,-0.015075271,-0.07915001,-0.008192282,-0.09056656,0.058640238,0.048978087,-0.048968226,-0.058752153,0.08309665,0.042520463,-0.08704026,0.07759078,0.053965013,-0.014922277,0.0069609988,0.021025904,-0.002711186,0.06789338,-0.044792302,-0.013286127,0.0022437656,-0.027415927,0.035972226,-0.056537274,0.08737356,0.024386682,-0.03682524,0.08162676,-0.008306629,-0.085891984,0.006008326,0.085115954,-0.045790486,-0.053980146,-0.05535738,0.083481364,0.013761444,0.040047117,0.019094752,-0.018068919,-0.0888396,-0.00444384,-0.0033804,-0.0023892533,0.050417215,-0.07889053,0.013822121,-0.025789464,0.051709272,-0.06655943,0.076201424,-0.011249437,-0.051233727,0.043297276,-0.06620681,-0.022849334,0.08485565,0.03246911,0.06819124,-0.048380733,-0.052203767,-0.09023249,-0.06007276,0.040005345,-0.0073051024,-0.06317445,0.0746792,0.07055855,-0.002128128,-0.06267238,-0.021656394,-0.029022368,0.025433352,0.013412708,0.0021117819,0.07648239,0.0103792325,0.016208349,-0.07890618,0.029600404,0.023592848,0.04678633,-0.08269542,0.042506557,0.06692133,-0.028196385,0.06918901,0.07035189,-0.050406095,0.015857216,0.04262313,-0.078467235,0.07245199,-0.050860032,0.078707434,0.076720156,0.06646848,0.0052105775,-0.08925447,0.033980377,-0.05951952,0.021486154,0.0074197203,0.04137041,-0.04164557,-0.010744053,0.071539775,0.08649736,-0.04642049,0.06935872,-0.022410408,0.06967972,0.015121262,-0.071923316,0.07480664,0.022834951,0.055895403,-0.021806665,0.026384756,0.034662273,-0.033353426,-0.011237767,0.04366814,-0.0065390375,0.004520939,-0.083464816,-0.028083406,0.049060933,0.064217575,-0.0006664155,0.038043626,-0.0059407395,0.07149866,-0.029572582,0.07182021,0.055505972,-0.06448102,-0.05838986,-0.036079492,-0.07856828,0.04568587,0.07870251,0.07156196,-0.08789397,0.06046828,-0.023335248,-0.09073829,-0.07849268,0.016214151,0.02695496,-0.058462393,0.04495101,0.04271819,0.0610669,-0.041440234,-0.0625254,-0.057966392,-0.087124765,-0.0120281605,-0.07755467,0.019971715,-0.0046980563,0.032427803,0.08128499,0.04561876,-0.05182349,-0.0031432784,0.060943715,0.078816175,-0.05694944,0.025260195,-0.048343256,-0.0019912415,-0.078525275,0.030679215,-0.064675376,-0.055902064,-0.041870262,0.05711007,0.011608552,0.029040612,0.02552798,-0.03397503,-0.036643405,-0.015850361,0.039685614,-0.018432926,0.07577647,-0.057688247,0.081223674,-0.046609398,-0.04835743,-0.06694746,0.08488669,-0.019872457,0.08926091,0.008814823,-0.059292834,-0.0155496225,-0.051989444,-0.06581293,0.0056893653,-0.050408177,-0.010294844,-0.01697785,0.032941755,0.0008794029,-0.052624274,-0.044974983,-0.074528635,0.019953351,0.043062195,-0.003275392,0.06273929,-0.02787388,-0.06871754,-0.010182613,-0.07575761,0.034939703,-0.08619799,-0.08994363,0.002848235,-0.071359426,-0.05638287,-0.016004309,0.04982192,-0.054633413,-0.09045013,-0.011172599,-0.03391789,0.054642655,-0.019909542,0.03165473,0.088079035,-0.041998602,-0.06583022,0.023502972,-0.024335908,0.021428764,0.033207826,0.06297233
0.010744508,-0.04899031,0.06362698,-0.06430959,0.06711143,-0.05719717,-0.0758593,0.036039673,-0.056163784,-0.047993597,0.062386815,-0.083933644,0.08237933,-0.037961505,0.08213341,-0.08431706,-0.014272858,-0.07145069,0.009723208,0.04350202,0.08702444,0.06401639,-0.029596815,-0.013453428,-0.085039645,-0.057369415,-0.064039774,-0.03188846,-0.01309864,-0.04077785,0.060831722,-0.025315046,0.04416182,-0.06407832,-0.034764417,-0.035697706,-0.037226953,0.014436016,-0.024824295,-0.07921408,-0.059893854,0.04309621,-0.06803063,0.040248625,0.0005417209,-0.07118123,-0.029294569,0.046486005,-0.041326515,-0.041750364,-0.010672486,0.009357694,-0.050251205,-0.06487074,-0.03145477,0.04851522,-0.00465455,0.043812964,-0.0026761508,0.047642607,-0.053009737,0.07479031,-0.07817346,0.08770871,-0.06171866,-0.08002376,0.05367278,-0.042209703,0.061965395,-0.0498883,0.078097336,0.01616879,0.03077075,0.054306753,0.012269664,0.041496083,-0.06375101,-0.026578328,-0.061931986,-0.0016397949,-0.0806306,0.06610537,-0.06457281,0.085488625,-0.08340239,-0.001775217,-0.042268112,0.020444721,-0.057615574,-0.06561834,-0.0116816815,-0.08658726,-0.08032511,-0.02877311,0.013557915,0.07293186,-0.060491316,0.019355975,0.02181709,0.077465326,0.046656124,0.05418955,0.024038976,-0.0087846145,0.047157474,-0.08056759,-0.07957538,0.03110495,-0.0038670625,-0.035826296,-0.022156876,-0.07162632,-0.067801364,0.06604831,0.0036000148,-0.06326799,0.0044472245,0.009466259,-0.006033935,0.047750358,0.023956487,0.068633385,0.059725836,0.07908147,-0.022512693,0.050291076,-0.052378073,0.015957408,-0.038440596,-0.015344857,-0.087336905,-0.010162742,-0.005267816,-0.061771974,-0.005030456,0.08168165,-0.083723694,-0.03926904,0.003975042,-0.021253902,-0.037749678,0.025185764,-0.048922352,-0.06225522,-0.031884834,-0.053410243,-0.08366939,-0.046805635,-0.08680173,-0.04930916,0.016232785,0.027781637,0.03475565,0.06408379,0.057332028,0.06063496,0.013901107,0.07929443,0.072740175,-0.08998083,-0.047831893,-0.0127325505,0.08539536,0.0043823933,0.058501255,-0.048654277,0.03015783,-0.012995737,0.026839735,0.035055958,-0.028662179,-0.015369143,-0.08177231,0.08311232,0.08961266,-0.017880412,-0.060740173,-0.00144836,-0.019217473,0.0041998094,-0.04051868,0.03795964,-0.054836214,-0.060870692,-0.061478514,0.02507209,-0.046411876,-0.05459799,-0.0077295043,-0.03284548,-0.07384703,-0.040049575,-0.01582358,-0.052126613,0.043514755,0.047723155,-0.0586331,-0.08853624,-0.0057116775,-0.01936422,-0.033484682,0.0193892,0.031412132,-0.0070102434,-0.04331162,-0.06111288,-0.007371821,0.026245484,-0.023726122,-0.08763044,-0.01669014,0.023692736,0.022361966,0.031054959,0.04677402,0.049621202,0.08508374,-0.05252086,0.039742146,0.01610117,0.045705058,-0.03185778,-0.013224105,0.056759685,-0.02193559,-0.07257331,-0.05995964,0.0100839175,0.061527055,-0.060424227,-0.008832015,-0.07615357,0.039053638,0.054999754,-0.006119191,-0.01873926,-0.076397106,0.047780327,-0.076921016,0.024483934,-0.031586125,-0.032906014,0.065528005,-0.050938327,-0.027923025,-0.048851535,0.06936982,-0.02933903,0.04714371,-0.012884655,-0.032670934,-0.0019654913,-0.0075285896,0.02375504,-0.012283949,0.01060555,0.018697923,0.060131744,-0.043517433,-0.043005086,-0.0665093,-0.05968066,-0.046907563,0.026643788,0.032891233,0.035961155,-0.08932566,0.052184034,-0.0044809794,-0.05612314,-0.017675636,-0.02136506,0.081091285,-0.08040715,0.0677546,-0.05707203,-0.02123797,0.062065065,0.028873984,0.068705834,-0.060560692,-0.06737842,-0.045268722,0.044536285,-0.0894939,-0.019735688,-0.080075115,0.040761538,-0.0076204943,-0.017286519,-0.06769119,0.040516227,-0.0199199,-0.013062325,-0.028097583,-0.0667916,0.018197725,0.067090094,-0.058169626,-0.0023103105,-0.023080533,0.076883234,-0.031004488,0.080753565,0.0062784217,-0.086800165,0.021431291,0.034426052,-0.017925654,0.03309538,-0.010538821,-0.016583398,0.07399654,-0.020497806,0.016314777,-0.0063907835,-0.084920205,0.00010707944,0.026073454,0.03805132,-0.057131577,-0.016708493,0.009517,0.028683005,0.02785481,0.052302547,-0.089356884,0.06770139,0.0421675,0.0052038524,-0.026615305,0.006888206,0.058176123,-0.062027395,0.039567016,-0.08219444,0.043604795,0.05313055,-0.025450025,0.054164365,0.010583369,-0.04103082,-0.0033482935,0.051943615,0.032970328,-0.081351824,0.039240308,-0.0378099,-0.021478962,0.046156954,-0.038588885,-0.031504534,-0.020661484,-0.011693678,-0.06610674,0.010780932,-0.05162022,-0.089279115,0.02031609,0.08317298,-0.09016799,0.022206815,-0.024034292,0.0643964,0.0771753,-0.0064175753,-0.08969615,-0.030071946,0.069554575,0.011494412,-0.08576413,0.08746986,-0.08774275,-0.053166267,0.021105811,0.054912284,0.0070192246,0.027218776,-0.069145,-0.05992596,0.0044111805,0.023143359,0.037313465,-0.06694096,-0.030250387,0.06996275,0.0024695955,0.05617099,-0.067440026,0.0032832453,-0.029591033,-0.090935424,-0.04338799,-0.035478972,0.020469777,-0.0876058,-0.014139986,-0.021985311,-0.0549518,-0.071889855,0.01119337,-0.016828936,-0.08548589,0.048509896,-0.085624166,-0.05514534,0.072140396,0.030251928,0.03147744,-0.0025959713,-0.05414853,-0.059166912,0.07363882,0.082348324,-0.044178892,0.061989993,0.090857245,-0.052290108,-0.030587874,-0.06314815,0.040443033,0.014656423,0.05454693,0.032349445,-0.038967706,0.031129876,0.037506495,0.08995684,0.009478418,-0.0025903203,0.044521175,0.07012841,-0.059070256,-0.008534672,0.07501723,0.034822706,0.01291136,-0.074608624,-0.06376886,-0.0052149165,0.03286953,-0.035516154,-0.041157227,0.018329784,-0.0008769624,0.066700935,-0.024051407,0.020998027,-0.078018755,0.089844435,0.06274419,0.045721643,-0.010573563,0.04493118,0.032345485,-0.08328554,-0.081079245,0.04251929,0.08281611,0.06800396,-0.009353875,-0.03465455,0.064292714,0.06396657,-0.024647221,-0.082954936,0.07431029,-0.08610492,0.089745134,0.04753311,-0.08907738,-0.08175267,0.001637105,-0.08048863,-0.045578063,-0.010108269,-0.021083781,-0.09070187,0.051191263,-0.018483471,0.0077791177,-0.028703712,0.07814487,0.0071665565,0.04353659,-0.015790964,-0.09045629,-0.06425042,0.024851324,-0.0036101348,-0.078500554,-0.013920707,-0.08551477,0.019468142,0.0652528,0.03701008,-0.031251024,-0.07035357,0.076227926,0.07037629,0.045369934,-0.011675,-0.07519933,-0.019484933,0.023186354,0.034872178,0.044932008,0.09054024,0.06880426,0.00500053,-0.045971844,0.07213108,-0.07379579,0.02193495,-0.013889457,0.033175286,0.03123457,-0.03702004,-0.011200768,-0.03930515,-0.0024295493,0.022727687,-0.08997001,0.040990785,-0.018919468,0.087063245,-0.048303373,0.06307489,0.01667105,0.08110192,-0.023502702,0.07589917,0.075189866,0.048547488,-0.021326011,-0.08142311,0.07053988,0.022397924,0.06436905,-0.027186638,0.022982651,0.050133366,-0.08404125,-0.03340614,0.06949252,0.050311286,-0.08319972,-0.001403205,-0.04225065,-0.03537021,0.02381627,-0.019976694,-0.044261046,-0.029208424,0.005672466,-0.012509064,0.031473808,-0.04663045,0.08088383,0.03291875,-0.032947462,-0.009627615,-0.049241714,0.013351436,-0.07413751,0.027086174,0.08448948,0.06997086,-0.09059516,0.06220679,-0.020822385,-0.07389259,0.07575878,-0.018844333,0.0706957,0.040052462,-0.023336377,0.08518725,0.012543708,0.0003837375,0.0028975229,0.080362566,0.04590312,-0.05525744,-0.034266777,0.0015470441,-0.022266949,-0.08578564,-0.04376932,-0.049578596,0.035132132,-0.09031116,-0.074852295,0.017360352,-0.077865735,0.03476482,0.049220487,0.07888466,0.09033202,0.059215397,-0.0083148405,0.016301934,0.07324391,0.0563784,-0.008616435,-0.0054122196,-0.0016259219,0.08869085,-0.04188166,-0.03428297,-0.05492799,-0.021655222,0.040748227,0.0031124735,-0.0595346,-0.08095705,-0.029698167,0.05620868,-0.06651163,-0.0661815,-0.08417991,0.07020227,-0.07599947,0.04523488,0.007976009,0.073860146,0.034069985,-0.050724037,-0.004791957,-0.09043557,0.061713714,-0.07092656,-0.08837837,0.022002645,-0.035302658,-0.0838552,0.0383407,0.08421959,0.0098974295,0.076296024,0.06693392,-0.019819915,-0.08525348,-0.06328408,-0.015864972,-0.034100454,0.07954113,-0.0808971,-0.022540504,-0.036179814,-0.023677627,0.014565288,-0.058442794,0.03007249,-0.081948735,-0.03594344,-0.0551501,-0.07076259,-0.04796277,-0.06494382,-0.062543124,0.0235224,-0.08290094,0.0879141,-0.025102492,-0.01400157,0.017808074,-0.0075798295,-0.07557611,-0.080997564,0.07192203,0.06791701,-0.0052241036,-0.08404567,-0.056454696,0.056959182,-0.06586116,-0.057816543,-0.051207542,0.08948279,0.04683822,-0.06316016,0.00024941092,-0.08179322,-0.07230167,0.08931493,-0.061965663,-0.06752921,-0.053033568,-0.08749808,0.029440133,-0.022606757,0.052254844,-0.022251036,0.056197044,-0.08584551,0.018373214,-0.05886918,-0.027428413,0.024540229,-2.9080225e-05,-0.0906107,-0.07810626,0.032607034,0.05128051,-0.013067185,0.08758798,0.03585904,0.070192374,-0.081672035,0.08170031,0.044037245,0.06652989,-0.03850927,0.038660593,0.016335884,0.041871164,0.045255847,-0.038315047,-0.03783537,-0.08837139,-0.011820314,-0.054158498,-0.03920738,-0.02076672,0.032235358,-0.051483486,0.059103306,0.043545745,0.07835176,-0.0141424695,0.06730782,-0.08820594,-0.090563476,-0.056264564,0.013785806,-0.0891694,0.08068602,0.0186419,-0.019588975,-0.031029066,-0.049735676,0.077619135,0.06563489,-0.051552568,-0.041285038,0.028950486,0.005266851,-0.009566917,-0.042219236,-0.08231359,-0.016526766,0.06682689,-0.07390054,-0.04199188,-0.019680902,0.023620974,0.071289465,0.07333331,0.079276666,-0.09009612,0.02422206,-0.040527552,0.032517646,-0.037443172,0.011742185,-0.0138412975,0.04729897,-0.007921069,0.0015398093,0.049315028,-0.09000267,0.01931069,-0.057277154,0.07257244,-0.02164968,-0.037353285,0.07066704,0.07374968,-0.007841367,-0.032335464,-0.05228527,-0.07636811,0.074282706,-0.05844289,-0.03471349,-0.0077084075,-0.032905508,0.06613558,0.0005378703,-0.004611564,-0.05434006,0.02550634,-0.02954603,0.068261385,-0.050192557,0.087715395,0.031055804,-0.013094139,0.04773139,0.08640542,0.039319977,-0.058160167,-0.013033331,0.05268094,-0.011789933,-0.058654055,0.040170867,-0.012891423,-0.06715045,-0.027129421,0.015958004,-0.0041932906,-0.07830999,-0.066267945,-0.028755603,-0.015765527,-0.027644329,-0.007420306,-0.017072782,0.056452744,-0.029876629,-0.08462983,0.08382843,-0.05009641,-0.02710906,-0.059710477,-0.010139432,-0.028444245,-0.046441186,-0.02421336,0.012850932,0.0008997623,0.08664327,-0.013773733,0.036764305,-0.084072396,0.040443912,-0.038177554,-0.05516674,0.05203424,0.04823586,0.039605293,0.0077219657,0.03633283,0.024576588,0.07961004,-0.05763604,-0.07378592,-0.0859122,-0.0792006,0.031091925,-0.079464376,-0.07360252,0.045346074,0.06484716,-0.08183423,0.0036755952,0.053410895,-0.06289878,0.05983796,0.0843521,0.00072807947,-0.005271851,-0.07867902,-0.026672218,-0.026988314,0.05707242,-0.06523958,0.046846487,0.06447802,-0.02205164,-0.01094896,0.053972095,0.06627166,-0.00024871674,-0.08723957,0.05161421,-0.0071634757,-0.077621564,-0.06193665,-0.0028691802,0.079280004,-0.015005668,-0.0053259223,-0.03511609,-0.06049561,-0.047425162,-0.067856714,-0.079097435,-0.015880818,-0.014887351,0.03000628,0.059578016,0.04361805,0.038117625,0.06858196,0.08539299,0.08833838,-0.079036795,0.03897208,0.052877687,0.0018288869,-0.0480755,-0.083384536,0.07071333,0.00577102,-0.055161357,0.08881059,0.06125048,0.05965888,-8.965951e-05,-0.049196895,0.040506314,0.027411686,-0.087272175,0.020562312,-0.088544115,0.073537394,0.065286644,0.029789919,-0.034243457,0.06312945,-0.018710678,-0.062115677,0.049547445,-0.015589669,0.042364877,0.055523567,-0.06646288,-0.089410074,-0.054700643,-0.018362334,0.06606964,-0.034033876,-0.02220292,0.060592648,-0.04392742,0.031187572,0.06610911,0.029555596,-0.035795327,0.044713985,0.039332345,-0.027924892,0.004396136,-0.06737348,-0.03245721,-0.0020210594,0.061019108,-0.058259133,-0.086755924,-0.0117242765,-0.015161428,-0.04072161,-0.07313348,-0.07576074,-0.0016938662,0.086771324,-0.08270355,0.07425651,-0.016168399,0.007416325,0.064250596,-0.087810785,0.056147266,0.06375862,0.010980589,-0.030374225,0.040323578,0.07849072,-0.005790013,0.024546584,0.04644314,0.012979228,-0.013198832,-0.05531549,-0.012767434,-0.07511589,-0.009213485,-0.01926007,0.006779012,-0.070628025,0.089,-0.04056415,0.054172784,0.037937623,-0.029476307,0.02327941,-0.010426178,0.013003687,-0.034878697,-0.0010559018,0.038447995,-0.029950192,0.019062538,-0.016419275,0.08600084,-0.06963663,-0.020443095,0.012783303,-0.048345793,0.0806162,-0.024822256,-0.034208845,-0.07699729,0.08331032,0.009432904,-0.07542548,-0.034718014,-0.068925776,-0.010943656,0.039141137,-0.06851204,-0.06368291,-0.016189367,0.072372645,-0.016743246,0.018833648,-0.057809535,-0.069481745,-0.0830759,0.02116345,-0.086993195,0.020102061,-0.077250786,-0.052928094,0.02058855,-0.043209583,0.04477461,0.020574775,0.055812024,0.042297497,0.030005738,-0.034942284,-0.07399746,0.04300999,-0.045266207,0.030810472,0.038228285,0.075352125,-0.035107445,0.07170804,-0.06461852,0.07753463,-0.025823196,-0.06525001,0.084304616,-0.013378617,-0.07529722,-0.010238842,0.009445976,-0.017473603,-0.08602723,-0.06957184,0.042957652,0.08614229,0.056114,0.032969024,0.062485203,0.008918431,-0.013998511,0.02998694,-0.041115,-0.022590086,-0.047460902,0.015630279,0.07859692,0.07793342,0.0490742,0.034489527,0.04181821,-0.04132762,0.020204466,-0.089124575,0.042175245,-0.08432221,-0.026723772,0.042481598,0.020076614,-0.048510794,-0.07509384,0.03459907,0.070060335,-0.07911753,-0.028644314,0.08971574,-0.06899449,0.086984456,0.043620404,0.06768945,0.028010732,0.071308315,0.01385285,0.045170397,0.034698598,0.074529015,-0.08798842,0.054385606,0.06069914,0.01579308,0.030146323,-0.029695444,0.03125381,0.005885291,0.008342673,0.0103013525,0.0046463497,-0.028248679,0.028952656,0.08612618,0.08633838,-0.07831187,-0.007217547,-0.036162328,-0.07219166,0.07556733,0.08175102,-0.054903932,-0.047753785,0.071137704,-0.03713294,-0.006453814,-0.08542435,0.031975057,-0.08222064,-0.0059720976,0.072129026,-0.015136621,0.08383258,0.0007807189,0.056264617,-0.041850578,-0.020418614,0.006674145,-0.050654467,-0.004124218,0.05595515,-0.05830006,-0.08940929,0.036841467,-0.02404669,0.025327986,0.05955158,-0.048237804,0.04945159,0.03241481,-0.017408697,-0.03781616,0.02670223,-0.04945647,0.07307972,-0.08823173,0.01761395,0.08589084,0.052645687,0.0040196115,0.026842566,0.013480686,0.024170352,-0.010925173,-0.007317359,-0.005565929,0.010378875,-0.028818103,0.02582132,-0.09034201,0.043053973,0.08626503,-0.06304582,-0.0137427,0.04708054,-0.08431763,0.08112748,-0.0896846,0.070612244,0.053106934,-0.07999235,-0.024192946,0.051393893,0.046057947,0.084104,-0.05701889,-0.080033414,0.09072651,-0.019129494,0.04012184,0.09050852,-0.060093228,0.073025525,0.02651444,-0.04203343,-0.05543649,-0.031942323,0.045550317,0.05732939,0.071784675,-0.08772881,0.08287064,0.00046828817,-0.0106031755,-0.05997796,-0.02701566,-0.04565898,-0.013680961,-0.08097308,0.024831172,-0.043814614,0.031424344,0.054854613,0.08856156,-0.005340674,0.04958415,0.08715829,0.090000756,-0.044221606,-0.07238257,0.039421637,-0.05546895,0.030841906,-0.038588557,-0.020220194,0.03509288,0.083005846,0.028974958,0.036741655,0.08332335,0.07463876,-0.05367981,-0.072621346,0.08928157,-0.02124631,0.01309108,0.015929954,-0.083953165,0.08237329,0.008371103,0.05054857,-0.090933375,0.023951681,-0.0013187302,0.08735318,-0.08681342,-0.05618151,0.08308655,0.056300867,-0.033947274,-0.062961824,0.052076936,0.0168632,0.029580826,0.0063854577,0.038183887,0.066570275,0.04654345,0.064775884,0.016347079,-0.03628196,0.07877158,-0.020484736,-0.07820682,0.03180637,0.02664548,-0.00014733186,-0.084435835,0.05587202,0.020927511,0.058998127,-0.08350754,0.006942169,0.032991793,0.044804145,-0.012535573,-0.0826043,0.03460181,0.005996286,-0.07794923,0.044847097,-0.0031127448,0.06666384,-0.0784839,0.04862049,-0.005390428,0.0767396,0.008050081,-0.04898737,0.0686956,-0.08503339,-0.04497713,-0.05026422,0.027843334,0.07853312,-0.056179937,-0.053891093,0.024246182,0.0604924,-0.06622626,-0.0039354404,0.03135815,0.08740433,-0.05273491,-0.026413023,0.02532854,-0.030270725,-0.053813525,-0.014556394,-0.012860054,0.08178943,0.07909125,-0.038189374,-0.023019195,0.032382507,0.053997576,0.044493448,-0.007679316,-0.0888208,-0.024199022,0.07607131,-0.0689381,-0.013335783,-0.070258185,-0.040295668,0.032100957,-0.024373328,-0.07840285,0.08096038,0.0068242317,0.05258861,-0.009666924,0.05646796,0.08407597,-0.023920834,-0.037175864,0.037540454,-0.050431326,0.06920049,0.010354925,-0.043745056,-0.034611944,-0.044830404,-0.07957801,-0.078554824,-0.04798028,-0.045742024,-0.0636031,-0.08690163,-0.060290128,-0.079462275,-0.045537755,0.05364323,0.04482794,-0.010393713,-0.08394886,-0.027775748,0.012581769,0.012576531,-0.078545615,-0.071265176,-0.036443338,0.056122385,0.025387123,0.054912914,0.07284961,0.07595454,-0.018169131,0.006814969,-0.06878239,-0.073705584,0.078273535,0.015179834,0.05396729,0.08212416,-0.02758044,0.047631826,0.07353699,-0.0042014364,0.02947148,0.05595978,-0.0112417145,-0.07603656,-0.08857232,-0.04334355,-0.08121935,0.025944257,0.023893185,0.052529234,-0.08666253,-0.00023324921,-0.00418637,-0.049192004,0.016123928,0.06321003,-0.06669752,0.060261138,0.029568516,0.053674676,0.004376308,0.020727573,-0.0062061497,-0.07441253,0.06300092,-0.06903268,0.027654644,-0.032398246,-0.023519773,0.060373195,-0.0627856,0.040595528,0.00080626307,0.026575323,-0.057804633,0.019255525,0.06594273,0.028211528,0.07947404,0.04101195,-0.06781981,-0.004533283,0.032567173,-0.034725834,0.053645283,0.07175329,0.07613938,-0.06181368,-0.00772176,0.057990797,-0.040053513,-0.066896155,-0.07450762,0.020358402,-0.030391114,0.044936344,-0.084618345
-0.038522154,0.0049278997,-0.07072531,0.043119304,0.047833826,-0.031118596,0.062321864,-0.07522932,-0.06142787,0.02142987,-0.08763194,-0.0357659,-0.06415706,-0.031737946,-0.038236137,-0.08667859,-0.028004702,0.011814446,0.012934778,0.082610816,0.0070429463,0.04367609,0.088478446,0.05216027,-0.084741965,-0.060464103,-0.019983528,-0.06726048,-0.01193874,0.08992977,0.011551856,-0.09048189,0.05635379,0.05662149,0.089968204,0.08658063,0.03508547,0.079183795,0.0070161764,0.06879293,-0.022276407,0.029355843,-0.034067597,-0.033391755,0.020220617,-0.011706206,-0.005661988,-0.08698463,-0.06497972,0.056886204,-0.069228984,0.071885906,0.04300541,-0.085044086,-0.009935957,-0.04116197,0.025775742,-0.011832365,-0.08438233,-0.007408971,0.014671066,0.075790375,-0.08827157,0.027770672,0.0020054183,-0.0053496226,0.087820075,-0.016910048,-0.036704756,-0.03726075,-0.049888175,0.024281207,0.046928346,-0.043294046,-0.005267599,-0.057724442,0.038775668,-0.020827634,0.026720237,0.050828133,0.05020608,0.06778314,-0.05848427,-0.070959374,-0.012472282,0.07142834,-0.060595986,0.07433313,0.0800778,0.032260697,0.03567124,0.0337342,-0.0067525674,-0.040275645,0.028328478,0.006386564,-0.078577965,0.07838493,-0.024771623,0.022700159,-0.036964327,0.028015276,-0.062029954,-0.02064067,0.084302,-0.012637229,0.022044437,-0.08319068,-0.043695495,-0.039694484,-0.07430419,0.05821223,0.001737774,0.029629963,0.07450079,-0.0129518835,-0.0139333,0.02539951,0.01676571,0.033747684,0.035217814,-0.041536953,0.010559148,0.0886568,-0.015904117,0.013985126,0.073420495,0.06966109,-0.014764652,0.09012358,0.051356383,-0.047461674,-0.04331318,-0.048485674,0.037518676,0.0720639,0.007279949,-0.0012712864,-0.018952042,-0.08298952,0.058675412,-0.023263866,-0.05870649,-0.029468225,-0.033990618,0.068326935,0.011544155,0.024055768,0.035517074,-0.022747971,-0.02388467,0.0041508796,0.089081354,0.051541712,0.01660008,-0.015776917,0.043562092,-0.024872053,0.0051518423,0.04636263,0.04510943,0.049466982,-0.08032636,0.009244171,-0.070572,-0.06556167,0.007219044,0.016889568,-0.05930101,-0.028311493,-0.04603584,0.08002237,0.0070062517,0.056486584,-0.082818575,0.025531407,-0.025092525,0.009111569,-0.06887002,-0.064963154,-0.021627422,0.008693762,-0.08461864,-0.005986491,0.07467749,-0.016270338,0.021040719,-0.022632528,0.0364936,0.0033924724,0.029866813,0.0019404244,0.077862926,0.02237968,-0.038278557,0.05293,0.07838305,0.06767536,-0.07441531,0.0676632,-0.03145517,0.017541396,-0.030781088,-0.06965255,-0.03788519,0.0780032,0.07716511,0.034324776,-0.019622156,0.008659019,0.0066490346,0.043492705,-0.07695952,-0.08930445,0.0005723414,-0.08154171,0.085422546,-0.06572251,0.045297023,0.0012258926,0.024913965,-0.08424161,-0.0054657916,0.03834546,0.025618441,0.06339136,-0.079233244,-0.028126912,-0.065256774,0.07849839,-0.018673377,0.07351891,-0.048493322,0.024245175,0.08388586,-0.032864645,0.01622374,-0.03248389,0.07543218,0.056990724,0.025750177,-0.08578637,0.067040995,0.03072219,0.07686664,-0.0036209382,-0.06373223,-0.036792733,0.049275395,0.02364691,0.06285561,-0.017526155,0.052134465,0.07603427,-0.03917411,0.019922286,-0.08087528,-0.016014103,-0.09015478,-0.07725023,-0.04093025,-0.01735007,-0.049932797,0.06825783,-0.059337273,-0.04673574,0.01669437,0.012759548,-0.0435664,0.06153648,0.06429679,0.07181372,0.038413275,-0.0726478,0.041013315,0.089770354,-0.06057693,0.03770181,0.046563774,0.0059691365,0.05683477,0.04979732,0.081918985,0.06399494,-0.015029378,-0.086685725,-0.034301315,0.034792706,0.056192648,0.02948532,-0.022224918,0.04723275,-0.021873048,0.017614948,0.08442434,0.03505716,-0.034336913,0.065313004,-0.090678595,0.08075593,-0.0584484,-0.01745702,-0.07946479,-0.00473141,-0.05856802,0.0711707,-0.06494211,-0.051662445,-0.016282333,-0.04961347,0.08348177,-0.023600463,-0.04342362,-0.056432147,0.058717757,-0.054299094,-0.055429295,2.1042759e-05,-0.03643647,0.042929843,0.04651427,0.07762425,-0.06441502,0.079201736,-0.0022727372,0.0728103,-0.0043977415,-0.029889004,0.07647644,-0.06980693,-0.0023960979,0.087572694,0.051848806,0.08917751,0.07222628,0.022827521,-0.029753007,0.07132185,-0.067351505,0.06693447,-0.08347255,0.031843953,-0.07934151,0.07068471,0.032762967,0.0059215953,-0.037636135,0.033196166,-0.026291072,0.038294513,0.088239156,-0.010735245,0.0012865912,-0.03665962,-0.04263252,-0.05248854,-0.08989526,-0.07947301,0.05627773,0.06936769,-0.02120993,-0.0014434465,0.016064618,-0.074910045,-0.08996723,0.031160714,0.07618963,-0.073166326,0.0034976103,0.026959993,0.08428734,-0.013063161,0.08491919,-0.07735325,-0.026865194,0.022148209,-0.026983347,0.029295761,-0.022960026,-0.011486635,-0.041195907,0.041572846,0.034290683,0.05457059,-0.06562,-0.08678989,0.090111226,0.0069125895,0.0071574883,0.003931319,-0.056636337,0.08393048,-0.017053496,-0.083924815,-0.07196998,-0.03876061,0.042204995,0.0807912,-0.0768754,-0.036208957,0.05841455,-0.038149178,0.084526755,0.034098316,0.028309366,-0.02738265,0.01228639,-0.084325984,0.07048247,-0.07203326,-0.023178361,-0.030408252,0.06395541,0.05294919,0.067453526,0.04562824,-0.034011174,-0.08676958,0.08473161,-0.039789394,0.09068335,0.036921613,0.03941463,-0.0077997157,-0.057962433,-0.028432293,-0.001988942,-0.06537008,-0.07161997,0.011622697,0.06144324,0.075461514,0.059484452,0.08875048,0.079704255,0.012784431,-0.050133605,0.0011771471,0.006786789,-0.05531128,0.0634858,-0.04602779,0.027012883,-0.008075571,-0.07034005,-0.05084843,0.08430562,0.042253654,0.08659001,0.084679455,-0.041494727,-0.06982076,-0.031735085,-0.06647914,-0.044131145,-0.09057287,0.04188932,-0.04465485,0.07259749,0.042087145,-0.069162406,0.07330389,-0.014464305,-0.043385245,-0.03571889,0.013607224,-0.08553283,-0.037298497,0.035495665,0.08619775,0.031119237,0.082016975,0.06878174,0.010312807,0.016521418,0.043170314,-0.08014938,-0.03331531,-0.03266399,-0.07362228,0.08421807,0.03081135,-0.044551525,-0.087897405,-0.050659,-0.08752986,-0.028632035,-0.015227116,-0.023925075,-0.007840369,0.027309423,-0.084880516,0.060445305,-0.0054766494,0.08984032,0.026562395,0.07900931,-0.015451156,0.016982267,0.011753758,0.025410194,-0.022564715,-0.016775949,-0.0028158033,-0.03619678,-0.020976854,0.069650255,0.035084832,0.08247331,0.07710587,-0.019683039,0.08553314,-0.06801847,-0.044187833,0.07622983,0.030540928,0.045904648,0.06030589,-0.023050174,0.06476549,0.038984694,-0.070214815,-0.07797622,0.0592053,-0.0056431037,-0.020255717,-0.053672094,0.018495088,0.032662917,-0.061363894,0.03573966,0.011654326,0.0034044906,0.055965744,-0.042242136,0.051996637,0.021498216,0.043659974,0.025985986,0.009618277,0.06300123,-0.040502757,0.02057369,0.007051114,0.021028321,-0.032298487,-0.026221186,0.033352688,-0.050471883,-0.08632147,-0.061403323,-0.027131634,-0.050223697,0.054953024,-0.0039680027,-0.06141534,0.012258058,0.0678573,-0.033150956,0.09090056,-0.04343705,-0.057529103,-0.019761536,0.008554771,-0.043263327,-0.07180565,0.025044115,-0.07260352,-0.058276456,0.07088185,0.08439978,0.055484258,0.07610947,-0.012278309,-0.0064033875,-0.028656984,-0.006817051,0.023932049,-0.042395573,0.084350064,-0.06434136,-0.039567273,-0.02713916,0.08522609,0.0445553,-0.053709887,0.07425519,0.060536146,-0.06374808,0.047155317,-0.06330152,0.0025938996,-0.05253047,0.055440933,-0.045639705,0.028292565,-0.087823376,0.024318574,-0.048766777,0.0023174044,-0.07695397,-0.07135603,0.07747708,0.013572124,-0.05492594,-0.0031640066,0.022059785,0.0062964275,0.08421668,0.08217929,0.0035939838,0.04942429,0.0627052,0.038026586,0.0024018683,-0.04129968,0.0032389578,0.0053437976,0.0021268807,0.08350522,-0.043483797,-0.054712333,0.046177465,-0.05145443,0.07087241,-0.051493574,0.0531991,0.03418097,-0.040877804,0.030234693,0.051207814,-0.06191078,-0.07265774,-0.08992251,0.042267203,-0.014534125,0.08653661,0.04339758,-0.058964144,-0.073526286,0.04371196,0.010996186,0.085019484,-0.046503454,0.07331257,-0.0781508,-0.07416271,-0.04553792,0.02974753,-0.059629355,0.08594311,0.013993901,-0.055562083,-0.056235515,0.029906392,0.018217638,-0.003307401,-0.058799837,-0.079907544,-0.013186782,0.0006732815,-0.0049382476,-0.07839149,0.06522449,-0.07949956,-0.07834862,-0.027288305,-0.05329696,-0.006240805,0.07635916,-0.08338947,-0.07269246,0.009888991,0.06335234,-0.024550674,0.024538482,0.004198681,-0.054864917,-0.062221345,-0.025010252,0.05530178,-0.07491174,-0.005793169,-0.07453238,-0.05618164,0.021135151,-0.04706097,0.06952757,0.0045287707,0.054405663,0.01324722,0.009050751,0.077618614,-0.052847534,0.060576506,-0.07238735,-0.016504725,-0.08593533,0.058407083,-0.037519045,-0.08541549,-0.029111909,0.07534097,-0.038906727,0.090779506,-0.051726162,-0.027445365,-0.020012889,0.053226933,0.08495679,0.028585244,-0.014212322,-0.012417213,0.05884369,0.041932773,-0.03323487,-0.015079751,-0.016267257,-0.010745084,-0.04962155,0.060693055,-0.003127518,0.058802363,-0.050777145,0.0016733983,-0.04623607,-0.077331305,0.06266654,0.023962723,0.057754662,-0.07573177,0.087676205,-0.0409614,-0.071915574,-0.024027903,-0.088678956,0.028882023,0.090001196,-0.039111156,0.012410325,-0.061827954,-0.075995505,-0.0659264,-0.084283814,0.05514051,-0.081872754,-0.0624872,-0.0498037,0.08706663,0.029646514,-0.032091673,0.07147082,0.010924262,0.0064345286,-0.0593348,0.08888599,-0.06945575,-0.0203426,-0.07367639,-0.0062768273,-0.07758691,0.07406335,-0.049185604,0.020363122,0.046845574,0.06321387,-0.07875612,0.06060461,0.02374734,0.067899875,-0.07584615,0.07251495,0.060491826,0.029899385,-0.04953406,0.07269588,0.024345974,-0.0041372776,-0.08072697,-0.081625365,0.0016432984,-0.055689696,-0.07696543,0.07248375,-0.05981696,0.0483738,-0.06801636,0.08349962,0.016858287,-0.0065944754,0.0017984617,-0.07007844,-0.006768176,0.08524229,-0.045098547,0.01259215,0.08975199,-0.031386837,0.013545495,-0.08656847,-0.08560917,0.0067113386,0.021146215,0.06756429,0.07262007,0.018259833,2.9947967e-05,0.054269146,0.023422934,0.07796901,0.042351916,0.047080908,0.020389153,0.005056293,0.019817507,0.07788993,-0.08077786,-0.06169046,-0.045118768,-0.007485289,0.021162812,-0.0023173175,-0.020201178,0.010338253,0.086556636,-0.025865933,0.00022054763,-0.018339785,0.0059568365,0.03388816,0.08252554,-0.028290352,0.039968975,0.063269764,0.069400914,-0.031604446,-0.07807432,0.029346764,0.035245646,0.07807995,-0.05576826,-0.010226965,-0.038829044,-0.07602098,0.0028822073,-0.031229483,0.06917716,-0.08041174,0.054631528,-0.008153516,0.04392268,0.088214815,0.010483199,0.06385583,0.018547695,-0.014527542,-0.05118764,0.014761246,-0.05174423,0.045278866,0.0063847094,-0.06617841,-0.00308207,0.06660539,-0.051479593,0.024006415,0.07569847,0.012336089,-0.06154684,-0.018864226,-0.03422034,0.027839549,-0.08755689,0.04138767,0.021502912,-0.05375527,0.071270004,-0.040248398,-0.085179545,0.047336522,-0.011811832,0.07806881,0.043399703,-0.079888165,0.037409373,0.07668924,-0.055542275,-0.05778887,0.008860162,-0.00037848766,-0.0065280823,0.083932266,-0.08289175,0.010818896,-0.039451506,-0.029417006,0.05945686,0.0312735,-0.036546674,-0.05788503,0.058498673,-0.015694905,0.009108239,-0.009873935,-0.0054510506,-0.035530917,-0.004413556,-0.0365229,-0.070755824,0.0775942,-0.044855937,0.06957043,-0.07177814,0.049545795,0.041512158,-0.020599224,-0.011366246,-0.041194163,-0.08804956,-0.012148147,-0.074208714,0.07759594,-0.02325073,-0.03301328,0.08691426,0.020931851,-0.09016304,-0.01958557,0.030007267,0.041215174,-0.027450778,-0.06661996,0.027276253,0.020441858,0.081138894,-0.06961938,-0.02932046,0.06319571,-0.004535756,0.00059559685,0.02929177,-0.08472647,0.03714164,0.09029432,0.08207668,0.07244127,0.043078996,0.016931482,0.073279925,-0.05277522,0.0907793,0.028589321,0.07151744,0.016553698,0.00087444595,-0.05932995,0.036465984,0.06163766,0.07185407,0.033624917,-0.006836185,0.08283121,-0.039995104,0.06686458,0.050133202,0.054290123,-0.022337789,0.009567069,-0.039776996,-0.028666735,-0.063468985,-0.028079707,0.06401834,-0.02799827,-0.07177424,0.08443269,0.004113805,0.04001913,-0.028131675,-0.016714621,-0.012988687,-0.061132077,-0.0031521837,-0.008025611,-0.036186375,0.07985459,-0.040998217,0.06660541,-0.06048301,0.08996577,0.08371397,0.08210171,0.05187695,0.08028489,-9.37379e-05,0.039380025,-0.078554004,-0.037220962,0.014379569,0.013694465,-0.047595456,0.049075715,-0.081329994,0.010155387,-0.03419163,0.07350811,0.02844864,-0.06653262,0.07175989,0.063490726,0.010898847,0.08041432,0.05406272,-0.0770465,0.004032465,-0.017009165,0.028443139,0.020707669,-0.04806819,-0.00985491,-0.06811409,0.09025141,-0.016229402,0.08641282,-0.08698325,0.07245213,-0.04653474,0.078650065,-0.07950095,-0.051831167,0.08647866,0.026115952,-0.042544458,0.032648783,0.011960411,0.04937719,0.07588442,0.09052487,-0.03875793,0.074516095,-0.037701283,-0.015050335,-0.06134101,0.068771504,-0.044065263,-0.08991867,0.02827817,-0.036337882,-0.002700643,-0.041878615,-0.07530364,0.03958275,0.07338322,-0.0031768058,-0.060648724,0.029815083,0.04514212,0.00529938,0.05750269,0.085810736,0.07683521,-0.044087563,-0.01428953,-0.09070387,-0.03344917,0.08204347,0.06586789,0.070997946,0.084569894,0.073379725,-0.07954525,0.0010744281,-0.07421867,-0.08091398,0.07092333,0.0836518,-0.050750438,-0.014476225,0.045535892,0.02726787,-0.044811033,-0.012366482,-0.037505962,-0.03362211,0.01935322,-0.01082894,-0.08643535,-0.085269846,-0.04073696,0.073672205,0.02031442,0.07460182,0.06426371,0.035419866,0.014515327,-0.0611918,0.028344791,0.0043500913,-0.082036845,-0.019780194,0.0530606,0.045102138,-0.0901434,-0.07402511,0.0784596,-0.06847939,-0.079677865,0.07535574,-0.018916963,-0.009561038,0.06975429,-0.00793401,0.08017919,-0.035272337,0.07165822,-0.058273442,0.035680633,-0.04960915,8.540757e-05,0.027636008,0.015712716,0.07028175,0.013161497,-0.06848911,0.0029365278,0.031082813,0.040787593,-0.07040411,-0.08925173,-0.028123496,0.0032382202,0.08705462,0.00628647,-0.019898282,0.007773184,-0.0029489582,-0.046990413,0.067334704,0.066417865,0.049503222,0.058316287,-0.009935024,-0.033677395,-0.09085794,0.06315821,-0.086970046,0.04848359,-0.07836977,-0.06857148,0.015125546,-0.013452679,0.005065079,-0.034510862,-0.051383596,-0.039338853,-0.002745028,0.02503791,0.01141727,-0.050208718,0.050117042,0.046989392,-0.013815233,0.048942234,-0.08699492,-0.08470203,-0.062173694,0.04283978,-0.042293202,0.08670008,0.0014014478,0.0013444588,-0.08669668,0.079303995,0.022859747,-0.032689646,-0.03661386,0.060451087,0.06490891,-0.084980175,0.08817208,0.027656835,-0.0095530655,0.08615859,-0.008509615,-0.075613186,-0.047465827,-0.047410194,-0.029891739,-0.08563423,0.016853461,0.030259661,-0.06235398,0.044647638,0.080262884,-0.08745579,0.028090337,0.036234632,-0.04258495,-0.061473805,0.08792689,-0.05057227,-0.035109855,-0.0024945866,0.07593398,-0.090460576,-0.028088016,-0.023572218,0.002412932,-0.07067645,-0.08140515,-0.066454835,0.04296707,-0.010557792,0.035783753,0.06111902,-0.09067593,0.08968084,-0.01287652,-0.016514672,-0.0032964891,-0.040308565,-0.08781864,-0.022218475,-0.013219951,-0.012885675,0.054996304,-0.08636449,-0.025822079,0.015680315,0.020705022,0.05124735,0.009529723,-0.025230864,-0.02892005,-0.06452189,-0.05397024,0.06658888,0.081209734,0.031722438,-0.039966036,-0.013184427,-0.052761313,0.0247803,-0.012690573,0.072582886,0.06522128,-0.047610685,0.0727989,-0.049430307,-0.030517738,0.04486595,-0.05014597,-0.021619547,-0.070508145,-0.080109835,0.052121233,0.03243289,-0.05172576,-0.040006004,-0.033865597,0.039548434,-0.0543225,-0.0431928,0.019036278,0.035129856,0.0728577,0.048047118,-0.072484314,-0.02498833,0.074399605,0.007977863,0.07667975,-0.055760078,-0.047358323,0.084863074,-0.056977306,-0.020372525,-0.052111167,0.007255923,-0.036672354,0.043803833,0.08324083,-0.044746276,-0.011237202,0.081870705,-0.060371533,0.027939642,0.013386091,0.07023377,0.009970092,0.062342905,0.007580513,0.058796853,0.027410883,0.07968324,0.013794277,0.050298974,-0.046076626,0.0655872,0.0592481,0.03564815,0.009132254,-0.0529122,-0.017835885,0.045602046,-0.051164612,0.0088638505,-0.012808402,0.06496709,0.037721824,-0.07066332,-0.08509221,0.028381128,-0.051253717,0.08380738,-0.024316156,-0.06369952,0.016085118,-0.025939116,0.07729575,0.022816371,0.070558846,0.007158161,-0.0066287294,-0.038473908,0.014940251,-0.064242035,0.005719899,-0.069639474,-0.037653502,-0.07868366,-0.057548366,0.07830346,0.06121741,0.055940375,-0.028989634,0.057918295,0.07875529,-0.024489129,0.01934706,-0.08512673,-0.046845965,-0.07012817,-0.06959173,-0.065508865,0.075073235,0.06387542,-0.072951116,0.08328481,-0.012984716,-0.048304554,0.08290556,0.022984345,0.07306944,-0.087109596,-0.061782766,0.0006833799,-0.07004563,0.07903008,-0.068859585,-0.0015968417,-0.06095827,-0.039814755,0.06303089,0.032654632,0.08576439,-0.049842846,-0.008653271,-0.08758206,0.054741554,0.09091624,-0.026889144,-0.06286569,-0.02374966,0.061148923,0.029962307,-0.0255892,0.07183146,0.0634183,0.03993998,0.0608125,-0.07340066,-0.05892079,-0.021746824,-0.023524286,0.090176076,-0.0312547,0.041842952,0.027280223,0.043028243,0.08907741,0.0067427834,-0.017871518,0.013933778,-0.080209725,-0.017408729,-0.024285926,-0.08481352,0.029219585,-0.053427663,-0.002301004,-0.021105465,-0.057837985,0.027995113,-0.027918318,-0.035306334,0.040263575,-0.06366551,0.02899804,-0.00552649,0.009418478,-0.06907928,-0.03179473,0.08968403,0.008281736,0.073562175,0.011707985,0.0023280017,0.026234312,0.014514308,0.013904838,-0.012427463,-0.025857493,0.07172922,-0.081488855,-0.07467592,-0.03552138,0.06532806,0.055949148,-0.038894255,0.0329847,-0.023647256,0.033622608
-0.067685194,0.0443869,0.026281528,-0.058856282,0.050277084,-0.05840112,0.061358344,-0.06624649,-0.08330314,-0.08452815,-0.08572298,0.039829616,0.01498278,0.06318648,-0.016599081,-0.030950569,0.020122128,0.015481754,-0.0887456,0.006414093,0.08124857,0.04530735,-0.06482317,-0.06816182,0.012169798,0.028649012,-0.010517453,-0.02955539,-0.038533468,-0.036022555,-0.083960146,-0.05041254,-0.044125743,0.03655701,0.08765659,-0.07567487,-0.08913207,0.08141485,0.05052119,0.00010438944,0.022272015,0.08285225,-0.016659748,0.014209199,0.03132722,0.022268554,-0.0027710276,0.006400535,-0.004753017,-0.08361298,0.0046966244,-0.08068699,0.083360665,-0.05489082,-0.039279293,0.08231876,0.09019482,-0.081039935,0.005075416,0.050422877,0.04911534,-0.04230765,-0.08569796,0.0047642975,-0.008156618,-0.033627197,-0.07275255,0.023937484,-0.0060844705,-0.014687651,0.08576573,-0.0079347035,0.027228203,0.017589806,-0.035053734,-0.048437003,0.0044760336,0.042846594,-0.06411565,0.075341366,0.051285803,-0.012407418,-0.08504819,0.011152326,0.027808527,-0.009636434,0.0727003,-0.062000006,-0.02360092,0.08215307,-0.017558707,0.003655572,-0.04600421,-0.021454135,0.008897713,-0.028892782,-0.006709462,0.065873034,-0.057772547,0.076620765,-0.030858707,-0.013647401,-0.043080635,-0.08348167,-0.063039586,0.004420715,-0.013680397,-0.052892905,-0.031756267,0.043932084,0.023693247,0.040839873,0.08500418,-0.023754813,-0.08288762,-0.060096364,0.038821883,0.006282251,-0.031675883,-0.079595394,-0.016583994,0.077545844,-0.0064931773,0.08965131,-0.00034414674,-0.06879521,-0.030802282,0.064276844,-0.07451687,0.019019444,0.026812477,-0.08445813,-0.062356863,-0.06794702,0.060512617,0.06339131,0.056146443,-0.046628084,-0.047976222,-0.0639188,-0.0010228733,-0.0467889,0.0061427504,-0.057098486,-0.08028002,-0.06800538,-0.024145871,0.028451253,-0.03469987,-0.00078115275,-0.035738554,-0.04585871,0.06361937,0.016099077,-0.023086585,0.07221827,-0.008340558,0.08482733,-0.056056328,-0.028726425,-0.075564474,0.027996719,-0.076990716,0.06846689,0.07751132,0.0786336,-0.041889485,-0.025393013,-0.012424741,0.084741555,0.06762046,-0.029094901,0.02033978,-0.069582626,-0.015658231,0.008873547,0.057932798,-0.048705712,-0.0011443248,0.054760233,-0.024550445,-0.07944212,-0.09057272,-0.03538247,0.002200324,0.06615866,0.08831102,-0.05787069,-0.050523404,0.05808692,-0.09001158,-0.081633136,-0.030706864,0.04064651,-0.014215121,0.046620287,0.046014745,-0.021076178,0.04293709,-0.03376506,0.041760094,-0.027503245,-0.02158064,0.084008954,-0.06214019,-0.018104821,0.021307204,-0.04248521,-0.0046736836,-0.05313815,0.08038309,-0.0121979015,-0.076297045,-0.054810163,-0.081465386,-0.07350969,0.013300543,-0.036443714,0.08385149,-0.07339294,-0.026673075,0.039616324,0.015070054,0.01621054,0.055959832,0.080325484,0.038754527,0.033255447,-0.05356996,0.032024886,-0.061072942,0.08762735,0.08536638,0.012486394,-0.015293205,-0.061799157,0.03964406,0.0001611615,-0.019218763,-0.059331805,0.05565697,-0.06617874,-0.057142816,-0.015005418,-0.060751043,0.080101326,-0.032104146,-0.039983172,-0.018552024,0.08292492,0.05081516,-0.052326586,-0.05916947,-0.038554847,0.07668081,-0.0738143,-0.04645318,0.008322845,-0.06483364,0.035242174,0.08164584,0.025230529,0.014597351,0.0591543,-0.045536954,-0.07642189,-0.0094889505,-0.057870105,0.007242169,-0.012732019,-0.032560665,-0.018350631,-0.026672978,0.046945505,0.016620927,0.017746128,0.05272795,0.018177506,0.0044345553,-0.026103305,-0.039411526,0.063391,0.012290685,0.059855714,0.07258733,0.027661206,-0.024899181,-0.084641464,0.055846907,-0.057522442,0.01060978,0.05659208,0.0026661067,0.07857791,0.07878294,-0.049772546,-0.025044214,0.014032245,0.05805851,0.019958396,-0.081903376,0.08058717,-0.063526526,0.030590553,0.041410066,0.077482745,0.04330512,-0.019187016,-0.03286559,-0.05318127,-0.04619431,0.015814165,-0.039512184,0.05996029,-0.082557015,0.08579651,-0.057603415,-0.054249287,-0.033555336,0.08711017,0.08898168,-0.06953609,0.038675614,-0.088570915,-0.0545205,-0.083617836,-0.026029807,-0.084316045,-0.010167764,0.0738698,-0.08029944,0.047941327,0.057692662,-0.01954804,-0.022967683,0.05737893,-0.007828557,0.02072305,0.0073587503,-0.056615185,0.059263512,0.079129204,-0.033000503,-0.012905969,-0.002863475,0.035547696,-0.039618872,-0.036104083,-0.032905288,-0.069632225,0.07471852,0.032160442,0.06474639,-0.030817425,0.020038944,-0.0174373,0.0042024343,0.06846003,-0.018585118,0.0012553958,0.0614946,0.06086513,0.04523092,-0.0880536,-0.08173001,0.065663256,-0.0012371298,-0.03821157,-0.050862312,-0.09012737,-0.08645449,0.043299306,-0.028060356,-0.00020973339,-0.027823983,0.05152042,-0.06478443,-0.041645333,0.042631026,0.06742149,-0.015596535,-0.04954035,-0.09001714,0.07782185,0.035025522,0.0007991584,0.065057054,0.014550395,-0.06771549,0.05727903,-0.029793411,-0.06982685,-0.059944205,0.045135252,-0.02731796,-0.033885915,0.022157125,0.056750856,-0.046275545,-0.06714056,0.01392023,0.054874904,0.089312345,0.03580715,-0.05855342,0.04456927,0.03701608,0.0831443,0.0425941,-0.035750423,0.058148086,-0.06418914,0.02628605,0.020255163,0.026341174,0.014077617,0.004024699,-0.024830077,-0.075502604,-0.07971351,0.050965443,-0.010816683,-0.01624064,0.03036776,-0.018569844,0.0336758,0.003975205,-0.039382946,-0.036733814,-0.037233938,0.034689836,-0.06801026,-0.01866869,0.05281931,0.009210828,0.01883456,0.03975769,-0.03446151,-0.011954435,-0.019610746,-0.016380128,0.06048751,0.056640945,0.021738548,-0.06761659,-0.022853564,0.015011546,0.012805495,0.033358846,-0.038935993,-0.08149302,-0.017471824,-0.023060359,-0.053253744,0.040578585,-0.050708257,0.067322314,-0.042066514,0.0056205643,-0.0673906,0.019275611,-0.051445067,-0.012542482,-0.07211316,-0.03316058,-0.072101064,-0.04438736,0.06129169,0.030273035,0.03330574,-0.04362858,0.077253304,0.03282128,-0.021497618,-0.015192883,0.06684135,0.078057446,0.0009985223,-0.08963175,0.0021183768,0.0038718677,-0.038227458,0.027600452,0.07753007,-0.003944118,0.07144183,-0.0119046485,0.07356779,-0.053071737,0.06315484,-0.07816707,-0.043205436,-0.027225513,-0.014990026,-0.02142909,0.023654675,0.026759133,-0.068839476,0.06958508,-0.061304446,0.050465643,0.07469315,-0.02965734,0.010812866,-0.05508411,0.055087015,0.0112435045,-0.009912778,0.0637136,-0.0021572625,0.03980841,-0.011896003,0.018294228,0.052520808,0.07388884,0.07944647,-0.078383,-0.044200707,0.020079445,-0.06553969,-0.069694005,0.03735758,0.06433087,-0.02948353,-0.07371504,0.031348515,-0.039890595,0.05332209,-0.042545803,0.015068774,-0.03667586,-0.08231593,-0.013283827,0.059087407,0.057909086,-0.029671863,-0.090006754,-0.011748075,-0.05014163,-0.012706627,0.053286515,-0.023290344,0.025506059,0.08726039,-0.060362663,0.039283004,-0.044645328,-0.03348826,0.009670742,0.0047734305,-0.081400126,0.06341587,0.029953413,-0.0061801826,-0.025148721,-0.01490105,-0.07964502,0.056327637,-0.0054803155,-0.045712877,0.0026810644,0.0122767035,0.029226873,0.03857335,-0.061847553,-0.04373309,-0.06725665,0.033515595,0.02406822,0.073926434,0.04489974,-0.004443775,0.0059057265,-0.036140807,0.0121182,-0.0013522902,0.04915159,0.08620246,0.07861317,0.06957499,-0.07674455,-0.06102476,-0.048228074,0.033974685,0.024804479,0.060711104,-0.029831745,-0.08180198,0.01583919,0.0074737915,-0.017949516,0.027280256,0.008473734,-0.002495682,-0.015046321,-0.077943645,0.055612616,0.041054554,0.050661374,-0.047487933,0.0053494815,-0.04700987,-0.07103941,0.034260366,0.056296594,0.03214902,0.066924274,-0.090615764,0.040228385,-0.050984196,-0.046838015,-0.06866153,0.015861707,0.03836402,-0.08174589,-0.010261632,0.07139967,0.045117605,-0.059828512,0.014035629,0.050469767,0.03414896,0.020921981,-0.00067182805,-0.07620781,0.02450169,-0.06946018,0.028624183,-0.06720809,0.046536963,0.04261701,-0.0070644557,0.07217422,-0.011895884,0.060676318,-0.041027535,0.0833033,-0.04471389,-0.044447646,0.07886727,-0.029081885,-0.013529073,0.07040892,-0.06528357,0.0800088,-0.050151013,-0.05999989,-0.039133348,0.053043317,0.0018963539,-0.021254305,0.04004281,0.08568325,-0.025332011,0.016300773,0.003033791,-0.06675567,0.07406432,-0.06416591,-0.062944084,-0.03494557,-0.011661746,0.0013671068,-0.00748107,0.030443352,0.023264505,0.085666046,0.01888682,0.058319896,0.08446081,0.03384382,-0.031847328,0.074970104,0.076655276,-0.0025559359,0.013322518,-0.090920426,-0.061045848,-0.047811113,0.0067996965,0.0044062342,0.015752187,0.047870442,-0.08612743,0.03157517,-0.010072681,0.07909392,-0.07757525,0.060996614,0.08061919,-0.006702054,-0.07578668,0.03179216,-0.03737185,-0.037819218,-0.018571861,-0.054801613,0.07106298,0.06858115,-0.0033804541,-0.0025767076,-0.076172955,-0.044977996,0.06757112,0.08301801,0.04297068,-0.019868204,-0.056127798,-0.0069227098,0.013689638,-0.01880933,0.026846558,-0.030968152,-0.018128911,-0.082329884,-0.090764254,0.049067006,-0.058201548,0.01897701,-0.009069277,0.07438664,0.033515345,0.079645246,0.025812415,0.041944142,-0.01118927,-0.041418485,0.053195953,0.018889196,0.03456002,0.070076816,0.06240253,-0.011265404,-0.031623915,0.086682975,0.012325005,0.046403624,0.009258456,-0.07120758,0.05916355,-0.056937076,-0.07526858,0.024799878,-0.035198007,-0.067519434,0.042116985,0.02283057,0.040248614,-0.019485682,0.06346848,-0.0072710435,-0.06686793,0.049344793,-0.0651299,0.055562288,-0.022888968,0.019888194,-0.058019757,-0.06675491,0.04821432,-0.046803012,0.028807918,-0.08548462,0.06679691,0.077737,-0.058029205,0.022743404,0.07074583,0.07263692,-0.00959309,0.009472604,-0.018473264,-0.08147508,0.03439196,0.054851793,0.06437881,-0.070384495,0.035795912,0.09075933,-0.03095109,-0.037877966,0.02107044,-0.07424948,0.09016794,-0.08463217,-0.08280423,-0.021542786,-0.016040538,-0.0576588,-0.021143949,0.059666775,-0.081501156,0.016911197,0.020175429,0.06280131,0.07220791,0.07839492,0.07279564,-0.0048008515,0.05932453,-0.0028581708,0.035119995,-0.018543553,-0.060578145,-0.01524088,-0.043025717,-0.059091084,0.043816675,-0.0495542,0.0003971658,-0.06396455,0.053106662,0.011319714,-0.061121915,0.08856243,-0.06838336,-0.05681315,0.0727422,0.053622916,0.053407446,0.04093294,0.005488884,0.07170245,-0.060870845,0.035983823,-0.05831211,0.07021163,-0.0138262855,0.017494852,-0.008726519,-0.052641988,0.06474931,-0.09088345,0.025634104,-0.038441986,-0.007901523,-0.002572423,-0.05586242,0.008744698,-0.04692352,0.08041686,0.0023070022,0.06449451,0.043236893,-0.07843106,0.048839822,-0.015900582,-0.042308852,0.08276532,-0.079331085,-0.014412999,0.06826335,-0.01774576,0.057950336,-0.057562284,-0.06830948,0.0057810857,-0.08801095,0.07801303,0.07508726,-0.019635985,-0.04891396,0.08086296,0.048654776,0.07383679,-0.012096571,-0.027023882,-0.06365895,0.0038325156,-0.038413145,-0.01562401,-0.049834635,0.06449355,-0.025457432,0.0031152612,0.00926645,0.041885916,-0.03862662,-0.00024320657,-0.0003590719,-0.07500226,-0.05976275,0.0119653465,-0.02042716,0.0034097512,0.008156998,0.06749516,0.04465433,-0.05151042,-0.03661109,0.03239073,-0.03588222,0.005742222,-0.0065779663,-0.082653336,-0.010234049,-0.029362762,-0.08181659,0.06415282,-0.045754842,-0.06235184,0.043312475,0.045657124,-0.017549662,-0.030551136,-0.047122058,-0.0782014,0.01934643,-0.026511945,-0.0040888144,-0.04107414,-0.046308205,0.0732641,0.09049089,0.07085654,-0.08884331,-0.05034697,-0.06963429,-0.027752677,0.022410387,-0.04417438,0.08706255,-0.06219681,0.078178674,0.051063076,0.0021738037,-0.035319697,-0.0059877494,-0.012053303,-0.07893209,0.08329915,0.026125995,-0.068939075,-0.07253827,0.00033760612,0.0552331,-0.06249747,0.061921205,0.016269078,-0.05181848,0.004669334,-0.039631367,0.058674708,-0.023634609,-0.089850195,0.023067974,-0.0186761,0.018776715,-0.03968108,0.050702203,0.0021763202,-0.012891933,0.01818076,0.047113977,0.05272169,0.025684206,-0.060570247,0.03470578,-0.011329128,0.012619429,-0.025711453,0.065140754,0.051573906,-0.04662277,0.06964988,-0.04759411,-0.086436234,-0.05468912,-0.07099354,-0.06065469,0.03466212,0.0437309,0.037779715,0.026998522,-0.011592174,-0.023233071,-0.07120463,-0.071262635,-0.01904424,-0.0768314,0.03166074,-0.006898771,-0.076772586,0.08824508,0.07335555,0.048290063,0.03495069,-0.004389227,-0.028514804,0.07305063,-0.04497269,-0.08122782,-0.06345595,-0.012441705,0.08951109,-0.026099421,-0.07853608,0.025470361,-0.08926409,0.019722586,0.06575349,0.008162183,0.07429307,0.056202944,-0.06333162,0.070663504,0.052832868,-0.083321765,-0.015802624,0.0664175,-0.08668911,-0.03141814,-0.07114136,0.05577585,0.0100651095,-0.012573797,0.022772202,-0.030199917,-0.02823051,0.09002613,0.0030536624,-0.034031097,0.054034714,-0.06271214,-0.030355688,0.04462964,-0.06707605,0.026068563,0.06357048,-0.07972639,0.030118696,0.041532323,0.014007384,0.00492483,-0.06686481,-0.013854455,0.09014735,0.02172615,-0.06830333,0.05309332,-0.08905544,0.012918551,-0.07484078,-0.08825817,0.04762507,-0.080257475,0.008030546,-0.08261208,-0.08017883,0.007846899,0.04112177,-0.058574483,-0.08714213,-0.083712325,-0.04512379,-0.029470699,0.027381293,0.06797771,0.082361735,0.033647493,0.08195725,0.0067039086,0.028653514,0.06987884,-0.0086902585,-0.01554177,0.022122957,-0.022395516,0.08591059,0.04958969,0.01685615,0.009865225,-0.014010345,-0.011484195,-0.026765913,0.09059385,0.04878488,-0.0711882,0.08842789,-0.08988632,0.058743738,0.05332387,-0.040817756,-0.061547328,0.034787543,-0.014833334,0.038735945,-0.037850793,0.0048188786,-0.08736488,0.04989746,0.011423019,0.046482846,-0.090980396,-0.007703776,-0.0321913,-0.08333078,0.013520244,-0.018650642,0.056984365,-0.04672626,0.054763768,0.041923035,0.05244616,0.008459189,0.07847062,0.05089382,0.0832496,-0.023464326,-0.08618704,0.08903809,0.07042301,0.07046324,-0.08377645,-0.07119772,-0.081216045,-0.059826594,-0.08040594,0.048402153,-0.028173303,0.08457638,-0.023950694,0.07387045,0.053702682,-0.014605964,0.06440449,-0.066248454,0.023149595,-0.051233336,0.06813057,-0.08375386,0.0015183218,0.07330441,-0.07051454,0.022963952,-0.059227396,0.019563334,-0.017529735,0.037786625,0.008361329,0.026355796,0.04940071,0.010999885,0.07002774,0.060407262,-0.016751599,-0.047528964,-0.032595135,-0.0733071,0.08728428,0.07371773,-0.08737098,-0.04838352,0.08248892,-0.034978002,-0.0146268,0.022351662,-0.014214243,0.06985481,0.005105917,0.038085006,0.043880858,-0.07428416,0.07667168,-0.019497646,-0.011053339,0.020531354,0.051799215,-0.05958589,-0.06561721,0.0049464693,-0.08310718,0.08977842,-0.0739217,0.00075687765,0.0049779573,-0.072765104,0.0044485154,-0.06120652,-0.05620344,0.0006269983,0.041231204,-0.019821672,0.07463437,0.016742747,0.016988264,0.057757113,0.0058292565,-0.0071129734,-0.006189793,-0.08413734,-0.00033475342,0.021743115,-0.023810685,0.030471608,0.02274899,-0.08556574,0.07600638,0.035490576,-0.059577767,-0.048657857,0.09015485,-0.088124655,-0.026378844,0.087755576,0.077245586,0.069185406,0.004321022,0.015214967,-0.04799579,-0.001107424,0.031133933,0.02658744,-0.0492698,-0.060672056,0.05803838,0.089084454,-0.041949227,0.06672288,0.070503354,-0.09060256,-0.0018856265,0.05580168,0.02639799,-0.046756923,-0.011974664,0.010560797,-0.0748089,0.033461403,-0.059700042,-0.09078489,-0.03442653,0.069024086,-0.089424916,0.08077252,0.08437022,0.016298529,-0.02632407,0.05281108,-0.08866577,0.02047428,-0.051212024,-0.06945386,0.07908414,0.06498277,-0.08330735,0.026426798,-0.08484564,0.031284206,0.08627012,0.08565004,0.063408904,-0.08636742,-0.038616512,-0.028743336,-0.033503566,-0.0122106355,-0.08246118,0.010513972,-0.08219859,-0.016094912,0.050366983,0.048522573,0.019920345,-0.0691876,-0.014794622,-0.04247225,0.080641545,0.031167764,-0.087876864,-0.04573459,0.08116189,-0.08052081,0.06689718,0.060062967,-0.049217734,0.062666,-0.067578614,-0.09060128,-0.054714374,-0.066057,-0.07727729,0.0062789097,0.011924584,-0.07041067,0.003631156,0.01668988,-0.07293493,-0.07543348,-0.06419162,0.069691315,0.090450935,-0.08076816,0.081032574,-0.053179175,-0.08027751,-0.017739566,-0.016065605,0.0007112127,0.089248314,-0.014866937,-0.0125411805,0.013605044,-0.087147675,-0.050359033,0.07203485,-0.06317142,0.030772725,0.028419722,-0.07839777,-0.024406714,-0.0733289,0.050294027,-0.06694608,0.055900555,0.015335323,0.053628977,0.016694067,0.0108684655,0.09064176,0.070668355,0.047291692,0.037073914,0.014169652,-0.049192797,0.017663412,0.011943447,-0.015806604,0.012955235,0.08230964,0.023145821,-0.080892056,0.0532293,-0.016528752,0.059020005,0.060209516,0.07772652,-0.061176106,-0.07321074,-0.008010631,0.09002052,0.060560096,-0.059866976,-0.01871145,0.078973055,0.073933184,0.07260097,-0.07993055,-0.017428102,0.07178885,0.0836225,0.019931972,0.014129659,0.036720287,-0.057959385,0.07754922,0.028538462,-0.049628533,0.048290007,0.023486432,0.07511587,-0.008867929,-0.074589595,0.050681,-0.008996452,-0.0257679,0.054173183,-0.056927964,0.017279044,-0.08071151,-0.071369044,-0.020211635,-0.025311727,-0.043413904,-0.0034223986,0.032089893,-0.024582835,0.047410477,0.02757069,0.037799563,-0.010279627,-0.002085164,0.029954184,-0.07535508,-0.030697111,-0.013819745,-0.05452706,0.036508374,0.011407659,0.0893059,-0.079171106,0.0041495343,0.0390979,-0.079385124,-0.026829723,0.076713495,0.016265316,-0.049706522,0.06720206,0.056206957,0.054856338,0.060743384,0.08160807,-0.07742386,0.026122384,0.08341955,-0.027647061,0.08027854,0.071158305,0.017074725,0.041489813,0.026397122,-0.04701796,-0.007378622,-0.07355439,0.049841337,0.06269943,-0.01540562,0.07552535,0.018021941,0.043971665,0.061061542,-0.013497021,0.080148496,0.038603287,-0.0046501025,-0.04598613,-0.005597081,-0.03413001,-0.02301604,-0.03927774,-0.03845409,0.0061688367
